~o
<STREAMINFO> 1 39
<VECSIZE> 39<NULLD><MFCC_E_D_A><DIAGC>
~s "silst"
<NUMMIXES> 8
<MIXTURE> 1 9.842757e-02
<MEAN> 39
 -1.088029e+01 1.774635e+00 1.156761e+00 4.865325e+00 6.053998e+00 2.194148e+00 2.350283e+00 2.195506e+00 1.172752e+00 -1.665101e+00 -2.189829e+00 -1.324447e+00 1.109441e+01 -6.321101e-01 2.163866e+00 2.359879e+00 1.505687e+00 1.108302e+00 1.508647e+00 5.834395e-01 -1.367191e-01 1.115352e+00 1.842060e+00 8.103052e-01 -2.879612e-01 2.943746e-01 3.041990e-01 -7.241669e-01 -3.743300e-01 -4.352262e-01 -2.357238e-01 -1.011984e+00 2.340847e-01 -3.806672e-01 -2.452395e-01 -4.627118e-01 -4.540165e-04 5.438314e-02 2.307392e-01
<VARIANCE> 39
 8.697064e+00 1.082078e+01 1.893111e+01 2.282655e+01 2.350426e+01 2.637961e+01 2.629333e+01 2.656391e+01 2.471655e+01 2.782165e+01 2.513948e+01 2.066286e+01 2.123252e+00 9.095854e-01 2.178364e+00 2.346693e+00 2.024298e+00 2.702513e+00 3.570072e+00 3.729161e+00 3.541598e+00 3.547979e+00 3.326679e+00 3.228898e+00 2.626255e+00 2.394030e-01 2.798513e-01 3.188083e-01 4.391190e-01 5.555296e-01 6.350446e-01 8.975556e-01 7.756376e-01 7.181293e-01 5.684991e-01 6.273638e-01 5.601268e-01 4.661006e-01 4.506606e-02
<GCONST> 1.086257e+02
<MIXTURE> 2 9.220181e-02
<MEAN> 39
 -1.237237e+01 -7.387958e+00 -1.664741e+00 -2.574829e+00 1.620311e+00 -7.842523e+00 2.256492e+00 -1.261614e+00 2.151691e-01 -3.798587e+00 2.702770e-01 -4.732802e-01 1.301520e+01 -2.118740e-01 3.646582e-01 4.915075e-01 4.985041e-01 3.012325e-01 7.454005e-02 3.285408e-01 1.545495e-01 1.561519e-01 6.876753e-02 1.573038e-01 -5.048418e-02 8.737394e-02 3.661736e-01 6.136418e-01 3.501194e-01 5.565231e-01 4.364872e-01 4.183019e-01 1.095774e-01 9.813911e-02 -7.274104e-02 -5.989371e-02 -2.675260e-01 -1.342507e-01 9.427284e-02
<VARIANCE> 39
 1.599940e+01 2.626867e+01 3.675233e+01 3.005923e+01 3.230674e+01 4.261003e+01 4.680765e+01 4.518949e+01 4.849399e+01 4.746524e+01 3.588021e+01 3.041753e+01 4.287469e+00 1.525831e+00 3.126111e+00 2.406772e+00 2.395094e+00 2.380492e+00 3.301129e+00 3.243101e+00 3.138276e+00 3.389260e+00 3.656372e+00 3.042784e+00 2.437858e+00 2.183807e-01 3.111316e-01 4.813617e-01 5.008218e-01 4.712074e-01 5.045954e-01 6.519499e-01 7.344248e-01 7.581195e-01 7.099279e-01 6.898140e-01 5.712135e-01 5.019746e-01 5.019768e-02
<GCONST> 1.165025e+02
<MIXTURE> 3 2.083743e-01
<MEAN> 39
 -8.289750e+00 -9.850496e+00 -2.614487e+00 -8.850587e-01 4.638666e+00 -6.426771e+00 9.920869e-01 -7.172015e-01 -1.180417e+00 -8.177313e+00 -4.317678e+00 -4.904591e-01 1.344883e+01 -4.628103e-01 -1.153456e+00 1.768748e-01 -5.065191e-01 -3.859524e-01 -1.380144e+00 -1.356524e-01 -6.422637e-01 -3.027433e-01 -7.105606e-01 -1.287354e-01 -1.282305e-01 1.429270e-01 -1.714332e-01 8.254848e-01 4.398784e-01 3.473098e-01 4.849001e-02 2.752506e-01 1.796838e-01 2.125416e-01 2.712475e-01 6.357292e-01 3.301934e-01 -2.126245e-02 -4.321167e-03
<VARIANCE> 39
 9.543323e+00 1.303917e+01 2.119602e+01 2.147634e+01 2.568983e+01 3.165444e+01 3.520631e+01 3.141811e+01 2.909271e+01 2.930848e+01 2.674130e+01 2.374032e+01 1.931738e+00 9.186010e-01 2.386200e+00 1.974379e+00 2.029925e+00 2.100994e+00 3.065617e+00 2.894292e+00 3.298759e+00 3.155896e+00 3.543553e+00 2.790478e+00 2.252938e+00 5.596959e-02 1.495877e-01 2.771118e-01 3.239969e-01 3.507157e-01 4.200085e-01 5.588608e-01 6.002802e-01 6.008204e-01 5.624832e-01 5.242524e-01 4.569244e-01 4.392253e-01 1.113978e-02
<GCONST> 1.027019e+02
<MIXTURE> 4 1.178998e-01
<MEAN> 39
 -9.888792e+00 4.861090e+00 4.584398e+00 6.584313e+00 8.441209e+00 2.799195e+00 3.963100e+00 3.626900e+00 3.441304e+00 1.720317e+00 -5.373769e-02 -1.009004e+00 1.329302e+01 -3.617503e-02 -8.448278e-01 -5.199422e-01 -2.302736e-01 -3.572144e-02 7.063536e-02 6.874831e-01 1.148259e-01 4.348956e-01 2.341873e-01 4.601029e-01 7.320778e-01 -2.722131e-02 2.438911e-01 -1.122288e+00 -4.707025e-01 -8.964107e-01 -4.590988e-01 -1.261637e+00 -8.431470e-02 -6.557929e-01 -5.362353e-01 -1.006544e+00 -2.454039e-01 -1.528535e-01 2.243598e-01
<VARIANCE> 39
 1.581866e+01 1.328539e+01 1.751798e+01 2.258737e+01 2.565586e+01 3.365941e+01 3.054120e+01 2.711052e+01 3.135997e+01 2.820775e+01 2.624131e+01 2.129498e+01 1.551042e+00 1.506032e+00 3.643463e+00 3.314800e+00 2.809206e+00 2.893617e+00 4.103648e+00 4.065774e+00 4.212137e+00 3.667595e+00 3.437694e+00 2.897772e+00 2.908327e+00 3.457326e-01 3.623296e-01 3.535246e-01 5.910394e-01 4.748825e-01 6.342180e-01 7.581151e-01 7.693499e-01 6.442332e-01 6.694019e-01 6.290984e-01 6.080222e-01 4.818865e-01 5.366503e-02
<GCONST> 1.131109e+02
<MIXTURE> 5 1.485967e-01
<MEAN> 39
 -7.702566e+00 -4.718294e+00 -2.138174e+00 1.221139e+00 5.216925e+00 -1.356592e+00 2.392095e+00 2.347962e+00 1.416436e+00 -3.478542e+00 -2.070419e+00 7.705894e-01 1.287136e+01 2.851172e-01 -3.425792e+00 -1.528352e+00 -1.614839e+00 -7.083296e-01 -1.755127e+00 -3.243283e-01 -7.368124e-01 -6.247366e-01 -1.792567e+00 -5.120015e-01 2.271727e-01 7.710259e-02 -1.659925e-01 5.358316e-02 4.165063e-01 -3.567694e-02 -2.043909e-02 -5.854837e-01 -7.247281e-02 -3.532242e-01 -2.126171e-01 -2.674226e-01 -1.120739e-01 -3.476827e-01 1.364636e-01
<VARIANCE> 39
 1.122964e+01 2.093394e+01 2.361342e+01 2.370011e+01 2.327127e+01 3.107204e+01 3.267019e+01 3.295110e+01 3.033202e+01 3.077028e+01 3.060085e+01 2.363397e+01 1.912758e+00 1.541934e+00 1.626673e+00 1.844492e+00 2.226927e+00 2.677345e+00 3.747479e+00 3.999414e+00 3.628664e+00 3.660196e+00 3.451245e+00 2.928894e+00 2.479934e+00 6.966242e-02 1.603673e-01 5.156067e-01 3.804902e-01 3.914607e-01 4.262886e-01 5.891495e-01 5.726762e-01 6.128252e-01 6.284388e-01 6.418545e-01 5.016875e-01 4.580201e-01 2.351468e-02
<GCONST> 1.073144e+02
<MIXTURE> 6 9.491377e-02
<MEAN> 39
 -1.103683e+01 3.243789e+00 2.761637e+00 4.346916e+00 7.089885e+00 1.684814e+00 4.240374e+00 2.417254e+00 2.377361e+00 1.561523e+00 2.475660e-01 -6.504205e-01 1.256100e+01 5.025347e-01 -1.438800e+00 -1.050945e+00 -9.740736e-01 -9.520676e-01 -9.633678e-01 -3.407037e-01 -5.841010e-01 -5.036715e-01 -8.251033e-01 -2.108658e-01 4.809101e-01 -5.997271e-02 2.504773e-01 -8.757668e-01 -3.604137e-01 -6.166881e-01 -3.431055e-01 -8.594382e-01 -3.415942e-01 -4.540899e-01 -3.857107e-01 -9.009402e-01 -3.334357e-01 -1.937736e-01 1.460890e-01
<VARIANCE> 39
 1.447589e+01 1.327992e+01 1.737618e+01 2.078230e+01 2.358109e+01 3.728687e+01 2.934496e+01 3.199443e+01 2.940306e+01 2.722997e+01 2.615158e+01 2.271819e+01 2.299908e+00 1.526126e+00 2.679021e+00 2.238017e+00 2.385369e+00 2.792902e+00 3.973070e+00 3.393983e+00 3.630177e+00 3.436770e+00 3.461256e+00 2.789823e+00 2.418231e+00 2.125828e-01 3.333929e-01 3.974472e-01 3.986350e-01 4.480337e-01 5.129403e-01 6.401647e-01 6.146806e-01 7.160049e-01 6.077023e-01 6.352879e-01 5.613344e-01 5.081112e-01 5.081113e-02
<GCONST> 1.103281e+02
<MIXTURE> 7 1.038466e-01
<MEAN> 39
 -1.176121e+01 -6.107764e+00 1.007927e+00 -3.000949e+00 2.349548e+00 -7.999671e+00 2.468089e+00 -2.098936e+00 -6.534051e-01 -2.192847e+00 5.993555e-01 -4.108687e-01 1.380887e+01 -3.918451e-01 -1.268457e+00 -4.492089e-01 -8.737417e-01 -7.255001e-01 -1.389123e+00 -4.471676e-01 -8.536596e-01 -7.322648e-01 -8.999861e-01 -2.733728e-01 -2.195119e-01 3.229842e-02 1.561516e-01 3.623406e-01 3.283687e-02 4.624056e-01 3.151350e-01 3.481689e-01 3.646741e-02 1.987445e-01 1.958557e-02 -2.253276e-01 -3.188929e-01 -1.323999e-01 1.234872e-02
<VARIANCE> 39
 1.345725e+01 3.177839e+01 2.981896e+01 2.334641e+01 3.209705e+01 3.839563e+01 4.223591e+01 4.024574e+01 4.723224e+01 3.766819e+01 2.887900e+01 2.895038e+01 3.344727e+00 1.327178e+00 2.906586e+00 1.830130e+00 2.246284e+00 2.469067e+00 3.490590e+00 3.201426e+00 3.365369e+00 3.342417e+00 3.579063e+00 2.987801e+00 2.317840e+00 1.357598e-01 2.348825e-01 5.995083e-01 4.357364e-01 4.249856e-01 5.063702e-01 5.907590e-01 6.767510e-01 7.157704e-01 7.723910e-01 6.351035e-01 5.160574e-01 4.918991e-01 2.885133e-02
<GCONST> 1.127636e+02
<MIXTURE> 8 1.357142e-01
<MEAN> 39
 -1.210172e+01 2.341466e+00 2.221600e+00 5.333594e+00 6.401789e+00 1.427026e+00 7.785400e-01 -2.862287e-01 8.035398e-01 -2.545602e-01 -1.700942e+00 -2.417600e+00 1.087281e+01 -7.043569e-01 6.577371e-01 6.692075e-01 4.455580e-01 1.980728e-01 7.928729e-01 2.210234e-01 -1.375823e-01 4.756948e-01 1.121058e+00 7.022837e-01 7.583447e-03 -1.492667e-01 4.057643e-01 -6.171613e-01 -4.485638e-01 -4.105910e-01 -1.896660e-01 -5.611886e-01 1.773620e-01 8.939581e-02 -1.640973e-01 -5.213794e-01 -8.540659e-02 1.143110e-01 1.765880e-01
<VARIANCE> 39
 8.464187e+00 8.729030e+00 1.284633e+01 1.941981e+01 1.960734e+01 2.687581e+01 2.650921e+01 2.679233e+01 2.978180e+01 2.669950e+01 2.450863e+01 1.998561e+01 1.281620e+00 1.156721e+00 1.947539e+00 2.667293e+00 2.301006e+00 2.486510e+00 3.469191e+00 3.123909e+00 3.446885e+00 3.400414e+00 3.328509e+00 3.122450e+00 2.313170e+00 2.243568e-01 2.723940e-01 3.136928e-01 4.080652e-01 4.531305e-01 4.680635e-01 6.382301e-01 6.371290e-01 5.998465e-01 6.210948e-01 6.404070e-01 5.766318e-01 4.239291e-01 4.665387e-02
<GCONST> 1.058061e+02
~h "bghmm"
<BEGINHMM>
<NUMSTATES> 6
<STATE> 2
<MEAN> 39
 3.081764e+00 2.312696e+00 1.827332e+00 -9.991433e+00 2.770829e+00 -9.794456e+00 2.326920e+00 6.341773e-01 -1.721382e+00 1.830017e-01 -6.771239e-02 -2.215984e+00 2.093459e+01 -2.341741e-02 1.289037e-01 1.839887e-01 2.717628e-01 -7.895381e-03 -5.384244e-02 -1.041257e-01 -1.263728e-01 -1.621120e-01 9.889565e-02 2.212335e-03 5.667671e-02 -3.011830e-02 -5.956459e-02 8.959067e-02 7.686353e-02 2.388373e-01 6.554600e-02 -3.333129e-02 -6.530955e-02 -1.156549e-01 -5.989259e-02 7.823559e-03 2.777276e-02 1.272376e-02 -3.263064e-02
<VARIANCE> 39
 2.482561e+01 3.501807e+01 9.167305e+01 8.425853e+01 6.261639e+01 1.082281e+02 8.698095e+01 7.024471e+01 9.270603e+01 5.959629e+01 7.174099e+01 5.066273e+01 1.183933e+00 5.490188e-01 1.489655e+00 2.275361e+00 3.199053e+00 3.264554e+00 3.857379e+00 3.893825e+00 3.963833e+00 5.066684e+00 3.932449e+00 3.910435e+00 3.348845e+00 1.853611e-02 1.082839e-01 2.621719e-01 3.729107e-01 5.518522e-01 5.773951e-01 6.962506e-01 6.940032e-01 7.391751e-01 9.244488e-01 7.229956e-01 7.188624e-01 6.307552e-01 3.983774e-03
<GCONST> 1.171092e+02
<STATE> 3
<MEAN> 39
 3.073384e+00 1.811020e+00 3.182076e+00 -6.129168e+00 2.591654e+00 -1.233580e+01 -2.425398e+00 -9.342871e-01 1.519201e+00 2.839268e-01 1.734401e+00 -2.047043e+00 2.045520e+01 5.840575e-01 4.773543e-02 -1.587705e-02 -1.731907e-01 1.900091e-01 -2.823035e-01 -2.028014e-01 4.119707e-01 1.054400e-01 -1.908123e-02 7.943273e-02 -1.732795e-01 1.417038e-01 -7.077891e-01 1.771590e-01 1.109348e-01 3.360782e-01 1.769930e-01 4.267568e-01 3.222888e-01 -3.134443e-02 -3.732608e-01 -1.072094e-01 -1.412294e-01 7.681747e-03 -1.984536e-01
<VARIANCE> 39
 2.877292e+01 2.935199e+01 7.813557e+01 7.679416e+01 5.624088e+01 9.512526e+01 8.834080e+01 7.073040e+01 7.994704e+01 7.181268e+01 6.066003e+01 4.748398e+01 1.642714e+00 6.756289e+00 4.246050e+00 5.480632e+00 9.491322e+00 5.312708e+00 9.128028e+00 7.360153e+00 6.793811e+00 9.374486e+00 6.654217e+00 5.663267e+00 4.401062e+00 5.567420e-01 6.445504e-01 6.636992e-01 7.392526e-01 1.095563e+00 8.966398e-01 1.343465e+00 1.199844e+00 1.216634e+00 1.477146e+00 1.277638e+00 1.034547e+00 8.511516e-01 4.184250e-02
<GCONST> 1.402615e+02
<STATE> 4
<MEAN> 39
 -2.965047e+00 9.918170e+00 8.781745e+00 1.725933e+00 6.589674e+00 -1.056135e+01 2.178592e+00 -3.570536e+00 -7.565723e+00 -8.306834e-01 -4.491809e-01 -3.251597e+00 1.902684e+01 -8.549283e-01 4.477594e-02 1.222850e-02 1.969180e-01 1.292511e-01 6.714346e-01 1.136146e-01 -1.854856e-01 1.138960e-01 -1.411926e-01 -1.729877e-01 1.015601e-01 -2.271827e-01 -5.187562e-03 -6.695334e-01 -3.777881e-01 -6.272749e-01 -2.768532e-01 -5.910094e-02 -1.363549e-01 2.867973e-01 6.413864e-01 9.236021e-02 6.852252e-02 8.010214e-02 3.830967e-02
<VARIANCE> 39
 5.179832e+01 3.266565e+01 3.072034e+01 5.875246e+01 4.139602e+01 6.316122e+01 7.029648e+01 4.071441e+01 8.786639e+01 4.819124e+01 3.968937e+01 3.129454e+01 1.924697e+00 6.861011e+00 5.163269e+00 3.124886e+00 5.344407e+00 3.882813e+00 5.874556e+00 5.875539e+00 4.459862e+00 9.627555e+00 4.517280e+00 4.043442e+00 3.115693e+00 3.301488e-01 5.692986e-01 5.243942e-01 4.783690e-01 8.342773e-01 6.616338e-01 9.788984e-01 1.007472e+00 7.554471e-01 1.341503e+00 8.641369e-01 7.828892e-01 5.712600e-01 2.702212e-02
<GCONST> 1.294387e+02
<STATE> 5
<MEAN> 39
 -1.408645e+01 -2.855112e+00 1.980322e+00 -6.590695e-01 5.006553e+00 -5.265613e+00 1.776696e+00 3.842148e-01 7.697626e-01 -2.037297e+00 -1.581536e+00 -4.696430e-01 1.460191e+01 1.034381e-01 -1.535661e-01 -1.444758e-01 -2.126142e-01 -1.718505e-01 -1.262720e-01 1.447803e-01 -5.541059e-02 5.721616e-03 6.001872e-03 3.854862e-02 9.180884e-03 5.425401e-02 4.695639e-01 1.608920e-01 6.351506e-02 -7.133690e-02 -1.629132e-02 -1.969197e-01 -7.020403e-02 -3.454162e-02 -5.494655e-02 9.104966e-03 2.668219e-02 -5.426436e-02 1.238890e-01
<VARIANCE> 39
 4.887857e+01 5.068094e+01 3.656511e+01 3.931588e+01 3.886159e+01 5.077724e+01 4.165196e+01 4.002623e+01 3.668791e+01 3.953602e+01 3.402448e+01 2.676879e+01 8.220158e+00 4.936258e+00 3.024078e+00 2.663826e+00 3.480418e+00 3.044690e+00 4.225672e+00 3.567322e+00 3.464750e+00 3.585824e+00 3.381105e+00 2.939418e+00 2.534634e+00 5.801660e-01 6.438373e-01 5.052967e-01 4.654517e-01 6.620765e-01 5.800700e-01 8.020225e-01 7.026004e-01 6.834259e-01 6.765367e-01 6.651754e-01 5.747473e-01 4.917113e-01 8.671529e-02
<GCONST> 1.236218e+02
<TRANSP> 6
 0.000000e+00 1.000000e+00 0.000000e+00 0.000000e+00 0.000000e+00 0.000000e+00
 0.000000e+00 2.000000e-01 2.000000e-01 2.000000e-01 2.000000e-01 2.000000e-01
 0.000000e+00 2.000000e-01 2.000000e-01 2.000000e-01 2.000000e-01 2.000000e-01
 0.000000e+00 2.000000e-01 2.000000e-01 2.000000e-01 2.000000e-01 2.000000e-01
 0.000000e+00 2.000000e-01 2.000000e-01 2.000000e-01 2.000000e-01 2.000000e-01
 0.000000e+00 0.000000e+00 0.000000e+00 0.000000e+00 0.000000e+00 0.000000e+00
<ENDHMM>
~h "sil"
<BEGINHMM>
<NUMSTATES> 5
<STATE> 2
<NUMMIXES> 8
<MIXTURE> 1 7.983170e-02
<MEAN> 39
 -9.593676e+00 -6.081747e+00 -1.555271e+00 -9.490571e-02 3.186867e+00 -8.011680e+00 3.116423e+00 -1.653036e+00 -1.099430e+00 -5.525659e+00 -2.662983e+00 -1.032313e+00 1.336821e+01 2.566304e-01 1.124140e+00 -1.147256e-01 1.041976e+00 4.939035e-01 1.922268e+00 2.033233e-01 8.790899e-01 1.874550e-01 8.250229e-01 3.251205e-01 1.731112e-01 -4.923582e-01 -6.323454e-02 4.951557e-01 4.509056e-01 3.435182e-01 3.521447e-01 7.260207e-01 1.964794e-01 2.052962e-01 1.927259e-01 2.220974e-01 1.135834e-01 -3.990247e-02 6.698421e-02
<VARIANCE> 39
 1.993517e+01 3.771247e+01 3.662475e+01 3.276187e+01 3.651456e+01 4.021024e+01 5.589735e+01 4.407809e+01 4.710181e+01 4.398641e+01 4.186216e+01 2.537386e+01 1.900686e+00 1.222693e+00 1.781042e+00 1.836362e+00 2.496497e+00 2.383865e+00 3.496158e+00 3.662304e+00 3.678596e+00 3.147504e+00 3.849747e+00 3.130098e+00 2.762864e+00 1.537314e-01 2.970738e-01 5.382090e-01 4.182639e-01 4.832658e-01 5.163823e-01 6.767591e-01 8.542441e-01 8.457117e-01 7.662700e-01 7.123398e-01 7.006240e-01 4.219681e-01 3.278289e-02
<GCONST> 1.154884e+02
<MIXTURE> 2 1.593803e-01
<MEAN> 39
 -1.154570e+01 -1.069097e+01 -1.434379e+00 -3.356951e+00 1.745369e+00 -8.362150e+00 3.588462e+00 -1.400851e+00 -2.626247e+00 -7.572222e+00 -2.426324e+00 6.468180e-01 1.389565e+01 1.994868e-01 1.350536e-01 2.861376e-01 6.446340e-01 3.780524e-01 2.484556e-02 3.378720e-01 1.219927e-01 -1.371457e-01 -4.146872e-01 -3.350097e-01 -1.100266e-01 3.602599e-02 1.278448e-01 1.981244e-01 1.682011e-01 3.245493e-01 1.900157e-01 -6.091694e-03 -1.278788e-01 2.008964e-01 3.063923e-01 2.263285e-01 3.468588e-02 1.936307e-02 1.324527e-04
<VARIANCE> 39
 8.264231e+00 9.781538e+00 1.393085e+01 1.391715e+01 1.623352e+01 2.121609e+01 2.800351e+01 2.884461e+01 2.855507e+01 2.934486e+01 2.362919e+01 2.336330e+01 9.096037e-01 4.781646e-01 6.747130e-01 1.155219e+00 1.273967e+00 1.651781e+00 2.443447e+00 2.417634e+00 2.928985e+00 2.680523e+00 2.499435e+00 2.414569e+00 2.070244e+00 3.039148e-02 7.048049e-02 1.698458e-01 1.618487e-01 2.035937e-01 2.190389e-01 4.037140e-01 3.673921e-01 5.193114e-01 4.892015e-01 4.662265e-01 4.076419e-01 4.052567e-01 3.799332e-03
<GCONST> 8.867661e+01
<MIXTURE> 3 1.639838e-01
<MEAN> 39
 -1.060828e+01 -9.903179e+00 9.301579e-01 1.240564e+00 5.066066e+00 -7.677261e+00 3.386863e+00 -1.724551e-01 -4.922087e-01 -7.590825e+00 -3.882570e+00 -6.172149e-01 1.400295e+01 1.571516e-01 8.105052e-03 -2.379005e-02 3.232686e-01 3.998092e-01 2.638704e-01 2.979369e-01 3.953195e-01 3.038290e-01 4.709413e-02 4.255415e-02 1.060267e-01 -2.223233e-02 1.068523e-02 -2.345337e-03 -1.912964e-01 -3.050130e-01 -3.302368e-01 -1.684634e-01 -7.925425e-02 -3.036153e-02 -1.520778e-02 1.833342e-01 2.148798e-01 2.006733e-01 -2.259189e-02
<VARIANCE> 39
 8.074538e+00 8.000063e+00 1.441108e+01 1.274527e+01 1.703579e+01 2.775895e+01 2.958089e+01 2.751047e+01 3.268872e+01 3.162465e+01 2.370358e+01 2.093657e+01 7.053487e-01 3.733298e-01 6.255924e-01 9.754786e-01 1.332948e+00 1.820491e+00 2.230824e+00 2.280574e+00 2.397095e+00 2.742724e+00 3.011904e+00 2.070168e+00 1.974376e+00 2.086244e-02 4.471979e-02 1.111755e-01 1.487364e-01 1.945112e-01 2.380587e-01 4.174927e-01 3.757649e-01 4.958885e-01 5.735467e-01 5.522116e-01 4.002315e-01 3.592144e-01 2.725533e-03
<GCONST> 8.644598e+01
<MIXTURE> 4 1.087071e-01
<MEAN> 39
 -1.149569e+01 -1.028558e+01 -3.382671e-01 -2.875643e+00 -6.587073e-01 -1.178549e+01 2.902304e-01 -8.742327e-01 9.248545e-01 -3.410275e+00 -3.208100e-01 1.943298e+00 1.377981e+01 1.390166e-01 2.725464e-02 3.571083e-02 1.174188e-01 6.683281e-02 1.348463e-01 2.072738e-01 3.161705e-01 3.319275e-01 3.395343e-01 2.712353e-01 1.522667e-01 -2.038519e-02 7.577760e-02 8.460321e-02 9.251783e-02 3.251972e-01 5.352734e-01 4.976282e-01 3.238575e-01 6.181039e-02 -2.517050e-01 -3.698207e-01 -3.307129e-01 -1.942528e-01 4.455918e-03
<VARIANCE> 39
 7.986740e+00 8.561576e+00 1.403745e+01 1.627956e+01 1.742270e+01 2.336729e+01 3.132438e+01 2.969915e+01 2.637605e+01 2.836983e+01 2.228038e+01 2.483042e+01 8.661171e-01 3.503756e-01 5.107710e-01 7.249085e-01 1.307516e+00 1.537912e+00 1.923809e+00 2.565431e+00 2.305083e+00 2.600884e+00 2.496719e+00 2.051818e+00 1.834209e+00 1.979612e-02 5.765133e-02 1.201326e-01 1.577988e-01 2.509664e-01 2.413324e-01 4.114232e-01 4.826764e-01 4.754691e-01 4.680160e-01 5.108474e-01 3.676993e-01 4.492377e-01 2.631982e-03
<GCONST> 8.617547e+01
<MIXTURE> 5 1.503254e-01
<MEAN> 39
 -9.644465e+00 -9.322078e+00 -1.872080e+00 -1.734855e+00 3.813308e+00 -6.831830e+00 2.177100e+00 3.579034e-01 2.290774e-01 -6.110361e+00 -2.238654e+00 1.070259e+00 1.384244e+01 -2.557121e-01 -1.143786e+00 -5.982382e-01 -6.776999e-01 -6.402342e-01 -1.301287e+00 -3.733596e-01 -6.325576e-01 -5.288084e-01 -7.246006e-01 -3.789404e-01 -1.275146e-01 -5.027112e-02 -7.106164e-02 7.265922e-01 4.335503e-01 4.327112e-01 1.165312e-01 2.927542e-01 1.409759e-01 2.119553e-02 -2.536794e-02 2.499080e-01 3.838420e-02 -1.916080e-01 5.985915e-03
<VARIANCE> 39
 1.158393e+01 1.989166e+01 2.242136e+01 2.454673e+01 2.513810e+01 3.045976e+01 4.056336e+01 3.308604e+01 2.770135e+01 4.556274e+01 3.346249e+01 2.292059e+01 1.430669e+00 9.912202e-01 2.670336e+00 1.592831e+00 2.502018e+00 2.368228e+00 3.359167e+00 3.340927e+00 3.232559e+00 3.284469e+00 3.292930e+00 2.981277e+00 2.280299e+00 1.108133e-01 1.476273e-01 3.052321e-01 2.949980e-01 3.957120e-01 4.315687e-01 6.066839e-01 5.937518e-01 5.819186e-01 5.372167e-01 6.792629e-01 5.611574e-01 4.159090e-01 1.842279e-02
<GCONST> 1.062110e+02
<MIXTURE> 6 1.431617e-01
<MEAN> 39
 -1.060852e+01 -9.842665e+00 1.059646e-01 1.484101e-01 5.074938e+00 -8.660347e+00 3.736054e+00 -4.070268e-02 -9.436843e-01 -7.404259e+00 -3.063832e+00 9.735944e-01 1.409965e+01 8.552083e-02 -2.610298e-01 -4.083231e-01 -2.008597e-01 -2.982199e-01 -3.698034e-01 -7.777086e-02 -2.996420e-01 -3.078322e-01 -3.139728e-01 -1.926682e-01 3.322298e-02 -7.598341e-02 -4.989912e-02 -5.097415e-02 -1.644584e-01 -2.673917e-01 -3.569114e-01 -9.481220e-02 -1.353380e-01 -8.404161e-02 1.529612e-02 1.267468e-01 7.800401e-02 2.377118e-02 -3.516614e-02
<VARIANCE> 39
 7.408875e+00 6.505324e+00 1.368925e+01 1.261633e+01 1.901840e+01 2.720858e+01 3.365406e+01 2.580807e+01 2.908743e+01 2.806444e+01 2.617513e+01 2.600958e+01 7.699549e-01 3.108152e-01 5.913053e-01 8.918037e-01 1.404718e+00 1.790509e+00 2.411453e+00 2.277308e+00 2.115395e+00 2.680080e+00 3.070676e+00 2.188151e+00 1.961398e+00 2.028901e-02 4.521453e-02 1.049268e-01 1.516133e-01 1.809747e-01 2.406497e-01 4.129965e-01 4.787681e-01 4.452280e-01 4.744483e-01 4.674158e-01 4.565695e-01 4.590934e-01 3.157719e-03
<GCONST> 8.629198e+01
<MIXTURE> 7 9.638649e-02
<MEAN> 39
 -1.190809e+01 -9.731131e+00 1.111814e-01 -3.247100e+00 1.539693e-01 -1.121019e+01 1.917499e+00 -1.109739e+00 -6.091600e-01 -4.447645e+00 -1.033461e+00 9.772626e-01 1.399564e+01 -3.257291e-02 -3.276450e-01 -3.779527e-01 -3.082965e-01 -2.593698e-01 -2.391461e-01 -1.258067e-01 -4.048764e-01 -3.924024e-01 -2.311379e-01 -6.223971e-02 -1.171049e-01 -7.742043e-02 5.604260e-02 -3.095062e-02 -2.937220e-02 2.146328e-01 3.008645e-01 2.674022e-01 9.390428e-02 3.747274e-02 -1.000697e-01 -2.978488e-01 -1.783023e-01 -6.999413e-02 8.005669e-04
<VARIANCE> 39
 6.991355e+00 6.462573e+00 1.138387e+01 1.322112e+01 1.327264e+01 2.134059e+01 2.068338e+01 2.547277e+01 2.796702e+01 2.694223e+01 2.483789e+01 1.741875e+01 6.765625e-01 3.165199e-01 5.546039e-01 8.114171e-01 1.310186e+00 1.429700e+00 2.056738e+00 2.264154e+00 2.156220e+00 2.510486e+00 2.449883e+00 2.157351e+00 2.079974e+00 1.673851e-02 6.081751e-02 1.031698e-01 1.402002e-01 1.950343e-01 2.167985e-01 3.597823e-01 3.321222e-01 4.082516e-01 4.311065e-01 4.729320e-01 3.577659e-01 2.696681e-01 1.964213e-03
<GCONST> 8.155127e+01
<MIXTURE> 8 9.822246e-02
<MEAN> 39
 -8.443503e+00 -1.961933e+00 2.200623e+00 2.749664e+00 5.443605e+00 -5.796243e+00 1.855975e+00 -2.968251e-01 1.141965e+00 -5.777614e+00 -2.894298e+00 -3.172831e+00 1.430677e+01 -4.623362e-01 -7.215860e-01 -1.033633e+00 8.504973e-02 -4.620330e-01 4.763095e-01 1.162535e-01 6.669114e-01 2.678459e-01 1.703797e-01 -1.925372e-01 3.677306e-01 -6.465249e-01 3.834307e-02 4.896940e-02 -6.660690e-02 -1.977908e-01 -2.018107e-02 1.479483e-01 2.246744e-01 1.992483e-02 -1.498118e-01 2.085625e-01 1.957747e-01 1.685293e-01 3.592347e-02
<VARIANCE> 39
 1.773927e+01 2.539278e+01 2.786153e+01 3.581294e+01 5.150262e+01 4.548331e+01 4.775611e+01 4.535530e+01 4.986500e+01 5.261353e+01 3.440547e+01 3.239228e+01 3.816977e+00 1.806466e+00 2.155470e+00 2.419979e+00 2.996100e+00 3.764229e+00 3.515886e+00 4.236751e+00 3.952266e+00 3.812891e+00 5.270525e+00 3.018746e+00 2.877847e+00 3.693710e-01 2.346693e-01 4.300194e-01 4.573293e-01 5.284685e-01 6.564582e-01 7.631600e-01 7.317818e-01 8.150602e-01 9.884839e-01 9.525211e-01 5.125744e-01 4.748869e-01 6.003811e-02
<GCONST> 1.200608e+02
<STATE> 3
~s "silst"
<STATE> 4
<NUMMIXES> 8
<MIXTURE> 1 9.982224e-02
<MEAN> 39
 -8.109630e+00 -6.150244e+00 -4.027530e+00 2.782544e+00 3.260981e+00 -3.634223e+00 5.330350e+00 3.079659e+00 -1.013203e+00 -6.477256e+00 -2.168649e+00 1.243592e+00 1.194339e+01 -1.823502e-01 3.683079e+00 2.377788e+00 1.784613e+00 1.147549e+00 2.563726e+00 -1.349798e-01 6.386755e-01 7.368450e-01 1.688913e+00 5.907140e-01 -5.048448e-01 3.154427e-02 1.626049e-03 2.297634e-01 5.184989e-01 -7.222737e-02 2.991208e-01 -3.205071e-01 9.038735e-02 -5.665736e-01 1.791851e-01 6.187333e-02 1.912989e-02 -2.207122e-01 3.100553e-01
<VARIANCE> 39
 8.005633e+00 2.661546e+01 2.630394e+01 2.711750e+01 3.753183e+01 4.482046e+01 3.262117e+01 3.383109e+01 3.295209e+01 3.893495e+01 4.411715e+01 2.429590e+01 1.047451e+00 1.160884e+00 1.698576e+00 1.605013e+00 2.517076e+00 3.231359e+00 3.959900e+00 3.925384e+00 3.571894e+00 3.793088e+00 3.583539e+00 3.231280e+00 2.403826e+00 2.357953e-01 2.749850e-01 5.766037e-01 4.324448e-01 5.286795e-01 6.575889e-01 9.074885e-01 5.847182e-01 6.935509e-01 7.074906e-01 6.736939e-01 7.244509e-01 3.932981e-01 3.709059e-02
<GCONST> 1.126759e+02
<MIXTURE> 2 2.292831e-01
<MEAN> 39
 -1.056099e+01 3.703904e+00 4.466425e+00 6.974030e+00 7.727201e+00 4.505208e+00 3.873259e+00 1.331516e+00 1.769778e+00 2.669908e-02 -7.214292e-01 -1.643010e+00 1.238225e+01 -5.044156e-01 7.343439e-01 8.801644e-01 5.242431e-01 4.623860e-01 3.909586e-01 3.293225e-01 -2.690407e-01 6.372604e-01 6.266084e-01 4.539189e-01 -1.956965e-01 1.665830e-01 3.256167e-01 -8.538868e-01 -6.621212e-01 -7.555855e-01 -5.387383e-01 -1.150571e+00 -7.670611e-02 -2.565243e-01 -2.450978e-01 -6.245355e-01 -1.848587e-01 8.105237e-02 1.495765e-01
<VARIANCE> 39
 7.912663e+00 8.958947e+00 1.363437e+01 2.146011e+01 2.061354e+01 1.916011e+01 2.416780e+01 2.648421e+01 2.374984e+01 2.579415e+01 2.564218e+01 1.958766e+01 2.395826e+00 1.069821e+00 2.998673e+00 2.579452e+00 2.736920e+00 2.906360e+00 4.129841e+00 3.447625e+00 3.474394e+00 3.002616e+00 3.198618e+00 3.018590e+00 2.123397e+00 2.520589e-01 2.738053e-01 3.655049e-01 3.634243e-01 5.522656e-01 5.374169e-01 6.903720e-01 7.148805e-01 6.205766e-01 5.565916e-01 6.052899e-01 5.288626e-01 4.351772e-01 4.609722e-02
<GCONST> 1.070523e+02
<MIXTURE> 3 1.277003e-01
<MEAN> 39
 -9.885501e+00 1.013324e+00 2.369739e+00 3.877511e+00 3.782302e+00 9.952145e-02 4.242115e+00 2.577064e+00 5.182303e-01 -2.240528e+00 -2.189099e-01 2.411188e-01 1.236110e+01 -6.637564e-02 -1.225294e+00 -1.008717e+00 -5.548714e-01 -2.313914e-01 -8.024296e-01 3.235437e-01 2.905570e-01 -1.126421e-01 -1.845202e-01 9.888961e-02 6.476901e-01 -3.269340e-02 4.748739e-02 -3.795631e-01 -4.657091e-02 -2.312948e-01 1.243042e-01 -4.658681e-01 -1.781631e-01 -2.826819e-01 -1.446055e-02 -3.278852e-01 -2.029399e-01 -2.749845e-01 1.724253e-01
<VARIANCE> 39
 1.129016e+01 2.164969e+01 1.690263e+01 1.823724e+01 2.202947e+01 3.023584e+01 2.256001e+01 2.422277e+01 3.669220e+01 2.476597e+01 2.340854e+01 2.209864e+01 2.458724e+00 1.208370e+00 3.141451e+00 1.881499e+00 1.997255e+00 2.772880e+00 2.954458e+00 2.248185e+00 2.563726e+00 2.619799e+00 3.540640e+00 2.155696e+00 2.192626e+00 1.535936e-01 3.057963e-01 5.894023e-01 3.058921e-01 3.039396e-01 4.536793e-01 7.134632e-01 4.819855e-01 4.150783e-01 5.187973e-01 6.112220e-01 3.962316e-01 3.509965e-01 5.404567e-02
<GCONST> 1.052267e+02
<MIXTURE> 4 8.034855e-02
<MEAN> 39
 -8.363662e+00 3.229318e-01 2.113553e+00 1.756546e+00 2.513022e+00 -5.959685e+00 5.778975e+00 -3.926122e+00 -7.942426e-01 -4.381217e+00 -2.194259e+00 -2.863747e+00 1.475865e+01 1.855987e+00 1.287259e+00 9.956101e-01 -2.907519e-01 -2.195148e-01 -1.524728e+00 -3.616070e-01 -6.561869e-01 -2.433359e-01 -8.351807e-01 -1.390694e-01 8.644899e-02 1.225158e+00 3.234576e-01 1.883151e-01 9.119278e-02 1.599669e-02 1.760108e-01 1.102010e-01 -1.938193e-01 3.828149e-01 1.987426e-01 2.431660e-02 1.265614e-01 2.160551e-01 1.361959e-01
<VARIANCE> 39
 4.206965e+01 5.233926e+01 4.572546e+01 4.829402e+01 3.908374e+01 4.697512e+01 7.649380e+01 6.256201e+01 7.280786e+01 4.378318e+01 3.799205e+01 3.897921e+01 9.297034e+00 5.231651e+00 2.378175e+00 3.313854e+00 4.411424e+00 3.247850e+00 5.232375e+00 4.092681e+00 3.390465e+00 5.806472e+00 4.618347e+00 2.762003e+00 3.833907e+00 9.633726e-01 8.044091e-01 6.942300e-01 5.603473e-01 8.114155e-01 5.642163e-01 6.919517e-01 1.040553e+00 8.486562e-01 1.035540e+00 6.378884e-01 5.002472e-01 6.764867e-01 1.270832e-01
<GCONST> 1.309413e+02
<MIXTURE> 5 1.371832e-01
<MEAN> 39
 -1.021732e+01 3.488425e+00 3.540272e+00 6.554777e+00 8.086704e+00 1.002747e+00 5.729431e+00 -6.694559e-01 1.351135e+00 -2.694757e+00 -9.341703e-01 -2.929262e+00 1.276571e+01 2.029296e+00 5.301224e-01 -2.967335e-01 -1.716945e+00 -1.553264e+00 -2.796751e+00 -3.330322e-02 -1.361005e+00 -3.371952e-01 -4.510707e-01 4.025636e-01 -6.789247e-01 1.014441e+00 8.189873e-01 -5.553656e-01 -5.551639e-01 -1.008745e+00 -6.216473e-01 -1.026494e+00 -2.018532e-01 2.907128e-02 -1.123947e-01 -2.017960e-01 6.253473e-02 9.011692e-02 3.943276e-01
<VARIANCE> 39
 1.259692e+01 1.274169e+01 1.622108e+01 2.238906e+01 2.690601e+01 3.937339e+01 4.379552e+01 3.302065e+01 2.801186e+01 3.995311e+01 2.840189e+01 2.226628e+01 3.114191e+00 4.388729e+00 4.674790e+00 3.685894e+00 4.814508e+00 4.238617e+00 6.953796e+00 4.060847e+00 4.465766e+00 4.411355e+00 4.149530e+00 3.603081e+00 3.213170e+00 8.402598e-01 4.017335e-01 7.503109e-01 6.209158e-01 7.150512e-01 7.817792e-01 8.853425e-01 8.036140e-01 7.513448e-01 9.430041e-01 9.288149e-01 8.009503e-01 6.924500e-01 6.458161e-02
<GCONST> 1.225138e+02
<MIXTURE> 6 1.036021e-01
<MEAN> 39
 -1.374940e+01 -3.611778e+00 -9.936264e-02 2.540439e-02 4.106915e+00 -5.370368e+00 6.141540e+00 -2.426949e+00 1.861688e-01 -2.838727e+00 -6.069944e-02 -1.684867e+00 1.286963e+01 1.547013e-01 -3.663448e-01 5.865256e-02 -1.031117e+00 -6.669107e-01 -9.210922e-01 1.678457e-01 -1.029670e+00 -2.245664e-01 -5.505372e-01 -3.714002e-01 -1.822659e-01 5.214930e-01 6.445442e-01 3.344718e-01 4.384755e-02 6.051421e-02 -1.133688e-01 7.115108e-02 -1.613095e-01 1.130381e-02 5.178668e-02 -1.893025e-01 -1.703347e-01 -6.200837e-03 1.985111e-01
<VARIANCE> 39
 2.214826e+01 3.483972e+01 4.805076e+01 4.156032e+01 4.532118e+01 6.370526e+01 6.640055e+01 5.044972e+01 5.438556e+01 4.847884e+01 4.019191e+01 4.709562e+01 3.080652e+00 3.803600e+00 3.821540e+00 2.951298e+00 4.011475e+00 2.898559e+00 7.501569e+00 5.177721e+00 3.912978e+00 5.364443e+00 3.561896e+00 2.811106e+00 3.180211e+00 5.953367e-01 5.395355e-01 7.199308e-01 8.158836e-01 7.202816e-01 7.251763e-01 1.194177e+00 9.472374e-01 7.184148e-01 7.391496e-01 6.603360e-01 5.111177e-01 6.053527e-01 8.940914e-02
<GCONST> 1.281051e+02
<MIXTURE> 7 1.358474e-01
<MEAN> 39
 -9.090971e+00 -2.184803e+00 -3.636220e+00 1.700886e+00 5.267197e+00 9.556653e-01 4.202173e+00 1.812985e+00 -1.152360e+00 -4.497145e+00 -3.469481e+00 -9.836883e-01 1.140221e+01 -9.917793e-01 1.980865e+00 1.697777e+00 8.586886e-01 4.156820e-01 1.359315e+00 1.924700e-01 -3.366858e-01 -3.546418e-02 6.941886e-01 5.820029e-01 -3.697346e-01 -9.778044e-02 -7.736499e-02 -1.926980e-03 5.073604e-01 1.612309e-01 -3.131832e-02 -4.897246e-01 -1.540463e-01 -2.637352e-01 1.848423e-01 2.007140e-01 3.135408e-01 1.226344e-04 1.803026e-01
<VARIANCE> 39
 1.036837e+01 2.207598e+01 2.024689e+01 1.789860e+01 2.739370e+01 3.287714e+01 4.030927e+01 3.173404e+01 2.991351e+01 3.676513e+01 3.155746e+01 1.878427e+01 1.359832e+00 1.296976e+00 2.147359e+00 2.802522e+00 2.180774e+00 3.140344e+00 4.063980e+00 3.291610e+00 2.773701e+00 2.757356e+00 3.905907e+00 2.588596e+00 2.296767e+00 2.001857e-01 2.244562e-01 4.403355e-01 4.831378e-01 4.342996e-01 5.257183e-01 6.480755e-01 6.658065e-01 6.302895e-01 5.705203e-01 6.734946e-01 6.076154e-01 3.883796e-01 2.808398e-02
<GCONST> 1.090048e+02
<MIXTURE> 8 8.621143e-02
<MEAN> 39
 -8.799932e+00 -4.516077e+00 -1.176245e+00 1.327710e+00 5.752148e+00 -2.960777e-01 3.886067e+00 3.946779e+00 3.686519e+00 -2.654276e+00 -1.557520e+00 1.393120e+00 1.317080e+01 2.742811e-02 -2.732881e+00 -1.487124e+00 -1.669458e+00 -8.543606e-01 -2.290749e+00 -6.056642e-01 -4.639247e-01 -4.344561e-01 -1.137808e+00 -3.867155e-01 9.084699e-02 1.108320e-01 -6.252813e-02 -3.569962e-02 2.006903e-01 -2.091960e-01 -2.525630e-01 -6.213865e-01 -2.869067e-01 -6.248414e-01 -5.592341e-01 -4.033099e-01 -2.427164e-01 -4.089178e-01 6.982066e-02
<VARIANCE> 39
 1.634502e+01 2.430892e+01 2.425925e+01 2.770945e+01 2.259056e+01 3.009515e+01 2.188244e+01 2.863583e+01 3.026111e+01 2.472709e+01 3.260559e+01 2.347054e+01 1.508121e+00 1.312903e+00 2.711588e+00 1.672925e+00 2.027182e+00 2.322603e+00 3.512428e+00 3.508067e+00 3.612311e+00 3.205098e+00 3.169118e+00 3.591760e+00 2.518600e+00 1.040379e-01 1.768673e-01 3.946496e-01 3.471869e-01 3.671355e-01 3.642323e-01 4.943767e-01 4.178189e-01 4.884709e-01 4.001306e-01 5.283527e-01 4.732912e-01 4.655822e-01 2.461202e-02
<GCONST> 1.053940e+02
<TRANSP> 5
 0.000000e+00 1.000000e+00 0.000000e+00 0.000000e+00 0.000000e+00
 0.000000e+00 8.900456e-01 4.172331e-02 6.823111e-02 0.000000e+00
 0.000000e+00 0.000000e+00 9.251193e-01 7.488064e-02 0.000000e+00
 0.000000e+00 6.986623e-02 0.000000e+00 7.678304e-01 1.623033e-01
 0.000000e+00 0.000000e+00 0.000000e+00 0.000000e+00 0.000000e+00
<ENDHMM>
~h "skip"
<BEGINHMM>
<NUMSTATES> 5
<STATE> 2
<NUMMIXES> 8
<MIXTURE> 1 7.983170e-02
<MEAN> 39
 -9.593676e+00 -6.081747e+00 -1.555271e+00 -9.490571e-02 3.186867e+00 -8.011680e+00 3.116423e+00 -1.653036e+00 -1.099430e+00 -5.525659e+00 -2.662983e+00 -1.032313e+00 1.336821e+01 2.566304e-01 1.124140e+00 -1.147256e-01 1.041976e+00 4.939035e-01 1.922268e+00 2.033233e-01 8.790899e-01 1.874550e-01 8.250229e-01 3.251205e-01 1.731112e-01 -4.923582e-01 -6.323454e-02 4.951557e-01 4.509056e-01 3.435182e-01 3.521447e-01 7.260207e-01 1.964794e-01 2.052962e-01 1.927259e-01 2.220974e-01 1.135834e-01 -3.990247e-02 6.698421e-02
<VARIANCE> 39
 1.993517e+01 3.771247e+01 3.662475e+01 3.276187e+01 3.651456e+01 4.021024e+01 5.589735e+01 4.407809e+01 4.710181e+01 4.398641e+01 4.186216e+01 2.537386e+01 1.900686e+00 1.222693e+00 1.781042e+00 1.836362e+00 2.496497e+00 2.383865e+00 3.496158e+00 3.662304e+00 3.678596e+00 3.147504e+00 3.849747e+00 3.130098e+00 2.762864e+00 1.537314e-01 2.970738e-01 5.382090e-01 4.182639e-01 4.832658e-01 5.163823e-01 6.767591e-01 8.542441e-01 8.457117e-01 7.662700e-01 7.123398e-01 7.006240e-01 4.219681e-01 3.278289e-02
<GCONST> 1.154884e+02
<MIXTURE> 2 1.593803e-01
<MEAN> 39
 -1.154570e+01 -1.069097e+01 -1.434379e+00 -3.356951e+00 1.745369e+00 -8.362150e+00 3.588462e+00 -1.400851e+00 -2.626247e+00 -7.572222e+00 -2.426324e+00 6.468180e-01 1.389565e+01 1.994868e-01 1.350536e-01 2.861376e-01 6.446340e-01 3.780524e-01 2.484556e-02 3.378720e-01 1.219927e-01 -1.371457e-01 -4.146872e-01 -3.350097e-01 -1.100266e-01 3.602599e-02 1.278448e-01 1.981244e-01 1.682011e-01 3.245493e-01 1.900157e-01 -6.091694e-03 -1.278788e-01 2.008964e-01 3.063923e-01 2.263285e-01 3.468588e-02 1.936307e-02 1.324527e-04
<VARIANCE> 39
 8.264231e+00 9.781538e+00 1.393085e+01 1.391715e+01 1.623352e+01 2.121609e+01 2.800351e+01 2.884461e+01 2.855507e+01 2.934486e+01 2.362919e+01 2.336330e+01 9.096037e-01 4.781646e-01 6.747130e-01 1.155219e+00 1.273967e+00 1.651781e+00 2.443447e+00 2.417634e+00 2.928985e+00 2.680523e+00 2.499435e+00 2.414569e+00 2.070244e+00 3.039148e-02 7.048049e-02 1.698458e-01 1.618487e-01 2.035937e-01 2.190389e-01 4.037140e-01 3.673921e-01 5.193114e-01 4.892015e-01 4.662265e-01 4.076419e-01 4.052567e-01 3.799332e-03
<GCONST> 8.867661e+01
<MIXTURE> 3 1.639838e-01
<MEAN> 39
 -1.060828e+01 -9.903179e+00 9.301579e-01 1.240564e+00 5.066066e+00 -7.677261e+00 3.386863e+00 -1.724551e-01 -4.922087e-01 -7.590825e+00 -3.882570e+00 -6.172149e-01 1.400295e+01 1.571516e-01 8.105052e-03 -2.379005e-02 3.232686e-01 3.998092e-01 2.638704e-01 2.979369e-01 3.953195e-01 3.038290e-01 4.709413e-02 4.255415e-02 1.060267e-01 -2.223233e-02 1.068523e-02 -2.345337e-03 -1.912964e-01 -3.050130e-01 -3.302368e-01 -1.684634e-01 -7.925425e-02 -3.036153e-02 -1.520778e-02 1.833342e-01 2.148798e-01 2.006733e-01 -2.259189e-02
<VARIANCE> 39
 8.074538e+00 8.000063e+00 1.441108e+01 1.274527e+01 1.703579e+01 2.775895e+01 2.958089e+01 2.751047e+01 3.268872e+01 3.162465e+01 2.370358e+01 2.093657e+01 7.053487e-01 3.733298e-01 6.255924e-01 9.754786e-01 1.332948e+00 1.820491e+00 2.230824e+00 2.280574e+00 2.397095e+00 2.742724e+00 3.011904e+00 2.070168e+00 1.974376e+00 2.086244e-02 4.471979e-02 1.111755e-01 1.487364e-01 1.945112e-01 2.380587e-01 4.174927e-01 3.757649e-01 4.958885e-01 5.735467e-01 5.522116e-01 4.002315e-01 3.592144e-01 2.725533e-03
<GCONST> 8.644598e+01
<MIXTURE> 4 1.087071e-01
<MEAN> 39
 -1.149569e+01 -1.028558e+01 -3.382671e-01 -2.875643e+00 -6.587073e-01 -1.178549e+01 2.902304e-01 -8.742327e-01 9.248545e-01 -3.410275e+00 -3.208100e-01 1.943298e+00 1.377981e+01 1.390166e-01 2.725464e-02 3.571083e-02 1.174188e-01 6.683281e-02 1.348463e-01 2.072738e-01 3.161705e-01 3.319275e-01 3.395343e-01 2.712353e-01 1.522667e-01 -2.038519e-02 7.577760e-02 8.460321e-02 9.251783e-02 3.251972e-01 5.352734e-01 4.976282e-01 3.238575e-01 6.181039e-02 -2.517050e-01 -3.698207e-01 -3.307129e-01 -1.942528e-01 4.455918e-03
<VARIANCE> 39
 7.986740e+00 8.561576e+00 1.403745e+01 1.627956e+01 1.742270e+01 2.336729e+01 3.132438e+01 2.969915e+01 2.637605e+01 2.836983e+01 2.228038e+01 2.483042e+01 8.661171e-01 3.503756e-01 5.107710e-01 7.249085e-01 1.307516e+00 1.537912e+00 1.923809e+00 2.565431e+00 2.305083e+00 2.600884e+00 2.496719e+00 2.051818e+00 1.834209e+00 1.979612e-02 5.765133e-02 1.201326e-01 1.577988e-01 2.509664e-01 2.413324e-01 4.114232e-01 4.826764e-01 4.754691e-01 4.680160e-01 5.108474e-01 3.676993e-01 4.492377e-01 2.631982e-03
<GCONST> 8.617547e+01
<MIXTURE> 5 1.503254e-01
<MEAN> 39
 -9.644465e+00 -9.322078e+00 -1.872080e+00 -1.734855e+00 3.813308e+00 -6.831830e+00 2.177100e+00 3.579034e-01 2.290774e-01 -6.110361e+00 -2.238654e+00 1.070259e+00 1.384244e+01 -2.557121e-01 -1.143786e+00 -5.982382e-01 -6.776999e-01 -6.402342e-01 -1.301287e+00 -3.733596e-01 -6.325576e-01 -5.288084e-01 -7.246006e-01 -3.789404e-01 -1.275146e-01 -5.027112e-02 -7.106164e-02 7.265922e-01 4.335503e-01 4.327112e-01 1.165312e-01 2.927542e-01 1.409759e-01 2.119553e-02 -2.536794e-02 2.499080e-01 3.838420e-02 -1.916080e-01 5.985915e-03
<VARIANCE> 39
 1.158393e+01 1.989166e+01 2.242136e+01 2.454673e+01 2.513810e+01 3.045976e+01 4.056336e+01 3.308604e+01 2.770135e+01 4.556274e+01 3.346249e+01 2.292059e+01 1.430669e+00 9.912202e-01 2.670336e+00 1.592831e+00 2.502018e+00 2.368228e+00 3.359167e+00 3.340927e+00 3.232559e+00 3.284469e+00 3.292930e+00 2.981277e+00 2.280299e+00 1.108133e-01 1.476273e-01 3.052321e-01 2.949980e-01 3.957120e-01 4.315687e-01 6.066839e-01 5.937518e-01 5.819186e-01 5.372167e-01 6.792629e-01 5.611574e-01 4.159090e-01 1.842279e-02
<GCONST> 1.062110e+02
<MIXTURE> 6 1.431617e-01
<MEAN> 39
 -1.060852e+01 -9.842665e+00 1.059646e-01 1.484101e-01 5.074938e+00 -8.660347e+00 3.736054e+00 -4.070268e-02 -9.436843e-01 -7.404259e+00 -3.063832e+00 9.735944e-01 1.409965e+01 8.552083e-02 -2.610298e-01 -4.083231e-01 -2.008597e-01 -2.982199e-01 -3.698034e-01 -7.777086e-02 -2.996420e-01 -3.078322e-01 -3.139728e-01 -1.926682e-01 3.322298e-02 -7.598341e-02 -4.989912e-02 -5.097415e-02 -1.644584e-01 -2.673917e-01 -3.569114e-01 -9.481220e-02 -1.353380e-01 -8.404161e-02 1.529612e-02 1.267468e-01 7.800401e-02 2.377118e-02 -3.516614e-02
<VARIANCE> 39
 7.408875e+00 6.505324e+00 1.368925e+01 1.261633e+01 1.901840e+01 2.720858e+01 3.365406e+01 2.580807e+01 2.908743e+01 2.806444e+01 2.617513e+01 2.600958e+01 7.699549e-01 3.108152e-01 5.913053e-01 8.918037e-01 1.404718e+00 1.790509e+00 2.411453e+00 2.277308e+00 2.115395e+00 2.680080e+00 3.070676e+00 2.188151e+00 1.961398e+00 2.028901e-02 4.521453e-02 1.049268e-01 1.516133e-01 1.809747e-01 2.406497e-01 4.129965e-01 4.787681e-01 4.452280e-01 4.744483e-01 4.674158e-01 4.565695e-01 4.590934e-01 3.157719e-03
<GCONST> 8.629198e+01
<MIXTURE> 7 9.638649e-02
<MEAN> 39
 -1.190809e+01 -9.731131e+00 1.111814e-01 -3.247100e+00 1.539693e-01 -1.121019e+01 1.917499e+00 -1.109739e+00 -6.091600e-01 -4.447645e+00 -1.033461e+00 9.772626e-01 1.399564e+01 -3.257291e-02 -3.276450e-01 -3.779527e-01 -3.082965e-01 -2.593698e-01 -2.391461e-01 -1.258067e-01 -4.048764e-01 -3.924024e-01 -2.311379e-01 -6.223971e-02 -1.171049e-01 -7.742043e-02 5.604260e-02 -3.095062e-02 -2.937220e-02 2.146328e-01 3.008645e-01 2.674022e-01 9.390428e-02 3.747274e-02 -1.000697e-01 -2.978488e-01 -1.783023e-01 -6.999413e-02 8.005669e-04
<VARIANCE> 39
 6.991355e+00 6.462573e+00 1.138387e+01 1.322112e+01 1.327264e+01 2.134059e+01 2.068338e+01 2.547277e+01 2.796702e+01 2.694223e+01 2.483789e+01 1.741875e+01 6.765625e-01 3.165199e-01 5.546039e-01 8.114171e-01 1.310186e+00 1.429700e+00 2.056738e+00 2.264154e+00 2.156220e+00 2.510486e+00 2.449883e+00 2.157351e+00 2.079974e+00 1.673851e-02 6.081751e-02 1.031698e-01 1.402002e-01 1.950343e-01 2.167985e-01 3.597823e-01 3.321222e-01 4.082516e-01 4.311065e-01 4.729320e-01 3.577659e-01 2.696681e-01 1.964213e-03
<GCONST> 8.155127e+01
<MIXTURE> 8 9.822246e-02
<MEAN> 39
 -8.443503e+00 -1.961933e+00 2.200623e+00 2.749664e+00 5.443605e+00 -5.796243e+00 1.855975e+00 -2.968251e-01 1.141965e+00 -5.777614e+00 -2.894298e+00 -3.172831e+00 1.430677e+01 -4.623362e-01 -7.215860e-01 -1.033633e+00 8.504973e-02 -4.620330e-01 4.763095e-01 1.162535e-01 6.669114e-01 2.678459e-01 1.703797e-01 -1.925372e-01 3.677306e-01 -6.465249e-01 3.834307e-02 4.896940e-02 -6.660690e-02 -1.977908e-01 -2.018107e-02 1.479483e-01 2.246744e-01 1.992483e-02 -1.498118e-01 2.085625e-01 1.957747e-01 1.685293e-01 3.592347e-02
<VARIANCE> 39
 1.773927e+01 2.539278e+01 2.786153e+01 3.581294e+01 5.150262e+01 4.548331e+01 4.775611e+01 4.535530e+01 4.986500e+01 5.261353e+01 3.440547e+01 3.239228e+01 3.816977e+00 1.806466e+00 2.155470e+00 2.419979e+00 2.996100e+00 3.764229e+00 3.515886e+00 4.236751e+00 3.952266e+00 3.812891e+00 5.270525e+00 3.018746e+00 2.877847e+00 3.693710e-01 2.346693e-01 4.300194e-01 4.573293e-01 5.284685e-01 6.564582e-01 7.631600e-01 7.317818e-01 8.150602e-01 9.884839e-01 9.525211e-01 5.125744e-01 4.748869e-01 6.003811e-02
<GCONST> 1.200608e+02
<STATE> 3
~s "silst"
<STATE> 4
<NUMMIXES> 8
<MIXTURE> 1 9.982224e-02
<MEAN> 39
 -8.109630e+00 -6.150244e+00 -4.027530e+00 2.782544e+00 3.260981e+00 -3.634223e+00 5.330350e+00 3.079659e+00 -1.013203e+00 -6.477256e+00 -2.168649e+00 1.243592e+00 1.194339e+01 -1.823502e-01 3.683079e+00 2.377788e+00 1.784613e+00 1.147549e+00 2.563726e+00 -1.349798e-01 6.386755e-01 7.368450e-01 1.688913e+00 5.907140e-01 -5.048448e-01 3.154427e-02 1.626049e-03 2.297634e-01 5.184989e-01 -7.222737e-02 2.991208e-01 -3.205071e-01 9.038735e-02 -5.665736e-01 1.791851e-01 6.187333e-02 1.912989e-02 -2.207122e-01 3.100553e-01
<VARIANCE> 39
 8.005633e+00 2.661546e+01 2.630394e+01 2.711750e+01 3.753183e+01 4.482046e+01 3.262117e+01 3.383109e+01 3.295209e+01 3.893495e+01 4.411715e+01 2.429590e+01 1.047451e+00 1.160884e+00 1.698576e+00 1.605013e+00 2.517076e+00 3.231359e+00 3.959900e+00 3.925384e+00 3.571894e+00 3.793088e+00 3.583539e+00 3.231280e+00 2.403826e+00 2.357953e-01 2.749850e-01 5.766037e-01 4.324448e-01 5.286795e-01 6.575889e-01 9.074885e-01 5.847182e-01 6.935509e-01 7.074906e-01 6.736939e-01 7.244509e-01 3.932981e-01 3.709059e-02
<GCONST> 1.126759e+02
<MIXTURE> 2 2.292831e-01
<MEAN> 39
 -1.056099e+01 3.703904e+00 4.466425e+00 6.974030e+00 7.727201e+00 4.505208e+00 3.873259e+00 1.331516e+00 1.769778e+00 2.669908e-02 -7.214292e-01 -1.643010e+00 1.238225e+01 -5.044156e-01 7.343439e-01 8.801644e-01 5.242431e-01 4.623860e-01 3.909586e-01 3.293225e-01 -2.690407e-01 6.372604e-01 6.266084e-01 4.539189e-01 -1.956965e-01 1.665830e-01 3.256167e-01 -8.538868e-01 -6.621212e-01 -7.555855e-01 -5.387383e-01 -1.150571e+00 -7.670611e-02 -2.565243e-01 -2.450978e-01 -6.245355e-01 -1.848587e-01 8.105237e-02 1.495765e-01
<VARIANCE> 39
 7.912663e+00 8.958947e+00 1.363437e+01 2.146011e+01 2.061354e+01 1.916011e+01 2.416780e+01 2.648421e+01 2.374984e+01 2.579415e+01 2.564218e+01 1.958766e+01 2.395826e+00 1.069821e+00 2.998673e+00 2.579452e+00 2.736920e+00 2.906360e+00 4.129841e+00 3.447625e+00 3.474394e+00 3.002616e+00 3.198618e+00 3.018590e+00 2.123397e+00 2.520589e-01 2.738053e-01 3.655049e-01 3.634243e-01 5.522656e-01 5.374169e-01 6.903720e-01 7.148805e-01 6.205766e-01 5.565916e-01 6.052899e-01 5.288626e-01 4.351772e-01 4.609722e-02
<GCONST> 1.070523e+02
<MIXTURE> 3 1.277003e-01
<MEAN> 39
 -9.885501e+00 1.013324e+00 2.369739e+00 3.877511e+00 3.782302e+00 9.952145e-02 4.242115e+00 2.577064e+00 5.182303e-01 -2.240528e+00 -2.189099e-01 2.411188e-01 1.236110e+01 -6.637564e-02 -1.225294e+00 -1.008717e+00 -5.548714e-01 -2.313914e-01 -8.024296e-01 3.235437e-01 2.905570e-01 -1.126421e-01 -1.845202e-01 9.888961e-02 6.476901e-01 -3.269340e-02 4.748739e-02 -3.795631e-01 -4.657091e-02 -2.312948e-01 1.243042e-01 -4.658681e-01 -1.781631e-01 -2.826819e-01 -1.446055e-02 -3.278852e-01 -2.029399e-01 -2.749845e-01 1.724253e-01
<VARIANCE> 39
 1.129016e+01 2.164969e+01 1.690263e+01 1.823724e+01 2.202947e+01 3.023584e+01 2.256001e+01 2.422277e+01 3.669220e+01 2.476597e+01 2.340854e+01 2.209864e+01 2.458724e+00 1.208370e+00 3.141451e+00 1.881499e+00 1.997255e+00 2.772880e+00 2.954458e+00 2.248185e+00 2.563726e+00 2.619799e+00 3.540640e+00 2.155696e+00 2.192626e+00 1.535936e-01 3.057963e-01 5.894023e-01 3.058921e-01 3.039396e-01 4.536793e-01 7.134632e-01 4.819855e-01 4.150783e-01 5.187973e-01 6.112220e-01 3.962316e-01 3.509965e-01 5.404567e-02
<GCONST> 1.052267e+02
<MIXTURE> 4 8.034855e-02
<MEAN> 39
 -8.363662e+00 3.229318e-01 2.113553e+00 1.756546e+00 2.513022e+00 -5.959685e+00 5.778975e+00 -3.926122e+00 -7.942426e-01 -4.381217e+00 -2.194259e+00 -2.863747e+00 1.475865e+01 1.855987e+00 1.287259e+00 9.956101e-01 -2.907519e-01 -2.195148e-01 -1.524728e+00 -3.616070e-01 -6.561869e-01 -2.433359e-01 -8.351807e-01 -1.390694e-01 8.644899e-02 1.225158e+00 3.234576e-01 1.883151e-01 9.119278e-02 1.599669e-02 1.760108e-01 1.102010e-01 -1.938193e-01 3.828149e-01 1.987426e-01 2.431660e-02 1.265614e-01 2.160551e-01 1.361959e-01
<VARIANCE> 39
 4.206965e+01 5.233926e+01 4.572546e+01 4.829402e+01 3.908374e+01 4.697512e+01 7.649380e+01 6.256201e+01 7.280786e+01 4.378318e+01 3.799205e+01 3.897921e+01 9.297034e+00 5.231651e+00 2.378175e+00 3.313854e+00 4.411424e+00 3.247850e+00 5.232375e+00 4.092681e+00 3.390465e+00 5.806472e+00 4.618347e+00 2.762003e+00 3.833907e+00 9.633726e-01 8.044091e-01 6.942300e-01 5.603473e-01 8.114155e-01 5.642163e-01 6.919517e-01 1.040553e+00 8.486562e-01 1.035540e+00 6.378884e-01 5.002472e-01 6.764867e-01 1.270832e-01
<GCONST> 1.309413e+02
<MIXTURE> 5 1.371832e-01
<MEAN> 39
 -1.021732e+01 3.488425e+00 3.540272e+00 6.554777e+00 8.086704e+00 1.002747e+00 5.729431e+00 -6.694559e-01 1.351135e+00 -2.694757e+00 -9.341703e-01 -2.929262e+00 1.276571e+01 2.029296e+00 5.301224e-01 -2.967335e-01 -1.716945e+00 -1.553264e+00 -2.796751e+00 -3.330322e-02 -1.361005e+00 -3.371952e-01 -4.510707e-01 4.025636e-01 -6.789247e-01 1.014441e+00 8.189873e-01 -5.553656e-01 -5.551639e-01 -1.008745e+00 -6.216473e-01 -1.026494e+00 -2.018532e-01 2.907128e-02 -1.123947e-01 -2.017960e-01 6.253473e-02 9.011692e-02 3.943276e-01
<VARIANCE> 39
 1.259692e+01 1.274169e+01 1.622108e+01 2.238906e+01 2.690601e+01 3.937339e+01 4.379552e+01 3.302065e+01 2.801186e+01 3.995311e+01 2.840189e+01 2.226628e+01 3.114191e+00 4.388729e+00 4.674790e+00 3.685894e+00 4.814508e+00 4.238617e+00 6.953796e+00 4.060847e+00 4.465766e+00 4.411355e+00 4.149530e+00 3.603081e+00 3.213170e+00 8.402598e-01 4.017335e-01 7.503109e-01 6.209158e-01 7.150512e-01 7.817792e-01 8.853425e-01 8.036140e-01 7.513448e-01 9.430041e-01 9.288149e-01 8.009503e-01 6.924500e-01 6.458161e-02
<GCONST> 1.225138e+02
<MIXTURE> 6 1.036021e-01
<MEAN> 39
 -1.374940e+01 -3.611778e+00 -9.936264e-02 2.540439e-02 4.106915e+00 -5.370368e+00 6.141540e+00 -2.426949e+00 1.861688e-01 -2.838727e+00 -6.069944e-02 -1.684867e+00 1.286963e+01 1.547013e-01 -3.663448e-01 5.865256e-02 -1.031117e+00 -6.669107e-01 -9.210922e-01 1.678457e-01 -1.029670e+00 -2.245664e-01 -5.505372e-01 -3.714002e-01 -1.822659e-01 5.214930e-01 6.445442e-01 3.344718e-01 4.384755e-02 6.051421e-02 -1.133688e-01 7.115108e-02 -1.613095e-01 1.130381e-02 5.178668e-02 -1.893025e-01 -1.703347e-01 -6.200837e-03 1.985111e-01
<VARIANCE> 39
 2.214826e+01 3.483972e+01 4.805076e+01 4.156032e+01 4.532118e+01 6.370526e+01 6.640055e+01 5.044972e+01 5.438556e+01 4.847884e+01 4.019191e+01 4.709562e+01 3.080652e+00 3.803600e+00 3.821540e+00 2.951298e+00 4.011475e+00 2.898559e+00 7.501569e+00 5.177721e+00 3.912978e+00 5.364443e+00 3.561896e+00 2.811106e+00 3.180211e+00 5.953367e-01 5.395355e-01 7.199308e-01 8.158836e-01 7.202816e-01 7.251763e-01 1.194177e+00 9.472374e-01 7.184148e-01 7.391496e-01 6.603360e-01 5.111177e-01 6.053527e-01 8.940914e-02
<GCONST> 1.281051e+02
<MIXTURE> 7 1.358474e-01
<MEAN> 39
 -9.090971e+00 -2.184803e+00 -3.636220e+00 1.700886e+00 5.267197e+00 9.556653e-01 4.202173e+00 1.812985e+00 -1.152360e+00 -4.497145e+00 -3.469481e+00 -9.836883e-01 1.140221e+01 -9.917793e-01 1.980865e+00 1.697777e+00 8.586886e-01 4.156820e-01 1.359315e+00 1.924700e-01 -3.366858e-01 -3.546418e-02 6.941886e-01 5.820029e-01 -3.697346e-01 -9.778044e-02 -7.736499e-02 -1.926980e-03 5.073604e-01 1.612309e-01 -3.131832e-02 -4.897246e-01 -1.540463e-01 -2.637352e-01 1.848423e-01 2.007140e-01 3.135408e-01 1.226344e-04 1.803026e-01
<VARIANCE> 39
 1.036837e+01 2.207598e+01 2.024689e+01 1.789860e+01 2.739370e+01 3.287714e+01 4.030927e+01 3.173404e+01 2.991351e+01 3.676513e+01 3.155746e+01 1.878427e+01 1.359832e+00 1.296976e+00 2.147359e+00 2.802522e+00 2.180774e+00 3.140344e+00 4.063980e+00 3.291610e+00 2.773701e+00 2.757356e+00 3.905907e+00 2.588596e+00 2.296767e+00 2.001857e-01 2.244562e-01 4.403355e-01 4.831378e-01 4.342996e-01 5.257183e-01 6.480755e-01 6.658065e-01 6.302895e-01 5.705203e-01 6.734946e-01 6.076154e-01 3.883796e-01 2.808398e-02
<GCONST> 1.090048e+02
<MIXTURE> 8 8.621143e-02
<MEAN> 39
 -8.799932e+00 -4.516077e+00 -1.176245e+00 1.327710e+00 5.752148e+00 -2.960777e-01 3.886067e+00 3.946779e+00 3.686519e+00 -2.654276e+00 -1.557520e+00 1.393120e+00 1.317080e+01 2.742811e-02 -2.732881e+00 -1.487124e+00 -1.669458e+00 -8.543606e-01 -2.290749e+00 -6.056642e-01 -4.639247e-01 -4.344561e-01 -1.137808e+00 -3.867155e-01 9.084699e-02 1.108320e-01 -6.252813e-02 -3.569962e-02 2.006903e-01 -2.091960e-01 -2.525630e-01 -6.213865e-01 -2.869067e-01 -6.248414e-01 -5.592341e-01 -4.033099e-01 -2.427164e-01 -4.089178e-01 6.982066e-02
<VARIANCE> 39
 1.634502e+01 2.430892e+01 2.425925e+01 2.770945e+01 2.259056e+01 3.009515e+01 2.188244e+01 2.863583e+01 3.026111e+01 2.472709e+01 3.260559e+01 2.347054e+01 1.508121e+00 1.312903e+00 2.711588e+00 1.672925e+00 2.027182e+00 2.322603e+00 3.512428e+00 3.508067e+00 3.612311e+00 3.205098e+00 3.169118e+00 3.591760e+00 2.518600e+00 1.040379e-01 1.768673e-01 3.946496e-01 3.471869e-01 3.671355e-01 3.642323e-01 4.943767e-01 4.178189e-01 4.884709e-01 4.001306e-01 5.283527e-01 4.732912e-01 4.655822e-01 2.461202e-02
<GCONST> 1.053940e+02
<TRANSP> 5
 0.000000e+00 1.000000e+00 0.000000e+00 0.000000e+00 0.000000e+00
 0.000000e+00 8.900456e-01 4.172331e-02 6.823111e-02 0.000000e+00
 0.000000e+00 0.000000e+00 9.251193e-01 7.488064e-02 0.000000e+00
 0.000000e+00 6.986623e-02 0.000000e+00 7.678304e-01 1.623033e-01
 0.000000e+00 0.000000e+00 0.000000e+00 0.000000e+00 0.000000e+00
<ENDHMM>
