~o
<STREAMINFO> 1 39
<VECSIZE> 39<NULLD><MFCC_E_D_A><DIAGC>
~s "silst"
<NUMMIXES> 8
<MIXTURE> 1 8.383146e-02
<MEAN> 39
 -1.107052e+01 4.124783e+00 4.039097e+00 6.378383e+00 6.955893e+00 4.964107e+00 4.659745e+00 2.073306e+00 3.169521e-01 -1.969700e+00 -2.645233e+00 -2.931881e+00 1.116943e+01 -5.313509e-02 1.535899e-01 4.440894e-01 1.137129e-01 1.965424e-01 3.406523e-01 4.844769e-02 -2.983202e-02 -2.048078e-01 2.225620e-01 1.654095e-01 4.201894e-02 1.253371e-03 3.023653e-02 -1.158365e-01 -1.617275e-01 -1.013007e-01 -4.652141e-02 -2.165317e-01 -1.941800e-01 -1.597179e-01 4.345423e-02 1.443917e-01 1.316042e-01 9.643652e-02 1.349020e-02
<VARIANCE> 39
 2.167427e+00 3.666467e+00 9.154099e+00 8.698340e+00 1.635766e+01 1.929483e+01 1.289592e+01 1.400630e+01 1.670676e+01 2.123986e+01 1.236429e+01 1.444257e+01 4.084795e-01 2.789431e-01 6.641523e-01 1.152828e+00 1.172713e+00 1.460667e+00 2.305183e+00 1.348205e+00 1.644251e+00 2.136855e+00 2.321708e+00 1.849499e+00 1.603690e+00 1.925665e-02 6.230560e-02 1.096763e-01 2.168871e-01 1.746293e-01 3.540543e-01 3.815399e-01 2.258319e-01 3.134502e-01 3.892086e-01 3.670573e-01 2.357260e-01 2.912288e-01 5.205731e-03
<GCONST> 7.581232e+01
<MIXTURE> 2 1.098932e-01
<MEAN> 39
 -6.950285e+00 -6.318341e+00 -5.004160e+00 2.833236e+00 5.047076e+00 -3.827156e+00 9.423344e-01 2.974837e+00 1.667854e+00 -4.738286e+00 -4.778337e+00 7.842035e-02 1.180800e+01 -1.487516e-01 6.114625e-01 3.553900e-01 4.198913e-01 4.352179e-01 1.168275e+00 4.221669e-01 3.373158e-01 2.772960e-01 2.883325e-01 3.391769e-01 -9.852066e-02 -7.633857e-02 -1.848879e-01 3.374278e-01 4.499750e-01 5.784953e-02 1.881089e-02 1.732417e-01 8.050864e-02 -1.999005e-01 -2.279335e-01 1.196344e-01 2.568346e-01 -3.980081e-02 1.644012e-02
<VARIANCE> 39
 5.223748e+00 2.167909e+01 1.758111e+01 1.932640e+01 3.654316e+01 4.652586e+01 2.753214e+01 2.750517e+01 2.658666e+01 2.956734e+01 3.321905e+01 2.400370e+01 7.351449e-01 5.247777e-01 1.634645e+00 1.501561e+00 1.525020e+00 1.960217e+00 2.816692e+00 3.070426e+00 3.254766e+00 2.337780e+00 2.754587e+00 2.238746e+00 1.622392e+00 5.114684e-02 1.003049e-01 2.420475e-01 2.819829e-01 2.357075e-01 4.433764e-01 5.775121e-01 5.379507e-01 5.344726e-01 3.261228e-01 4.350336e-01 5.675626e-01 4.032201e-01 6.641501e-03
<GCONST> 9.672900e+01
<MIXTURE> 3 1.181199e-01
<MEAN> 39
 -1.200190e+01 2.843601e+00 2.816498e+00 5.112292e+00 5.323256e+00 1.813698e+00 3.410543e-01 -5.261748e-01 1.128757e+00 2.397326e+00 1.259805e+00 -4.559617e-01 1.023129e+01 -9.300048e-02 -3.717818e-02 5.055913e-02 1.158547e-01 3.626274e-01 4.008319e-01 1.507703e-01 -7.221788e-02 -1.055866e-01 5.334111e-02 -6.474886e-02 -5.577088e-02 -1.507064e-02 -1.289481e-02 -2.750113e-02 -7.768735e-02 -7.424793e-02 2.032948e-02 -8.839501e-03 2.886732e-01 1.574729e-01 -1.138399e-01 -3.772913e-01 -3.286915e-01 -1.760319e-01 4.093692e-02
<VARIANCE> 39
 4.076345e+00 5.773761e+00 1.120484e+01 1.226639e+01 1.323185e+01 1.367974e+01 1.337442e+01 2.531530e+01 2.056547e+01 1.413057e+01 1.556754e+01 1.344140e+01 7.813231e-01 3.316769e-01 4.442483e-01 1.064313e+00 1.268506e+00 1.527254e+00 2.338412e+00 2.004841e+00 2.484733e+00 2.138140e+00 2.057651e+00 1.879477e+00 2.066521e+00 1.907172e-02 8.013795e-02 1.067852e-01 1.955639e-01 2.697040e-01 2.513298e-01 3.442248e-01 3.200552e-01 5.487939e-01 5.206534e-01 3.240865e-01 3.801242e-01 3.028198e-01 7.018369e-03
<GCONST> 8.090315e+01
<MIXTURE> 4 2.137770e-01
<MEAN> 39
 -7.073573e+00 -6.654951e+00 -1.074162e+00 3.488579e+00 2.299359e+00 -6.041111e+00 -4.876837e-01 2.417466e-01 -1.068374e+00 -4.056561e+00 -2.728860e+00 6.235713e-01 1.193495e+01 8.467895e-02 1.830745e-01 -7.033055e-02 1.420618e-01 1.602959e-01 2.893437e-01 3.027797e-01 1.715259e-01 1.040764e-01 2.004103e-01 2.077457e-01 1.505024e-01 -2.416995e-02 -4.277037e-02 3.348942e-02 -1.011486e-01 -8.143338e-02 8.178278e-02 1.405423e-01 1.279837e-01 1.629672e-01 1.121882e-01 -9.293848e-02 -5.944522e-02 3.107299e-02 3.220684e-03
<VARIANCE> 39
 3.779415e+00 1.671342e+01 1.145330e+01 1.646803e+01 2.237253e+01 2.756353e+01 3.106657e+01 2.564646e+01 2.668291e+01 3.175714e+01 2.338437e+01 2.346367e+01 4.409861e-01 2.399193e-01 6.848226e-01 9.027865e-01 1.268528e+00 1.893609e+00 2.376747e+00 2.214174e+00 2.668766e+00 2.264355e+00 2.842286e+00 1.931069e+00 1.981219e+00 2.121904e-02 3.640360e-02 1.285118e-01 1.305408e-01 2.017970e-01 3.185094e-01 4.157736e-01 5.100272e-01 4.614355e-01 3.942145e-01 5.639006e-01 4.129056e-01 3.818150e-01 2.834967e-03
<GCONST> 8.567290e+01
<MIXTURE> 5 9.255502e-02
<MEAN> 39
 -1.229075e+01 1.697751e+00 1.278008e+00 3.133337e+00 2.957743e+00 -1.958209e+00 2.544936e+00 -8.511068e-01 -2.002591e+00 -1.931925e-01 -1.745745e-03 -7.454722e-01 1.031546e+01 1.042277e-01 -1.344588e-02 -2.146660e-01 2.570284e-01 1.867807e-01 2.289879e-01 -1.396093e-01 -2.621273e-01 2.514900e-02 -3.744969e-02 1.752427e-01 -6.989121e-02 -4.904593e-02 5.725852e-02 -7.284316e-02 4.668867e-03 3.805805e-02 1.807732e-01 9.079086e-02 4.723048e-02 6.445064e-02 2.010576e-02 -1.503927e-01 -1.893422e-01 -2.002905e-02 4.039481e-02
<VARIANCE> 39
 8.715204e+00 1.374334e+01 2.120796e+01 3.072028e+01 2.469947e+01 3.406908e+01 3.539247e+01 3.372721e+01 4.277285e+01 2.522228e+01 2.451660e+01 2.653708e+01 6.704281e-01 7.918535e-01 1.176083e+00 1.905255e+00 2.576032e+00 1.542103e+00 3.360200e+00 3.379004e+00 3.339212e+00 4.184188e+00 2.844902e+00 2.300206e+00 2.700867e+00 3.563701e-02 1.497694e-01 2.028857e-01 2.959992e-01 5.686447e-01 3.616772e-01 5.747031e-01 7.833861e-01 5.976086e-01 6.398737e-01 4.863459e-01 4.215435e-01 6.071760e-01 5.963003e-03
<GCONST> 1.011232e+02
<MIXTURE> 6 1.624229e-01
<MEAN> 39
 -7.262042e+00 -7.386198e+00 -5.384690e+00 1.338418e+00 3.534379e+00 -4.565577e+00 1.736406e+00 3.856300e+00 -1.499439e-01 -6.646245e+00 -4.589087e+00 1.599344e+00 1.166915e+01 -9.994969e-03 4.161404e-01 -1.509187e-01 2.423445e-01 1.054937e-01 5.271934e-01 5.512197e-02 -4.745274e-02 -1.770489e-01 -2.805921e-01 -3.416926e-01 -4.042947e-01 -1.148189e-01 -1.596066e-01 2.935767e-01 4.496955e-01 1.400161e-01 6.513318e-02 8.764440e-02 -7.565709e-02 -4.054224e-01 -9.146550e-02 2.560552e-01 1.555691e-01 -1.709029e-01 7.311273e-03
<VARIANCE> 39
 4.800493e+00 1.776765e+01 1.418545e+01 1.566345e+01 2.725903e+01 3.029333e+01 2.817363e+01 2.824256e+01 3.356943e+01 2.988675e+01 2.266309e+01 2.321476e+01 7.341232e-01 4.017017e-01 1.369034e+00 1.706306e+00 1.601333e+00 1.828845e+00 3.152336e+00 2.627287e+00 2.979840e+00 2.318936e+00 2.523546e+00 2.650008e+00 2.041050e+00 3.934878e-02 9.405204e-02 1.896692e-01 2.160175e-01 2.658398e-01 4.155635e-01 5.339651e-01 4.459110e-01 4.741222e-01 4.873312e-01 4.323284e-01 4.211447e-01 3.719188e-01 4.631133e-03
<GCONST> 9.349693e+01
<MIXTURE> 7 1.286920e-01
<MEAN> 39
 -7.292446e+00 -7.048165e+00 -1.683933e+00 3.186165e+00 3.003262e+00 -5.689846e+00 6.909423e-01 -4.680227e-01 -2.401248e+00 -5.410306e+00 -2.805329e+00 1.020104e+00 1.197895e+01 -1.271951e-01 -1.083880e-01 -4.397711e-01 -5.039471e-01 -5.816082e-01 -4.203919e-01 -4.493954e-01 -1.259303e-01 -1.321163e-01 1.486854e-01 3.332689e-02 2.446043e-01 -1.274580e-01 -4.805192e-02 -3.827751e-02 -1.187786e-01 -7.881698e-02 -1.014917e-01 -7.636400e-02 9.114073e-03 2.362290e-01 2.233550e-01 -6.659710e-02 -1.048319e-01 -4.528485e-02 -7.085067e-03
<VARIANCE> 39
 3.189471e+00 1.332026e+01 1.194843e+01 2.289116e+01 3.037371e+01 2.541290e+01 2.902131e+01 2.814667e+01 2.651439e+01 3.207122e+01 2.534196e+01 2.016800e+01 5.606687e-01 2.213473e-01 6.972657e-01 1.124358e+00 1.074054e+00 1.665995e+00 2.051133e+00 2.206869e+00 3.009117e+00 2.414181e+00 2.432952e+00 2.351706e+00 1.969684e+00 2.754330e-02 4.711906e-02 1.203255e-01 1.371847e-01 3.196536e-01 4.420926e-01 4.574120e-01 4.246444e-01 5.180624e-01 4.987159e-01 4.555463e-01 4.189912e-01 4.100013e-01 3.982413e-03
<GCONST> 8.776764e+01
<MIXTURE> 8 9.070639e-02
<MEAN> 39
 -1.172994e+01 2.366923e+00 1.312880e+00 4.927089e+00 7.004166e+00 4.411504e+00 3.767013e+00 1.414090e+00 -1.725405e-01 -3.183841e+00 -3.750855e+00 -3.186632e+00 1.043473e+01 -1.623096e-01 2.623004e-01 3.616307e-01 -1.096291e-01 -2.805803e-01 7.898774e-02 1.928677e-01 1.348641e-01 2.780722e-01 -3.611193e-02 -2.306716e-01 1.127427e-02 -3.580441e-02 1.042653e-03 -8.479814e-02 7.023819e-02 -5.736788e-02 -2.828561e-01 -4.920773e-01 -2.423545e-01 -1.331031e-01 1.269546e-01 3.223550e-01 3.059118e-01 2.150102e-01 2.071130e-02
<VARIANCE> 39
 4.786650e+00 5.509493e+00 1.071661e+01 1.476844e+01 1.786531e+01 2.342878e+01 1.603860e+01 2.414526e+01 2.232065e+01 2.642939e+01 2.186135e+01 2.026519e+01 6.915815e-01 4.529286e-01 9.749869e-01 1.486426e+00 1.921427e+00 2.182249e+00 2.000889e+00 2.419403e+00 2.452031e+00 2.444105e+00 3.532046e+00 2.521044e+00 1.911739e+00 2.643238e-02 6.164287e-02 1.398238e-01 2.165475e-01 2.981920e-01 3.536700e-01 4.136401e-01 4.016615e-01 4.953254e-01 4.366768e-01 5.432538e-01 3.388291e-01 3.391020e-01 4.721202e-03
<GCONST> 8.770741e+01
~h "a"
<BEGINHMM>
<NUMSTATES> 5
<STATE> 2
<NUMMIXES> 8
<MIXTURE> 1 1.440401e-01
<MEAN> 39
 3.886616e+00 4.117009e-01 -6.619797e-01 -7.786046e+00 2.576879e+00 -1.346092e+01 -2.372769e-01 -1.416260e+00 7.418297e+00 -3.110903e+00 3.966776e+00 -6.133337e+00 2.111728e+01 -3.297516e-01 -3.088130e-01 1.675769e-01 -1.066899e-01 -4.063649e-02 -6.222417e-01 2.680162e-01 7.303330e-01 5.814849e-01 1.125111e-01 -2.960559e-01 -7.880702e-01 2.796014e-02 -1.431101e-01 5.321077e-01 3.853022e-01 3.840956e-01 9.168637e-02 1.090406e-01 2.503367e-01 -2.637453e-01 -9.337245e-01 -5.072901e-02 -1.075066e-01 4.518617e-01 -5.357225e-02
<VARIANCE> 39
 1.689438e+01 1.678446e+01 4.445502e+01 4.211243e+01 5.065404e+01 6.820160e+01 1.015867e+02 7.493379e+01 8.960434e+01 6.302375e+01 8.560074e+01 3.937590e+01 4.877914e-01 9.373047e-01 1.183359e+00 4.150815e+00 4.541337e+00 2.814013e+00 5.775345e+00 6.148679e+00 4.048010e+00 8.352067e+00 4.849978e+00 5.895135e+00 3.880049e+00 3.117211e-02 1.985462e-01 3.113857e-01 4.067987e-01 6.258887e-01 9.003846e-01 7.119462e-01 1.160205e+00 1.217699e+00 1.454933e+00 1.000833e+00 1.113939e+00 6.381615e-01 5.733248e-03
<GCONST> 1.210169e+02
<MIXTURE> 2 9.195822e-02
<MEAN> 39
 -1.575881e+00 1.489821e+00 6.246195e+00 1.326457e+00 -1.557863e+00 -1.288149e+01 4.847757e+00 -2.334292e+00 4.849267e+00 -7.761059e+00 4.917072e-01 -3.329190e+00 1.967381e+01 2.665396e+00 1.021465e+00 2.000792e-02 1.666411e-01 -1.853262e-01 -2.034985e+00 1.265533e-01 6.499694e-02 1.560573e+00 -8.423313e-01 -4.861421e-01 3.011974e-01 9.877342e-01 -5.545320e-01 -5.273798e-02 -3.519050e-01 -6.514026e-02 4.436078e-01 4.076968e-01 -6.188484e-02 1.509896e-01 -3.367369e-01 4.997311e-01 -5.887382e-02 1.388211e-01 -2.916091e-01
<VARIANCE> 39
 1.177841e+01 1.616459e+01 4.021437e+01 2.921533e+01 5.605618e+01 3.600257e+01 4.075703e+01 4.662058e+01 4.669635e+01 4.698042e+01 3.691604e+01 4.248387e+01 1.955004e+00 3.488335e+00 3.068091e+00 2.526654e+00 3.236017e+00 4.572178e+00 7.416235e+00 4.926736e+00 4.678637e+00 7.016204e+00 3.578837e+00 4.460048e+00 4.095338e+00 5.740021e-01 3.106665e-01 4.548820e-01 4.254900e-01 3.170387e-01 7.619607e-01 4.994758e-01 7.670631e-01 6.015439e-01 8.082172e-01 5.083315e-01 4.876067e-01 6.714867e-01 4.551695e-02
<GCONST> 1.207874e+02
<MIXTURE> 3 1.626174e-01
<MEAN> 39
 3.510528e+00 5.698462e-01 -1.478503e+00 -6.571095e+00 1.970399e+00 -1.396691e+01 2.341365e+00 -4.149690e+00 6.365816e+00 -6.274694e-01 1.298955e+00 -7.131354e+00 2.041345e+01 3.201984e+00 -6.941431e-01 -1.491739e+00 -2.196142e+00 -6.630778e-01 -2.316072e+00 -3.449763e-03 3.539767e-01 1.793385e+00 5.478349e-01 6.753830e-01 -1.196183e+00 1.084761e+00 -1.301495e+00 1.595730e-02 3.448820e-01 7.415296e-01 3.674058e-01 7.056279e-01 2.816395e-01 4.866151e-01 -5.112295e-01 -2.978956e-01 -1.826960e-01 5.033330e-01 -4.156530e-01
<VARIANCE> 39
 9.187155e+00 1.712526e+01 1.919503e+01 3.209337e+01 2.987120e+01 4.920609e+01 5.701472e+01 4.528907e+01 5.074427e+01 6.135463e+01 4.478092e+01 3.939636e+01 9.315258e-01 3.097010e+00 2.284992e+00 3.316114e+00 3.291494e+00 4.602861e+00 4.838248e+00 3.135582e+00 3.979892e+00 5.451499e+00 4.700571e+00 4.721786e+00 3.091470e+00 4.380836e-01 3.504220e-01 5.118285e-01 4.495342e-01 5.894055e-01 5.970047e-01 9.385797e-01 8.982299e-01 8.415650e-01 7.504547e-01 9.870753e-01 6.713212e-01 5.854470e-01 3.866972e-02
<GCONST> 1.204372e+02
<MIXTURE> 4 8.489254e-02
<MEAN> 39
 -4.178978e+00 1.048070e+00 2.094310e+00 -6.768965e+00 -2.707770e+00 -1.070513e+01 4.061097e+00 -3.326782e+00 -2.514796e+00 -4.357395e+00 4.406810e+00 -5.567771e+00 1.862317e+01 8.394011e-01 2.347607e-01 -1.421443e-02 -8.645295e-02 5.343937e-01 -1.339122e-01 6.020631e-01 3.863312e-01 -6.420842e-01 -5.637364e-01 -3.667213e-01 2.408220e-01 4.163042e-01 3.177831e-01 1.500479e-01 -1.473951e-01 2.273447e-01 3.616700e-01 -2.328721e-01 -1.339212e-01 2.629918e-01 3.786076e-01 7.282323e-02 -1.706220e-01 1.098008e-01 6.313260e-02
<VARIANCE> 39
 2.983811e+01 5.043683e+01 1.733706e+02 7.777789e+01 4.896728e+01 7.515672e+01 3.846546e+01 6.523933e+01 9.946050e+01 9.652199e+01 6.933643e+01 3.204597e+01 5.756434e+00 4.045307e+00 1.636679e+00 2.347552e+00 3.474395e+00 2.398370e+00 4.608686e+00 2.350007e+00 2.678069e+00 3.058320e+00 3.693992e+00 2.733246e+00 3.055146e+00 6.291142e-01 5.288225e-01 2.227283e-01 6.327900e-01 5.435792e-01 6.816136e-01 5.539178e-01 6.695912e-01 7.624288e-01 1.401784e+00 9.876386e-01 9.606181e-01 5.071013e-01 6.684183e-02
<GCONST> 1.275305e+02
<MIXTURE> 5 1.748949e-01
<MEAN> 39
 2.287877e+00 -2.371287e+00 -1.523689e+00 -6.567539e+00 9.040553e-01 -1.689822e+01 5.460541e+00 -2.364469e+00 8.978820e+00 -3.076556e+00 -2.616365e+00 -4.337528e+00 2.121392e+01 6.515458e-01 -1.582379e+00 -1.873541e+00 -1.208766e+00 6.584566e-01 -6.319101e-01 1.100263e+00 1.000475e+00 8.426522e-01 -5.432931e-01 -4.096169e-01 -8.953699e-01 1.818771e-01 -1.073271e+00 1.896001e-01 6.024606e-01 4.688205e-01 2.084303e-01 8.471913e-01 5.282479e-02 -1.096985e-01 -8.632264e-01 -1.984969e-01 2.246046e-01 2.082947e-02 -2.560437e-01
<VARIANCE> 39
 6.657331e+00 2.472817e+01 2.970978e+01 2.579205e+01 5.600687e+01 5.285787e+01 5.022707e+01 4.362063e+01 5.670338e+01 3.480744e+01 3.010551e+01 3.474396e+01 4.369127e-01 1.778633e+00 1.195463e+00 2.557892e+00 2.175537e+00 1.888158e+00 3.340521e+00 3.012827e+00 3.088840e+00 2.961007e+00 3.084939e+00 2.767924e+00 2.344277e+00 6.837048e-02 3.822038e-01 4.110197e-01 4.035253e-01 4.046936e-01 3.991177e-01 8.185282e-01 6.222011e-01 6.604143e-01 8.182114e-01 4.850456e-01 4.117282e-01 5.775082e-01 2.368389e-02
<GCONST> 1.089878e+02
<MIXTURE> 6 1.466013e-01
<MEAN> 39
 3.070185e+00 -1.150161e+00 -2.588251e+00 -8.075593e+00 4.369683e+00 -1.055124e+01 2.933485e+00 -1.621914e+00 4.725078e+00 -2.222055e+00 2.582552e+00 -7.778403e+00 2.099617e+01 -6.323085e-01 -6.821530e-01 6.141733e-01 9.405062e-01 -2.216324e-01 -5.708556e-01 -7.727087e-03 4.607682e-01 9.497199e-01 -4.492489e-01 -6.846805e-01 -7.018147e-01 -7.213018e-02 -1.156439e-01 5.351971e-01 3.061811e-01 2.474972e-01 -4.678311e-02 5.074584e-02 1.014154e-01 -2.842807e-01 -5.428491e-01 -1.662410e-01 -7.736508e-02 4.724809e-01 -7.554551e-02
<VARIANCE> 39
 1.510403e+01 2.637848e+01 4.397869e+01 6.684344e+01 4.161942e+01 6.741820e+01 1.008706e+02 4.135256e+01 6.333070e+01 5.492790e+01 7.030142e+01 6.642811e+01 8.056387e-01 5.039760e-01 9.479935e-01 2.479857e+00 4.685593e+00 2.893513e+00 4.578595e+00 4.339120e+00 3.741564e+00 5.543746e+00 4.442765e+00 4.511937e+00 3.426384e+00 3.444998e-02 2.384014e-01 3.006777e-01 3.559246e-01 7.046829e-01 6.306048e-01 6.242177e-01 9.278250e-01 7.166326e-01 1.195928e+00 8.074130e-01 8.420200e-01 8.467500e-01 1.038506e-02
<GCONST> 1.176728e+02
<MIXTURE> 7 1.293259e-01
<MEAN> 39
 -1.599871e+00 -1.131212e+00 4.041869e+00 -5.123653e-01 3.666812e+00 -1.082291e+01 8.260328e+00 -1.271426e+00 1.995771e+00 -7.729825e+00 -1.186823e+00 -3.738013e+00 2.007024e+01 1.899882e+00 1.177198e-02 -8.287398e-01 -1.122930e+00 -9.405275e-02 -1.208408e+00 -2.964170e-01 -2.679852e-01 5.701646e-01 -9.735719e-02 -6.929570e-01 -1.890789e-01 6.328053e-01 -3.512383e-01 -1.932268e-01 -3.208695e-01 -2.687738e-01 -1.970083e-01 1.596178e-01 -1.788179e-01 6.145088e-02 9.256299e-02 2.979554e-01 9.364843e-02 -6.825671e-02 -1.652994e-01
<VARIANCE> 39
 1.111996e+01 1.808308e+01 3.547318e+01 3.604804e+01 3.480892e+01 5.385541e+01 4.393016e+01 2.893900e+01 5.075729e+01 4.235143e+01 4.112086e+01 2.064914e+01 2.106412e+00 2.615399e+00 1.639309e+00 2.411500e+00 3.129050e+00 2.379744e+00 4.917716e+00 2.424146e+00 3.095196e+00 4.311709e+00 3.090843e+00 3.073931e+00 2.808318e+00 2.865599e-01 2.826535e-01 3.977597e-01 3.891764e-01 3.524819e-01 3.833328e-01 6.273292e-01 7.273706e-01 5.513352e-01 6.791645e-01 6.013964e-01 5.936990e-01 3.198344e-01 2.368331e-02
<GCONST> 1.126176e+02
<MIXTURE> 8 6.566960e-02
<MEAN> 39
 -5.154611e+00 -3.910470e+00 -6.317622e+00 -6.741678e+00 -3.531571e+00 -1.709340e+01 4.448841e+00 -1.991362e-01 6.948801e+00 3.981010e-01 3.711896e+00 -5.857841e+00 1.707858e+01 1.542172e-01 -2.016717e-01 -1.178177e+00 -1.328513e+00 -2.947834e-01 -2.347316e-01 5.992141e-01 3.070120e-01 -1.094334e+00 -5.034084e-01 2.055138e-01 -7.223220e-01 3.339448e-01 1.222130e-01 5.733949e-01 7.485823e-01 2.927383e-01 4.920349e-01 6.734174e-01 -1.351446e-01 -1.082647e-01 -6.761054e-01 -5.643982e-01 -4.499545e-01 -5.527166e-02 1.249968e-01
<VARIANCE> 39
 2.296330e+01 4.281171e+01 6.998174e+01 6.089326e+01 5.188155e+01 9.390013e+01 3.850142e+01 5.522875e+01 7.064408e+01 6.078041e+01 4.118639e+01 4.095363e+01 4.754163e+00 4.059501e+00 1.810869e+00 6.178679e+00 5.538770e+00 5.501012e+00 7.200847e+00 3.824532e+00 6.499992e+00 7.373451e+00 5.894605e+00 4.487774e+00 6.432778e+00 1.274475e+00 4.337224e-01 4.973664e-01 5.137398e-01 4.896134e-01 4.994883e-01 7.043785e-01 4.096037e-01 1.049852e+00 9.486907e-01 6.182404e-01 6.059287e-01 7.248014e-01 9.794752e-02
<GCONST> 1.317483e+02
<STATE> 3
<NUMMIXES> 8
<MIXTURE> 1 8.992256e-02
<MEAN> 39
 -1.769524e+00 1.682442e+00 6.951577e+00 -2.696033e+00 -2.632340e+00 -1.585890e+01 7.090133e+00 1.700670e+00 5.161248e+00 -1.101832e+01 3.178560e-01 -5.952090e+00 2.063308e+01 4.094660e-01 1.635890e-01 2.962162e-01 2.882982e-01 2.955027e-01 -1.474719e-02 -5.753070e-01 8.231471e-02 -2.071383e-01 2.301734e-01 1.487101e-01 7.011402e-01 1.055953e-01 4.548164e-02 4.248489e-02 -1.645845e-01 2.231428e-01 4.238822e-01 1.685378e-01 -2.397276e-01 -2.989268e-01 -2.874097e-01 4.846373e-01 -1.152909e-01 2.709060e-01 -4.089924e-02
<VARIANCE> 39
 9.060891e+00 1.197601e+01 3.679206e+01 2.074823e+01 6.884255e+01 4.284594e+01 5.092314e+01 4.661653e+01 6.211440e+01 4.960637e+01 7.444421e+01 2.416075e+01 6.557644e-01 5.689342e-01 9.937749e-01 1.880630e+00 2.276823e+00 2.411090e+00 2.932851e+00 3.089938e+00 3.141945e+00 3.743898e+00 4.108527e+00 4.655029e+00 3.128403e+00 3.840588e-02 8.288872e-02 1.604339e-01 2.266211e-01 4.552903e-01 4.661765e-01 5.560435e-01 5.685781e-01 8.379132e-01 7.149497e-01 5.701945e-01 1.309340e+00 3.987165e-01 5.096926e-03
<GCONST> 1.056254e+02
<MIXTURE> 2 1.837339e-01
<MEAN> 39
 1.952960e+00 -3.286508e+00 -5.414382e+00 -8.784806e+00 7.227158e+00 -1.102107e+01 1.054155e+01 -1.649899e+00 4.207293e+00 -5.075694e+00 -2.542496e+00 -9.221172e+00 2.138355e+01 1.080006e-01 1.687365e-01 7.335149e-02 1.333873e-02 -1.285189e-02 1.472702e-01 -1.499511e-01 5.185417e-03 4.190886e-02 2.529657e-02 -9.451755e-02 -3.553545e-02 -1.207247e-02 1.847918e-02 1.730267e-01 3.097627e-01 2.260961e-01 -2.607049e-01 -9.183426e-03 -2.926981e-01 -7.187749e-02 -6.593762e-02 1.482678e-01 1.386199e-01 2.803128e-01 -1.482139e-02
<VARIANCE> 39
 7.013105e+00 1.190734e+01 1.982927e+01 3.211650e+01 3.166417e+01 7.664994e+01 3.370519e+01 4.199658e+01 4.842141e+01 4.862257e+01 6.331101e+01 3.283665e+01 2.845937e-01 3.372333e-01 7.993506e-01 1.161955e+00 1.469739e+00 1.995989e+00 2.403079e+00 2.414438e+00 2.835707e+00 2.774162e+00 1.908801e+00 1.961935e+00 1.743435e+00 5.138163e-03 5.563225e-02 1.301807e-01 2.463604e-01 2.553531e-01 3.077974e-01 5.479411e-01 4.681917e-01 5.017582e-01 5.273117e-01 3.895033e-01 4.604548e-01 3.388317e-01 9.799501e-04
<GCONST> 9.080577e+01
<MIXTURE> 3 1.130611e-01
<MEAN> 39
 3.937196e+00 -5.346290e-01 -6.852680e-01 -6.339369e+00 1.822730e+00 -1.482849e+01 -1.642027e+00 -9.750273e-01 9.211644e+00 5.170193e-02 4.159301e+00 -8.454429e+00 2.099232e+01 -1.002878e-01 5.071555e-01 7.907761e-01 7.134873e-01 1.741672e-01 -6.259174e-01 1.912734e-01 -9.352856e-02 -1.238062e-01 -3.721802e-01 -4.621232e-01 2.443676e-01 5.509489e-03 -6.381453e-01 7.393813e-01 6.542432e-01 6.785183e-01 3.001129e-01 7.416660e-01 4.013194e-01 -4.303738e-01 -1.422109e+00 -4.328032e-01 -3.287721e-01 7.392235e-01 -2.144637e-01
<VARIANCE> 39
 1.089192e+01 1.986411e+01 2.631955e+01 5.609808e+01 3.744997e+01 6.372849e+01 7.210489e+01 4.588251e+01 8.324618e+01 8.200946e+01 6.627811e+01 4.407999e+01 5.383275e-01 2.052226e+00 1.700913e+00 3.899843e+00 5.439977e+00 3.184891e+00 5.552030e+00 6.439658e+00 4.958012e+00 7.165090e+00 6.055815e+00 4.901056e+00 3.681597e+00 1.172951e-01 4.135443e-01 3.516146e-01 4.473990e-01 1.149387e+00 6.026834e-01 8.474441e-01 8.409105e-01 7.738285e-01 1.206609e+00 1.148850e+00 1.257617e+00 6.268464e-01 2.422966e-02
<GCONST> 1.242571e+02
<MIXTURE> 4 1.279722e-01
<MEAN> 39
 -2.678904e-01 -4.689764e+00 -1.798547e+00 -3.875457e+00 5.965051e+00 -9.674717e+00 9.546782e+00 -3.976134e+00 5.292071e+00 -6.677921e+00 -5.561592e+00 -5.418468e+00 2.069401e+01 2.220390e-01 7.582609e-02 -3.110630e-01 -7.150840e-02 7.789066e-02 2.416392e-01 -3.728088e-02 -1.081751e-01 1.297153e-01 1.453940e-01 -1.946482e-01 -1.896228e-01 2.248315e-02 6.259621e-02 2.037845e-01 -7.608393e-02 -1.111262e-01 4.317947e-03 1.293957e-02 -1.558871e-01 1.907834e-01 1.054796e-02 7.472516e-02 8.618619e-02 -1.639943e-01 -2.670763e-02
<VARIANCE> 39
 5.794682e+00 2.642652e+01 2.133204e+01 2.822614e+01 2.355721e+01 2.959647e+01 2.627970e+01 3.373903e+01 3.016308e+01 2.673813e+01 3.522824e+01 2.340870e+01 7.047231e-01 5.754582e-01 1.021973e+00 2.098044e+00 2.498632e+00 2.010033e+00 2.530087e+00 3.291649e+00 3.001966e+00 2.031342e+00 2.965711e+00 2.771932e+00 1.919375e+00 3.130460e-02 9.481136e-02 2.410092e-01 2.571948e-01 2.955646e-01 3.205488e-01 3.758802e-01 4.730490e-01 4.940622e-01 4.152000e-01 4.734905e-01 4.612074e-01 3.579601e-01 4.624960e-03
<GCONST> 9.581796e+01
<MIXTURE> 5 1.215301e-01
<MEAN> 39
 -1.558908e+00 2.815946e+00 1.012534e+01 -7.173628e+00 -6.293161e+00 -1.917893e+01 4.299293e+00 1.713040e+00 1.458134e+00 -5.174874e+00 2.609296e+00 -2.004280e+00 2.132544e+01 -1.806892e-01 3.899262e-01 8.049933e-01 3.373438e-01 -7.112539e-01 -2.509319e-01 -4.049808e-02 -3.372209e-02 -6.749084e-01 -1.685501e-01 8.888535e-01 2.891130e-02 -2.221799e-02 1.030951e-01 9.326447e-03 -1.784314e-01 3.306300e-01 1.761803e-01 8.916383e-02 -1.312762e-01 -1.022094e-01 7.385097e-02 -1.287333e-01 5.429104e-02 -8.006718e-02 -2.116749e-02
<VARIANCE> 39
 5.916605e+00 1.864641e+01 1.802489e+01 2.124269e+01 3.402787e+01 5.418425e+01 4.068874e+01 5.811909e+01 4.011713e+01 4.142648e+01 4.101364e+01 1.588974e+01 4.541356e-01 3.065417e-01 4.752356e-01 1.122958e+00 1.360600e+00 2.950852e+00 3.380625e+00 2.572237e+00 3.150444e+00 2.856092e+00 2.180082e+00 3.018173e+00 1.865016e+00 9.796654e-03 6.540453e-02 1.119483e-01 2.169160e-01 1.896545e-01 4.886255e-01 4.550648e-01 4.648324e-01 4.613172e-01 5.055665e-01 4.594119e-01 4.405907e-01 3.127936e-01 2.165302e-03
<GCONST> 9.181557e+01
<MIXTURE> 6 1.985502e-01
<MEAN> 39
 1.364977e+00 -5.547369e+00 -5.352049e+00 -9.341232e+00 6.742498e+00 -8.333052e+00 7.313907e+00 -1.498253e+00 2.895272e+00 -3.744044e+00 -5.216151e+00 -5.547345e+00 2.137119e+01 1.921418e-02 -1.493906e-02 -4.841711e-02 5.299936e-02 2.144703e-01 -1.182458e-02 -9.339008e-02 -2.287702e-01 2.000430e-01 -1.168674e-01 -6.633393e-02 -8.648849e-02 -3.152995e-02 -1.018170e-02 1.419185e-01 9.277942e-02 7.543080e-02 -1.201726e-01 -7.652898e-02 7.216376e-02 -8.082563e-02 -1.409799e-02 1.123748e-01 8.808599e-02 -5.668508e-02 -1.177242e-02
<VARIANCE> 39
 5.714987e+00 1.906613e+01 2.805676e+01 2.553372e+01 2.617882e+01 4.223344e+01 2.806031e+01 4.311728e+01 5.136799e+01 3.919259e+01 3.486506e+01 3.098649e+01 2.309498e-01 2.461957e-01 5.739700e-01 9.670342e-01 1.224224e+00 1.505248e+00 2.335082e+00 2.130374e+00 1.989383e+00 1.959861e+00 1.665129e+00 1.595262e+00 1.327584e+00 5.279360e-03 4.292666e-02 9.955548e-02 1.938379e-01 2.518552e-01 2.532905e-01 3.921015e-01 3.981157e-01 4.011636e-01 3.708754e-01 3.361169e-01 3.102242e-01 2.205642e-01 1.241472e-03
<GCONST> 8.370377e+01
<MIXTURE> 7 8.389176e-02
<MEAN> 39
 1.180378e+00 4.360439e-01 -3.655776e-03 -5.188025e+00 9.562851e-01 -1.486908e+01 6.054707e+00 -2.279014e+00 3.063236e+00 -2.661932e+00 4.231597e-01 -5.727197e+00 2.053846e+01 1.165158e-01 1.324897e-01 -1.246267e-01 3.253630e-01 3.043438e-01 1.197672e-01 1.762004e-01 3.565971e-01 -5.647147e-01 -1.134036e-01 -1.776140e-01 1.460818e-01 1.095995e-02 -6.930590e-01 1.769446e-01 3.984112e-01 3.269747e-01 1.046093e-01 7.313303e-01 -3.329744e-01 -1.390689e-01 -3.590373e-01 -1.197790e-01 1.504347e-02 2.994820e-01 -2.600858e-01
<VARIANCE> 39
 2.157449e+01 3.290780e+01 9.989520e+01 7.037369e+01 8.396819e+01 7.984934e+01 6.287483e+01 7.457417e+01 1.030152e+02 7.538932e+01 6.392071e+01 5.176708e+01 9.765158e-01 1.691399e+00 2.161097e+00 3.185534e+00 5.404979e+00 3.778725e+00 3.711646e+00 4.875040e+00 4.587162e+00 4.305533e+00 4.747346e+00 3.239595e+00 3.612592e+00 2.290824e-01 3.190261e-01 3.289475e-01 7.120796e-01 6.708357e-01 8.487003e-01 8.061827e-01 7.520888e-01 9.159113e-01 1.470160e+00 9.506041e-01 7.983059e-01 7.839626e-01 5.039157e-02
<GCONST> 1.284288e+02
<MIXTURE> 8 8.133566e-02
<MEAN> 39
 -1.618230e+00 -6.792065e+00 -1.600865e+00 -4.780161e+00 3.855680e+00 -1.163255e+01 7.398994e+00 -4.843708e+00 3.957334e+00 -7.556546e+00 -5.693033e+00 -2.105051e+00 2.059017e+01 -3.531113e-01 2.008907e-01 2.829899e-02 1.534559e-01 -1.693446e-01 1.112072e-01 5.169563e-02 4.758644e-01 -1.497209e-01 -5.350755e-01 -1.731643e-01 -3.608664e-01 -7.716573e-02 1.313237e-01 2.454366e-01 -5.773547e-02 -2.218764e-01 -4.078428e-02 5.227854e-02 -6.889611e-02 2.777880e-01 -1.631257e-02 3.151442e-02 -3.399877e-02 -3.145121e-01 -2.584576e-03
<VARIANCE> 39
 2.132384e+01 3.624649e+01 3.102165e+01 3.860097e+01 6.552661e+01 6.621614e+01 3.166949e+01 3.255943e+01 3.087368e+01 4.242327e+01 2.712678e+01 2.594913e+01 8.713936e-01 6.281402e-01 1.126813e+00 1.086947e+00 1.654891e+00 1.762106e+00 1.851805e+00 2.189013e+00 2.781103e+00 1.715553e+00 3.452220e+00 2.696419e+00 2.324969e+00 1.141481e-02 1.003734e-01 2.467800e-01 1.935416e-01 3.279883e-01 3.662533e-01 4.309857e-01 3.917978e-01 5.396655e-01 3.347709e-01 6.416195e-01 4.466262e-01 4.940304e-01 2.816012e-03
<GCONST> 9.792097e+01
<STATE> 4
<NUMMIXES> 8
<MIXTURE> 1 9.885564e-02
<MEAN> 39
 3.378334e+00 6.214690e-01 -2.262108e+00 -5.592147e+00 5.627861e+00 -1.180115e+01 1.495072e+00 -1.164143e+00 7.809047e+00 -4.886556e+00 -1.619151e+00 -8.198478e+00 2.104443e+01 1.199562e-01 2.407077e+00 1.236823e+00 1.019920e+00 1.016624e+00 -6.625809e-01 2.031427e-01 -1.592304e+00 -2.914550e+00 8.471244e-01 2.825120e-01 1.299807e+00 -7.899936e-02 -3.099504e-01 7.690454e-01 8.307948e-01 6.979997e-01 6.783520e-02 -4.417209e-01 8.075068e-01 -4.040003e-01 -1.681019e+00 2.523875e-01 -5.048900e-02 5.698125e-01 -4.637562e-02
<VARIANCE> 39
 4.285240e+00 2.369314e+01 2.120557e+01 2.515106e+01 4.079879e+01 4.054739e+01 3.399926e+01 4.042903e+01 3.697207e+01 5.134053e+01 5.304970e+01 4.686301e+01 3.726351e-01 4.375307e-01 2.525298e+00 2.102341e+00 2.491691e+00 2.962511e+00 2.880083e+00 2.739128e+00 3.217067e+00 4.233995e+00 6.358047e+00 5.703512e+00 3.527514e+00 1.396164e-02 7.220670e-02 2.542751e-01 3.184868e-01 3.841456e-01 5.371736e-01 7.871463e-01 3.423223e-01 7.989518e-01 5.682816e-01 5.682276e-01 6.835309e-01 8.673927e-01 2.898903e-03
<GCONST> 1.039403e+02
<MIXTURE> 2 1.170432e-01
<MEAN> 39
 6.317434e-01 2.952479e+00 1.012262e+01 -1.737005e+00 -5.267590e+00 -2.450917e+01 3.106884e-01 2.378837e+00 4.964456e+00 -7.680008e+00 6.047421e+00 3.688822e-01 2.129003e+01 5.224445e-01 7.178370e-01 1.018492e-01 2.252732e+00 1.205191e+00 5.227637e-01 -1.154996e+00 -2.300799e-01 -1.091004e+00 -1.114741e-01 -8.582353e-01 8.473886e-01 -1.793956e-01 -4.713688e-02 2.871504e-01 -2.230416e-01 1.951978e-01 6.708106e-01 1.198281e+00 1.392146e-01 -6.041781e-01 -7.220196e-01 4.347134e-01 -5.343323e-01 -4.696983e-01 -1.156042e-01
<VARIANCE> 39
 9.575447e+00 1.528780e+01 4.179053e+01 2.997610e+01 5.497408e+01 5.812520e+01 6.956490e+01 3.910408e+01 8.293417e+01 5.914326e+01 4.612328e+01 3.284508e+01 4.272012e-01 1.028079e+00 1.744716e+00 5.244257e+00 2.995599e+00 4.426556e+00 5.793510e+00 5.498480e+00 4.055120e+00 8.529028e+00 4.215622e+00 6.733537e+00 3.249412e+00 6.370839e-02 1.354436e-01 1.962563e-01 3.761649e-01 5.168287e-01 7.341647e-01 8.442518e-01 6.157027e-01 4.682947e-01 1.057974e+00 9.201881e-01 8.649831e-01 5.441540e-01 7.751408e-03
<GCONST> 1.157194e+02
<MIXTURE> 3 1.517530e-01
<MEAN> 39
 4.938767e+00 7.268570e-01 -4.530253e+00 -9.147179e+00 4.138122e+00 -1.022523e+01 5.037178e+00 -4.483838e+00 3.400812e+00 -8.462090e-02 3.280222e+00 -8.713358e+00 2.104012e+01 -9.065824e-03 1.651569e+00 1.433703e+00 9.817516e-01 -2.496974e-01 5.602230e-01 -8.015286e-01 -3.645124e-01 -1.272660e+00 -3.377722e-01 9.196864e-03 8.526984e-01 -1.459564e-01 -5.726832e-01 3.691025e-01 6.573797e-01 5.610568e-01 1.317007e-01 2.013089e-01 -1.153032e-01 -1.353818e-02 -4.336056e-01 -3.702949e-01 -3.545978e-01 4.745292e-01 -1.022367e-01
<VARIANCE> 39
 1.023336e+01 2.045376e+01 2.522238e+01 4.206886e+01 3.524248e+01 6.215297e+01 6.838873e+01 3.689333e+01 6.952222e+01 4.954092e+01 6.704180e+01 3.033644e+01 4.270461e-01 6.845193e-01 2.749710e+00 3.860075e+00 4.716683e+00 3.877305e+00 3.219891e+00 6.065296e+00 5.641024e+00 5.531793e+00 3.919554e+00 4.677519e+00 2.806345e+00 4.001456e-02 3.915816e-01 2.673611e-01 4.460966e-01 5.198335e-01 4.900542e-01 5.320938e-01 6.020289e-01 8.514845e-01 1.151750e+00 6.283339e-01 6.621380e-01 3.909117e-01 7.077969e-03
<GCONST> 1.140921e+02
<MIXTURE> 4 1.230602e-01
<MEAN> 39
 4.740663e-01 2.860474e+00 2.169755e+00 1.576484e+00 2.865477e+00 -1.153207e+01 5.680115e+00 -6.487937e+00 1.235319e+00 -4.633438e+00 1.318339e+00 -6.315553e+00 1.962214e+01 -1.181422e+00 1.071944e+00 1.541087e+00 1.934621e+00 4.794243e-01 1.280723e+00 -2.045864e-01 -1.536738e-01 -1.044082e+00 -3.329704e-01 -6.275771e-01 7.734769e-01 -5.500209e-01 -6.452745e-01 -3.323949e-01 -7.925502e-02 -6.264148e-01 9.885087e-02 4.990575e-01 -2.186989e-01 3.754529e-01 2.906294e-01 1.666572e-01 -2.169656e-01 2.111669e-01 -1.969738e-01
<VARIANCE> 39
 1.826754e+01 2.452618e+01 4.060902e+01 4.638328e+01 5.465641e+01 7.543242e+01 5.412806e+01 2.881488e+01 6.675074e+01 4.728545e+01 4.635154e+01 6.110364e+01 1.461101e+00 1.999545e+00 1.847265e+00 2.622497e+00 3.493021e+00 3.055593e+00 4.747364e+00 5.213055e+00 4.555612e+00 6.867102e+00 4.417542e+00 3.378732e+00 4.439630e+00 2.860531e-01 3.750684e-01 2.156678e-01 3.060972e-01 7.545694e-01 5.165709e-01 6.818382e-01 7.180401e-01 5.440108e-01 8.410608e-01 6.106008e-01 6.912009e-01 4.448349e-01 4.276629e-02
<GCONST> 1.206557e+02
<MIXTURE> 5 1.935390e-01
<MEAN> 39
 1.604686e+00 -2.594230e+00 -1.143609e+00 -4.965786e+00 1.221789e+00 -1.418701e+01 6.903647e+00 5.716316e-01 9.200349e+00 -4.274510e+00 -5.866597e+00 -6.940259e+00 2.104929e+01 2.390316e-01 7.593019e-01 4.315027e-02 2.299228e-01 4.056962e-01 5.144424e-02 -4.108741e-01 -2.408526e-01 -1.081253e+00 4.778600e-01 3.215261e-01 -5.382272e-02 -1.636782e-02 -4.054295e-02 6.334481e-01 3.945958e-01 2.459463e-01 2.788830e-01 -8.537927e-02 -2.084768e-01 -6.473467e-01 -9.282401e-01 1.632842e-01 5.394541e-01 3.603343e-01 -4.295219e-02
<VARIANCE> 39
 8.654643e+00 2.268344e+01 2.321752e+01 3.679124e+01 3.086618e+01 5.166619e+01 3.700410e+01 5.091893e+01 5.362941e+01 4.786677e+01 3.884127e+01 3.531097e+01 6.634040e-01 5.115499e-01 1.134236e+00 1.415824e+00 1.896505e+00 3.709649e+00 3.065254e+00 3.709671e+00 5.174264e+00 4.029838e+00 6.770815e+00 2.932950e+00 3.578974e+00 1.223783e-02 7.842621e-02 2.529336e-01 2.556027e-01 3.731670e-01 4.343831e-01 5.278071e-01 5.031255e-01 7.980723e-01 8.088636e-01 7.792836e-01 5.342321e-01 4.303800e-01 3.640097e-03
<GCONST> 1.041673e+02
<MIXTURE> 6 1.483435e-01
<MEAN> 39
 3.096877e+00 5.451072e-01 -4.031979e+00 -9.888439e+00 4.155779e+00 -6.947175e+00 6.840669e+00 -4.902710e+00 2.896959e+00 -2.917695e+00 1.956256e+00 -6.833212e+00 2.053239e+01 -5.012423e-01 1.186151e+00 1.216864e+00 6.536441e-01 -4.698330e-01 3.292121e-01 2.959492e-02 2.091702e-01 -1.269512e+00 -1.422360e-01 8.147977e-02 3.892271e-01 -2.484368e-01 -7.496763e-01 1.304438e-01 4.663113e-01 6.051246e-01 1.718951e-01 1.427851e-01 -1.789192e-01 8.886947e-02 -1.518958e-01 -1.137780e-01 -3.485096e-01 1.192761e-01 -1.659412e-01
<VARIANCE> 39
 1.039808e+01 2.999356e+01 2.033541e+01 4.777370e+01 4.118700e+01 3.718356e+01 4.998079e+01 4.999609e+01 4.785812e+01 6.394578e+01 5.780112e+01 3.197495e+01 7.070432e-01 1.620549e+00 1.808446e+00 2.613322e+00 4.700719e+00 2.800479e+00 2.450099e+00 3.041084e+00 4.889923e+00 4.914639e+00 4.557341e+00 5.687737e+00 2.208451e+00 1.256998e-01 4.832441e-01 2.469624e-01 3.848287e-01 4.751318e-01 5.306858e-01 4.710747e-01 5.872456e-01 6.112150e-01 7.171275e-01 9.457390e-01 7.163578e-01 4.190340e-01 1.559573e-02
<GCONST> 1.144441e+02
<MIXTURE> 7 9.539746e-02
<MEAN> 39
 2.025124e+00 1.100828e+00 9.015880e+00 2.426277e+00 -3.994024e+00 -1.742900e+01 -3.772527e+00 -3.568442e+00 8.195158e+00 -4.918306e+00 3.494079e+00 -1.978673e+00 2.038057e+01 -1.543234e+00 1.540652e+00 1.256124e+00 2.184818e+00 1.638955e+00 2.014582e+00 4.489361e-01 -8.985714e-01 -2.157090e+00 -2.977907e-01 -1.622193e+00 2.776761e-01 -4.718788e-01 -7.439464e-01 1.772535e-01 -3.182074e-01 -3.862484e-01 5.016347e-01 8.621193e-01 6.054520e-01 -1.111715e-01 -8.925677e-01 1.045460e-01 -3.167878e-02 -9.490602e-02 -1.643343e-01
<VARIANCE> 39
 1.155147e+01 1.908401e+01 3.405625e+01 3.530553e+01 5.652032e+01 5.118015e+01 6.235864e+01 3.482982e+01 4.753648e+01 8.383905e+01 6.204463e+01 5.169197e+01 7.617226e-01 4.214647e+00 3.184553e+00 5.019357e+00 6.857706e+00 5.118763e+00 5.952325e+00 5.736307e+00 5.489728e+00 7.270177e+00 4.949964e+00 6.735156e+00 3.533631e+00 9.902894e-02 3.657829e-01 4.614417e-01 3.090307e-01 8.023237e-01 5.245799e-01 9.017473e-01 8.673762e-01 6.474758e-01 9.180300e-01 1.270878e+00 1.113649e+00 7.720230e-01 2.148414e-02
<GCONST> 1.250155e+02
<MIXTURE> 8 7.200775e-02
<MEAN> 39
 -4.610543e+00 8.740275e-01 7.532033e+00 -2.617338e+00 -5.711775e+00 -1.626689e+01 3.439973e+00 -4.872614e+00 -3.659635e+00 -6.556020e+00 8.850672e-01 -5.235491e+00 1.962544e+01 -1.090677e+00 2.397492e-01 4.520727e-01 1.805750e+00 6.848588e-01 1.059987e+00 -7.524176e-01 -2.453336e-01 -8.153370e-01 -3.311705e-01 -5.806493e-01 2.743310e-01 -6.763709e-01 -2.654910e-01 -1.118097e-01 -4.263598e-01 -1.731453e-01 3.513227e-01 3.462923e-01 -5.350238e-02 -6.531021e-02 2.475102e-01 3.966298e-01 -9.013801e-02 1.022038e-02 -1.926555e-01
<VARIANCE> 39
 4.466814e+01 2.693354e+01 6.904008e+01 4.755242e+01 1.069001e+02 7.093993e+01 5.130275e+01 1.315344e+02 8.117571e+01 3.393064e+01 4.458070e+01 8.129485e+01 1.578291e+00 3.404495e+00 1.273648e+00 3.857155e+00 2.987788e+00 5.477512e+00 5.284290e+00 5.872725e+00 6.332427e+00 2.712165e+00 2.397464e+00 3.862041e+00 4.708688e+00 3.560094e-01 4.759494e-01 2.416011e-01 2.998228e-01 6.908989e-01 5.451699e-01 8.640151e-01 5.748288e-01 1.117414e+00 3.454969e-01 5.941126e-01 8.244019e-01 7.948213e-01 5.425515e-02
<GCONST> 1.259696e+02
<TRANSP> 5
 0.000000e+00 1.000000e+00 0.000000e+00 0.000000e+00 0.000000e+00
 0.000000e+00 4.543844e-01 5.456156e-01 0.000000e+00 0.000000e+00
 0.000000e+00 0.000000e+00 7.336637e-01 2.663363e-01 0.000000e+00
 0.000000e+00 0.000000e+00 0.000000e+00 4.203744e-01 5.796256e-01
 0.000000e+00 0.000000e+00 0.000000e+00 0.000000e+00 0.000000e+00
<ENDHMM>
~h "b"
<BEGINHMM>
<NUMSTATES> 5
<STATE> 2
<NUMMIXES> 8
<MIXTURE> 1 1.386010e-01
<MEAN> 39
 6.066222e+00 1.789810e+01 1.003268e+01 4.895492e+00 3.988444e+00 -1.671192e+00 1.061749e+00 -4.763658e+00 -9.381571e+00 -1.105137e+01 -3.168720e+00 -2.141204e+00 1.909185e+01 4.403488e-02 7.373164e-01 4.994294e-01 1.102713e+00 1.729510e-01 1.383198e+00 2.368599e-01 3.680396e-01 5.292622e-02 8.261124e-01 -4.186094e-01 1.634910e-01 -2.695967e-01 -5.649338e-01 -7.856449e-01 -1.006043e-01 -1.423143e-01 1.582594e-01 -1.777303e-01 -3.407215e-01 9.472020e-02 6.281629e-01 5.650223e-01 6.284191e-01 1.330194e-01 -3.143621e-02
<VARIANCE> 39
 8.955750e+00 1.279142e+01 1.714118e+01 1.048618e+01 2.131997e+01 3.600996e+01 1.483381e+01 2.894616e+01 1.765852e+01 3.921820e+01 3.266007e+01 2.273989e+01 4.567730e-01 1.513925e+00 1.670661e+00 1.299195e+00 1.654045e+00 1.549355e+00 4.796689e+00 3.077374e+00 1.865200e+00 3.567991e+00 4.509828e+00 5.722109e+00 2.734621e+00 2.552449e-02 1.174821e-01 2.544910e-01 3.017404e-01 3.104318e-01 3.713310e-01 1.121325e+00 4.054216e-01 4.376565e-01 6.157787e-01 7.272071e-01 1.018937e+00 4.112568e-01 1.164090e-02
<GCONST> 9.937959e+01
<MIXTURE> 2 1.278994e-01
<MEAN> 39
 -1.082217e+00 1.358281e+01 1.161940e+01 1.017322e+01 8.611258e+00 4.598099e+00 1.893899e-01 -5.282106e+00 -6.284380e+00 -5.201534e+00 -2.651557e+00 -1.829195e+00 1.690223e+01 -2.427076e+00 -1.935208e+00 -5.880003e-01 6.119193e-01 8.543612e-01 1.006238e+00 1.102798e+00 3.432132e-01 1.580950e+00 8.213752e-01 1.881789e-02 -4.466509e-01 -6.073986e-01 -1.856286e-03 -8.508460e-01 -9.267340e-01 -1.301952e+00 -5.208933e-01 -1.004452e+00 1.245740e-02 3.252861e-01 3.926589e-01 -5.834553e-02 6.085858e-01 1.733962e-01 4.872428e-02
<VARIANCE> 39
 1.571236e+01 1.013746e+01 1.165272e+01 1.820815e+01 1.498843e+01 2.197981e+01 1.631634e+01 2.000052e+01 2.434488e+01 3.954127e+01 2.059379e+01 1.583442e+01 1.211848e+00 1.321045e+00 1.828248e+00 1.690272e+00 3.197351e+00 1.486977e+00 2.119716e+00 2.334799e+00 3.731727e+00 1.926020e+00 2.944179e+00 2.626652e+00 1.947384e+00 2.368670e-01 2.130943e-01 2.800145e-01 3.781108e-01 9.152938e-01 2.328059e-01 5.198075e-01 4.215802e-01 4.910432e-01 5.398758e-01 6.593336e-01 7.623705e-01 3.944215e-01 9.297133e-02
<GCONST> 1.021718e+02
<MIXTURE> 3 1.076694e-01
<MEAN> 39
 3.849465e+00 1.193057e+01 7.951931e+00 3.425997e+00 8.000887e+00 -3.186137e+00 -2.288233e+00 -6.516199e+00 -5.818364e+00 -7.099228e+00 3.015278e+00 -3.287678e+00 1.914786e+01 1.639517e-01 2.599213e+00 2.011470e+00 3.464245e+00 4.862316e-01 1.568100e+00 -6.374351e-01 -7.328424e-01 -2.578804e+00 -1.159137e+00 -1.662071e+00 6.382386e-01 -4.416048e-01 3.883678e-02 -4.993924e-01 -6.315307e-01 -7.382576e-01 -2.987608e-01 -1.075521e-01 1.535161e-01 2.724989e-01 3.385132e-01 4.490137e-01 -1.013916e-01 9.225888e-02 4.222474e-02
<VARIANCE> 39
 7.644785e+00 9.524724e+00 1.007539e+01 3.290772e+01 1.607593e+01 1.790619e+01 2.049647e+01 3.388111e+01 3.828804e+01 2.502186e+01 3.058414e+01 1.980256e+01 7.534518e-01 1.181211e+00 1.762803e+00 1.862961e+00 5.410015e+00 1.645870e+00 2.317042e+00 2.822899e+00 2.580868e+00 2.624530e+00 4.171439e+00 3.935997e+00 1.688359e+00 2.286247e-02 1.777392e-01 4.440347e-01 3.439693e-01 3.965160e-01 2.539615e-01 3.918098e-01 8.133017e-01 6.024878e-01 5.180898e-01 6.386753e-01 7.739092e-01 3.912230e-01 3.885879e-03
<GCONST> 9.843616e+01
<MIXTURE> 4 1.612316e-01
<MEAN> 39
 -8.031349e+00 8.208961e+00 8.137833e+00 8.909457e+00 8.734010e+00 3.316285e+00 1.994554e+00 -1.643092e+00 -2.678053e+00 -3.160509e+00 -3.331936e+00 -2.583802e+00 1.369762e+01 -1.506967e+00 -2.045527e+00 -1.404199e+00 -1.350446e+00 -8.329654e-01 -9.970709e-01 8.998405e-02 1.042716e+00 1.614403e+00 4.815834e-01 2.462033e-01 2.646999e-01 -6.695057e-01 6.744383e-01 -3.189605e-01 -4.958264e-01 -9.304894e-01 -5.355518e-01 -9.994169e-01 -3.215130e-01 -1.090863e-01 2.147992e-01 -1.347946e-01 6.271272e-01 1.057151e-01 4.067524e-01
<VARIANCE> 39
 1.455126e+01 1.585055e+01 1.907983e+01 3.435227e+01 1.603934e+01 2.677500e+01 1.629126e+01 1.899468e+01 3.038935e+01 2.436119e+01 1.985357e+01 3.023596e+01 4.184002e+00 2.714904e+00 3.396197e+00 1.958717e+00 2.592381e+00 2.930747e+00 3.235857e+00 2.394178e+00 3.120971e+00 2.483409e+00 2.656409e+00 2.512516e+00 2.373438e+00 7.420385e-01 5.938326e-01 2.718732e-01 7.896699e-01 8.057890e-01 5.236686e-01 8.970691e-01 4.812199e-01 3.963654e-01 7.015499e-01 8.114812e-01 5.813552e-01 7.159872e-01 1.675728e-01
<GCONST> 1.134032e+02
<MIXTURE> 5 1.308818e-01
<MEAN> 39
 3.656485e+00 1.664408e+01 9.928048e+00 7.386710e+00 7.871329e+00 8.746672e-01 -4.617135e+00 -6.660330e+00 -6.164788e+00 -4.738783e+00 -1.283492e+00 -5.508435e-01 1.788850e+01 -1.019004e+00 -1.860906e-01 6.809977e-01 7.175380e-01 -1.846957e-01 1.304829e+00 1.994216e-01 -7.587160e-02 5.941712e-01 1.277035e+00 -5.571755e-01 2.147360e-02 -3.258955e-01 -5.458049e-01 -9.196652e-01 -2.288740e-01 -2.713309e-01 -1.578470e-01 -7.124892e-01 5.409833e-01 2.871125e-01 3.154401e-01 -2.173806e-01 3.164455e-01 -2.199958e-01 2.768443e-02
<VARIANCE> 39
 1.179726e+01 6.798300e+00 2.120221e+01 1.297766e+01 1.740365e+01 1.779915e+01 1.222166e+01 1.866790e+01 2.312875e+01 1.608072e+01 2.627384e+01 1.791854e+01 5.108070e-01 1.853280e+00 1.848272e+00 7.220982e-01 1.259560e+00 1.834245e+00 3.334784e+00 1.431044e+00 1.679062e+00 2.191808e+00 3.037389e+00 2.286353e+00 2.790968e+00 4.852578e-02 1.891974e-01 3.390775e-01 3.163240e-01 5.364910e-01 3.231944e-01 1.065519e+00 4.268498e-01 3.389375e-01 4.715904e-01 4.739725e-01 5.553734e-01 4.134759e-01 3.497209e-02
<GCONST> 9.495154e+01
<MIXTURE> 6 1.450413e-01
<MEAN> 39
 6.956106e+00 1.586326e+01 7.915051e+00 4.821355e+00 4.524497e+00 -1.488170e+00 -6.673550e-01 -4.085684e+00 -1.253438e+01 -1.262649e+01 -1.141200e+00 8.315938e-01 1.884398e+01 -1.318082e-01 5.091557e-01 8.366943e-02 6.963221e-01 4.282507e-01 9.045458e-01 -4.071914e-01 -2.855927e-01 -2.768039e-01 -4.587309e-02 -2.394776e-01 7.599550e-01 -2.352963e-01 -6.731395e-01 -8.828759e-01 -1.542285e-01 -7.582439e-01 5.732645e-03 -3.738691e-01 9.486492e-02 -1.310268e-01 1.175944e+00 1.046476e+00 4.671433e-01 -4.081902e-01 -1.613021e-02
<VARIANCE> 39
 5.758305e+00 5.165612e+00 1.065374e+01 1.640037e+01 2.299865e+01 3.307360e+01 1.259951e+01 2.530112e+01 3.229285e+01 4.052462e+01 2.090377e+01 1.508006e+01 3.674480e-01 1.791511e+00 1.541611e+00 2.088902e+00 2.481122e+00 1.459400e+00 3.182865e+00 2.007722e+00 1.513744e+00 3.567416e+00 3.730611e+00 2.337496e+00 2.871273e+00 1.334941e-01 2.433684e-01 3.558307e-01 4.820843e-01 9.121376e-01 3.228179e-01 7.781940e-01 2.000090e-01 5.179482e-01 4.542188e-01 5.862200e-01 4.281076e-01 5.626471e-01 4.373750e-02
<GCONST> 9.955479e+01
<MIXTURE> 7 1.089274e-01
<MEAN> 39
 5.323859e+00 1.063982e+01 7.312072e+00 2.599679e+00 7.010311e+00 -2.735681e+00 -4.023944e+00 -7.070899e+00 -5.210845e+00 -5.757764e+00 -1.282280e+00 -3.378297e+00 1.913132e+01 -2.097730e-01 1.877948e+00 1.217593e+00 3.085057e+00 1.072810e+00 1.720668e+00 1.366713e-01 -3.266160e-01 -2.719439e+00 -1.276906e+00 -1.676416e+00 2.653593e-01 -4.636355e-01 -3.969967e-01 -6.957841e-01 -4.946678e-01 -8.574663e-01 -6.004171e-01 -6.761348e-01 5.599673e-01 3.498205e-01 4.593272e-01 3.395720e-01 5.446504e-01 -3.148182e-02 1.036816e-01
<VARIANCE> 39
 1.017378e+01 1.512234e+01 2.465439e+01 3.433931e+01 3.752101e+01 2.878718e+01 3.347280e+01 3.394584e+01 3.200821e+01 2.749298e+01 2.613441e+01 2.608077e+01 4.845169e-01 1.002255e+00 2.556504e+00 3.045471e+00 2.754552e+00 2.122224e+00 3.715048e+00 5.399730e+00 2.701543e+00 4.272715e+00 2.344955e+00 1.563920e+00 1.632000e+00 3.993861e-02 2.160072e-01 2.633441e-01 6.665408e-01 4.924574e-01 4.113743e-01 4.574549e-01 4.781312e-01 6.634660e-01 1.314037e+00 1.031658e+00 6.137465e-01 5.401684e-01 8.772873e-03
<GCONST> 1.055534e+02
<MIXTURE> 8 7.974757e-02
<MEAN> 39
 7.284367e-01 1.304664e+01 1.144216e+01 9.157798e+00 7.367891e+00 -3.766643e+00 -5.696354e+00 -7.813259e+00 -7.792631e+00 -4.083470e+00 -1.970529e+00 -4.370079e+00 1.766902e+01 -1.196757e+00 -9.980631e-02 3.777171e-01 7.125878e-01 3.016143e-02 2.078188e-01 3.887652e-01 -2.523751e-01 -5.160955e-01 -3.901969e-01 -1.251254e+00 -2.805059e-01 -4.249620e-01 -5.809246e-01 -1.446756e+00 -7.224739e-01 -1.271775e+00 -8.061357e-01 -2.565765e-01 8.119922e-01 4.692007e-01 1.245250e+00 1.066145e-01 6.374600e-01 2.070176e-01 1.036728e-01
<VARIANCE> 39
 9.900819e+00 1.971651e+01 1.289068e+01 2.319819e+01 2.764716e+01 2.898696e+01 5.884288e+01 1.701883e+01 2.847553e+01 3.167856e+01 2.236665e+01 1.310755e+01 1.051694e+00 2.181253e+00 3.700176e+00 1.355690e+00 1.164014e+00 1.697294e+00 2.510385e+00 5.095744e+00 2.938893e+00 2.604340e+00 1.642508e+00 3.103269e+00 1.807447e+00 1.102556e-01 3.042121e-01 2.180966e-01 2.788444e-01 7.121062e-01 9.227566e-01 1.600221e+00 8.431807e-01 2.958021e-01 3.743095e-01 5.801619e-01 3.991829e-01 3.434259e-01 5.820435e-02
<GCONST> 1.047700e+02
<STATE> 3
<NUMMIXES> 8
<MIXTURE> 1 9.651243e-02
<MEAN> 39
 -1.120804e+01 -2.488029e+00 1.402026e+00 7.303401e-01 4.543609e+00 -3.040421e+00 1.565094e+00 -5.154228e+00 1.641008e+00 -2.238608e-01 2.346337e+00 -1.111829e+00 1.529501e+01 2.608812e+00 -1.332111e+00 -2.284441e+00 -3.687373e+00 2.574572e-01 -1.109208e+00 1.934797e+00 -8.351595e-01 -1.071442e-01 3.309380e-01 2.413562e+00 2.091136e-01 1.812726e+00 1.945821e+00 1.269706e+00 -2.424866e-01 -6.926543e-01 -6.205990e-02 -2.281446e-01 -4.751348e-02 1.726884e-01 -2.949737e-01 -3.723989e-01 9.605116e-02 -2.195438e-01 4.582506e-01
<VARIANCE> 39
 7.022791e+00 2.444093e+01 2.731394e+01 1.136047e+01 1.938018e+01 6.851887e+00 3.536332e+01 1.845202e+01 1.635646e+01 2.714671e+01 6.911240e+00 1.774623e+01 6.862589e+00 5.402897e+00 3.793393e+00 5.985171e+00 4.285115e+00 1.959126e+00 4.844185e+00 2.798566e+00 3.436895e+00 7.402510e+00 4.957528e+00 4.527834e+00 3.754499e+00 9.935998e-01 2.273496e-01 6.207674e-01 9.233333e-01 1.062663e+00 3.737174e-01 7.188457e-01 1.035566e+00 5.717118e-01 1.117382e+00 9.933928e-01 4.632406e-01 1.869649e-01 1.081624e-01
<GCONST> 1.155874e+02
<MIXTURE> 2 1.294314e-01
<MEAN> 39
 -1.218580e+01 4.199898e+00 3.656338e+00 5.796442e+00 6.838970e+00 1.707220e+00 4.054911e+00 1.172786e-01 6.928877e-01 -1.125883e+00 -1.328996e+00 -4.558308e-01 1.122984e+01 -3.356653e-02 -8.238108e-01 -4.313746e-01 -2.957009e-01 -1.025864e+00 3.121890e-01 -9.048610e-02 8.055489e-01 2.080076e+00 1.153749e+00 9.688329e-01 -9.404121e-02 -2.414475e-02 9.426516e-01 3.794587e-02 7.773153e-02 -4.335929e-01 -2.178909e-01 -6.740709e-01 -1.127039e-01 -4.338136e-01 -2.605878e-01 -1.548603e-01 2.639875e-01 -3.116924e-01 7.324122e-01
<VARIANCE> 39
 4.093651e+00 6.265592e+00 7.368608e+00 1.138576e+01 7.815447e+00 1.359769e+01 2.763126e+01 1.895541e+01 1.582963e+01 2.426774e+01 2.920186e+01 1.127404e+01 8.089988e-01 1.144732e+00 6.336909e-01 1.508631e+00 2.823396e+00 2.461956e+00 2.789715e+00 2.580511e+00 2.965516e+00 1.588569e+00 2.598489e+00 4.829223e+00 1.192594e+00 6.504411e-01 2.950386e-01 2.563196e-01 4.133460e-01 4.187645e-01 2.569033e-01 9.957907e-01 5.222013e-01 4.558436e-01 5.906121e-01 5.987889e-01 1.261427e+00 2.867964e-01 9.033012e-02
<GCONST> 9.804775e+01
<MIXTURE> 3 2.024809e-01
<MEAN> 39
 2.552522e+00 1.528966e+01 9.382361e+00 7.423135e+00 6.631887e+00 1.111846e+00 -1.847719e+00 -7.930717e+00 -8.053669e+00 -7.994976e+00 -2.521148e+00 5.033421e-01 1.793495e+01 -9.419657e-01 -4.086757e+00 -2.550195e+00 -3.433988e+00 -6.925284e-01 -2.173863e+00 8.917774e-01 1.217499e+00 2.526577e+00 9.171245e-01 2.278909e+00 -1.246141e-01 4.599643e-01 4.803495e-01 -6.248716e-01 -8.198311e-01 -1.827528e+00 -1.927723e-01 -1.118846e+00 4.807715e-01 4.856757e-01 5.037304e-01 2.668297e-01 9.479298e-01 -5.284007e-01 3.284937e-01
<VARIANCE> 39
 1.559610e+01 1.990926e+01 1.878951e+01 2.316893e+01 1.093720e+01 7.846064e+00 1.604284e+01 1.648939e+01 2.702952e+01 2.214716e+01 1.716441e+01 1.884113e+01 6.492569e-01 1.921582e+00 1.236953e+00 4.325190e+00 7.185454e+00 3.128080e+00 4.168745e+00 4.828040e+00 3.769024e+00 2.647835e+00 3.678823e+00 4.287485e+00 3.922368e+00 1.220141e-01 4.632235e-01 5.864322e-01 9.697914e-01 7.937196e-01 5.115585e-01 7.554681e-01 5.777547e-01 9.262595e-01 8.769804e-01 4.861548e-01 7.877888e-01 9.542922e-01 8.151016e-03
<GCONST> 1.089417e+02
<MIXTURE> 4 1.539804e-01
<MEAN> 39
 -1.041353e+01 4.726522e+00 4.433425e+00 3.929838e+00 2.749229e+00 1.403402e+00 5.310203e+00 2.881068e+00 7.212490e-01 -2.695957e+00 -4.123443e+00 -3.533693e+00 1.204039e+01 1.620956e+00 -1.983102e+00 -1.796793e+00 -2.551849e+00 -1.448825e+00 -4.213124e+00 -1.128522e+00 -3.787962e-01 4.763868e-01 -4.556215e-02 1.954096e+00 -3.016146e-01 1.479307e+00 1.256105e+00 2.500647e-02 -4.400443e-01 -6.725085e-01 4.030675e-01 -1.049171e+00 -5.001550e-01 -9.003027e-01 -1.038155e-01 1.695287e-01 9.278984e-01 1.777865e-01 7.159676e-01
<VARIANCE> 39
 8.453745e+00 7.188529e+00 8.993846e+00 1.930998e+01 1.215217e+01 2.835592e+01 2.435207e+01 2.736606e+01 2.246035e+01 1.544332e+01 1.809790e+01 2.319638e+01 3.051021e+00 6.901834e+00 4.296020e+00 5.252144e+00 3.525957e+00 3.274155e+00 5.001395e+00 3.412270e+00 2.164623e+00 6.132257e+00 4.165273e+00 4.448775e+00 3.279993e+00 1.874598e+00 4.432274e-01 4.195212e-01 5.381664e-01 6.779178e-01 4.349336e-01 1.144036e+00 7.107012e-01 4.506908e-01 4.280210e-01 6.673544e-01 5.164888e-01 4.875492e-01 8.375189e-02
<GCONST> 1.143037e+02
<MIXTURE> 5 9.032251e-02
<MEAN> 39
 -1.279702e+00 4.485950e+00 7.140676e+00 5.687755e+00 5.320458e+00 -1.413897e+00 -1.332539e+00 -7.289896e+00 -2.978055e+00 -1.962422e+00 2.252892e+00 -1.402233e+00 1.817987e+01 -2.110392e+00 -3.216548e+00 1.530190e+00 -4.045135e-01 -1.733388e+00 -3.643289e+00 1.176461e+00 1.377964e+00 2.374879e+00 -8.111261e-02 1.004598e+00 4.807714e-01 3.768739e-01 2.480404e-01 4.657369e-01 4.711006e-01 -7.494222e-01 -4.429901e-01 -9.510930e-01 9.874786e-02 2.961515e-01 -1.265833e-01 -3.990358e-01 4.552853e-01 -9.352151e-02 1.873996e-01
<VARIANCE> 39
 2.900337e+01 7.735371e+01 2.714079e+01 3.862340e+01 1.818370e+01 2.652689e+01 1.657102e+01 1.182907e+01 4.621223e+01 1.893777e+01 1.590847e+01 1.862947e+01 1.273400e+00 3.736977e+00 4.066274e+00 2.979346e+00 3.513333e+00 3.364130e+00 1.036466e+01 3.275560e+00 3.588837e+00 3.901552e+00 2.525440e+00 2.754496e+00 2.702187e+00 2.240287e-01 6.477111e-01 1.116488e+00 8.080975e-01 1.461019e+00 5.410961e-01 1.197101e+00 5.429947e-01 2.672819e-01 7.326468e-01 1.286594e+00 6.544397e-01 4.038561e-01 2.100520e-02
<GCONST> 1.166216e+02
<MIXTURE> 6 1.662237e-01
<MEAN> 39
 -1.222757e+01 3.163474e+00 2.581184e+00 3.905387e+00 6.093571e+00 1.854071e+00 1.059013e+00 8.947438e-01 3.005807e-01 2.279826e+00 -5.959626e-01 -2.278338e+00 1.066550e+01 -1.218208e-01 -1.591924e+00 -9.198097e-01 -1.917748e+00 -6.068903e-01 -9.369771e-01 -3.167140e-02 -5.190275e-01 4.886195e-01 4.343356e-04 5.603808e-01 -2.455475e-01 4.865130e-01 1.142042e+00 1.914137e-01 6.371906e-02 -3.154728e-01 -6.149966e-02 -7.906177e-01 1.633487e-01 -4.525872e-01 -1.096345e-01 -3.392350e-01 2.213766e-01 -7.516098e-02 8.026626e-01
<VARIANCE> 39
 4.809101e+00 4.406324e+00 8.017454e+00 2.293601e+01 1.798980e+01 2.937319e+01 1.816115e+01 1.426656e+01 3.184008e+01 3.761666e+01 2.894392e+01 1.858704e+01 6.910464e-01 3.147455e+00 1.553241e+00 1.151052e+00 2.440986e+00 1.236946e+00 2.563306e+00 1.441668e+00 1.638331e+00 2.102028e+00 2.887180e+00 3.028631e+00 2.240430e+00 1.289882e+00 3.629648e-01 1.329272e-01 5.333331e-01 1.136297e+00 4.262602e-01 1.634361e+00 5.402756e-01 2.859614e-01 8.039256e-01 4.735432e-01 8.014714e-01 3.687775e-01 9.001559e-02
<GCONST> 1.030309e+02
<MIXTURE> 7 7.467875e-02
<MEAN> 39
 4.301670e+00 9.864487e+00 5.156982e+00 1.561284e+00 7.373711e+00 -2.294219e+00 -1.284526e-02 -8.557152e+00 -7.499739e+00 -4.119793e+00 -3.046038e+00 -2.998725e+00 1.919299e+01 -9.116252e-01 -1.071488e+00 2.442612e-01 -1.293706e+00 -2.704510e+00 -9.400043e-01 5.416278e-01 9.845729e-01 1.490493e-01 -8.519375e-01 1.747155e+00 4.817425e-01 7.621367e-02 1.026264e-01 -8.684319e-01 -4.819240e-01 -1.894362e+00 -1.073018e+00 -6.076925e-01 4.380279e-01 4.279637e-01 1.082580e+00 4.113360e-02 8.239080e-01 2.348341e-01 2.109651e-01
<VARIANCE> 39
 1.689617e+01 5.164971e+01 3.429226e+01 4.822646e+01 4.579220e+01 1.030324e+01 3.614368e+01 6.544488e+01 1.640235e+01 4.465487e+01 2.442597e+01 2.670540e+01 1.123184e+00 3.542170e+00 4.128270e+00 2.886286e+00 1.760777e+00 3.412960e+00 6.603434e+00 3.400453e+00 1.510279e+00 4.914050e+00 5.286351e+00 1.931195e+00 1.275343e+00 9.965914e-02 6.210188e-01 5.084130e-01 8.445367e-01 8.188308e-01 5.277700e-01 5.285206e-01 9.225858e-01 7.659663e-01 9.048769e-01 3.588400e-01 4.637867e-01 7.595426e-01 1.140723e-02
<GCONST> 1.141029e+02
<MIXTURE> 8 8.636979e-02
<MEAN> 39
 -1.268588e+01 -3.818868e+00 7.998224e-01 1.549880e+00 3.054604e+00 -5.007928e+00 -2.495755e+00 -5.161325e+00 2.407949e+00 -1.746916e+00 2.805142e+00 -1.427181e+00 1.316922e+01 1.933150e+00 -1.837632e+00 -1.596935e+00 -2.508242e+00 -1.120060e+00 -3.654558e+00 1.125696e-01 -1.099436e+00 3.560044e-01 -4.820954e-01 9.504685e-01 4.830288e-01 1.620999e+00 1.602562e+00 1.211189e+00 2.402159e-01 -1.463333e-01 1.771413e-01 4.819199e-02 8.970172e-01 5.295490e-02 -2.938666e-01 -1.971613e-01 -1.509801e-01 -2.922111e-01 5.781510e-01
<VARIANCE> 39
 3.605357e+00 1.354353e+01 2.054466e+01 2.403382e+01 2.102600e+01 3.318427e+01 1.562587e+01 2.115278e+01 3.126501e+01 1.154322e+01 2.229062e+01 2.041733e+01 6.813828e+00 4.298684e+00 3.346330e+00 5.231694e+00 5.890564e+00 1.859386e+00 9.047413e+00 8.585869e+00 2.855727e+00 6.179389e+00 2.379485e+00 4.923206e+00 2.991227e+00 1.297761e+00 4.526921e-01 2.984204e-01 1.155981e+00 9.979490e-01 2.307856e-01 1.756622e+00 5.972911e-01 4.556494e-01 6.862390e-01 6.437175e-01 7.238578e-01 7.927259e-01 1.149692e-01
<GCONST> 1.182003e+02
<STATE> 4
<NUMMIXES> 8
<MIXTURE> 1 1.440344e-01
<MEAN> 39
 4.854813e+00 1.453654e+00 -3.360305e+00 -7.952011e+00 5.630626e+00 -1.345086e+01 3.003672e+00 -3.417434e+00 1.218655e+00 8.685620e-01 1.042148e+01 -3.162632e+00 2.073316e+01 4.274536e+00 4.740971e-02 -2.541810e+00 -3.060351e+00 1.015437e+00 -3.134928e+00 4.441811e-01 -8.313900e-01 1.921133e+00 1.085451e+00 1.870002e+00 -8.197461e-01 1.864801e+00 -1.036382e+00 2.275747e-01 7.582294e-01 1.147423e+00 1.799127e-01 1.004053e+00 -1.976044e-01 3.342958e-02 3.646450e-01 -1.797083e-01 -1.377820e+00 -2.595246e-02 -6.398825e-01
<VARIANCE> 39
 8.421680e+00 7.714544e+00 1.472124e+01 2.781556e+01 1.710099e+01 6.956542e+01 3.174728e+01 1.945589e+01 6.984094e+01 4.879549e+01 6.103089e+01 2.629745e+01 7.124582e-01 1.622551e+00 2.962788e+00 1.880296e+00 4.879085e+00 1.130973e+00 5.469826e+00 5.142101e+00 3.320262e+00 8.172302e+00 4.803850e+00 2.985384e+00 3.917443e+00 4.908673e-01 2.609878e-01 2.627411e-01 2.732675e-01 3.919566e-01 2.505240e-01 1.275793e+00 6.399105e-01 6.086417e-01 7.578412e-01 8.987678e-01 1.283152e+00 4.440928e-01 3.767417e-02
<GCONST> 1.131906e+02
<MIXTURE> 2 9.037402e-02
<MEAN> 39
 -1.393376e+00 3.004239e+00 6.189989e+00 2.240588e+00 8.739941e-01 -7.085643e+00 3.577058e+00 -1.927040e+00 -1.586345e-01 -5.781399e+00 3.516673e+00 1.261420e+00 1.906553e+01 1.648412e+00 -9.830650e-01 1.604207e-01 -3.216755e+00 -3.059506e+00 -3.565449e+00 1.060046e+00 1.687638e-01 1.555131e+00 -2.692881e-01 2.252275e+00 8.776055e-01 1.039482e+00 5.723757e-01 9.253597e-01 2.991930e-01 -3.359224e-01 2.221386e-01 1.866144e-01 -2.130953e-01 -4.104096e-01 -3.291473e-01 -5.984247e-02 -1.949828e-01 -5.443076e-01 2.731519e-02
<VARIANCE> 39
 4.057932e+01 1.912394e+01 1.090471e+01 4.119239e+01 5.997027e+01 5.057047e+01 4.869573e+01 3.046392e+01 7.037614e+01 2.070154e+01 1.316599e+01 2.119893e+01 1.066631e+00 2.574170e+00 1.889410e+00 8.851804e+00 1.105091e+01 6.464997e+00 9.022378e+00 7.898625e+00 5.585490e+00 6.310944e+00 1.194808e+01 5.291133e+00 2.224735e+00 6.549752e-01 6.988232e-01 1.394768e+00 6.766788e-01 5.250193e-01 7.056031e-01 5.099505e-01 4.220657e-01 7.602596e-01 2.277333e+00 4.865963e-01 5.578187e-01 3.564829e-01 2.111898e-02
<GCONST> 1.245322e+02
<MIXTURE> 3 1.369519e-01
<MEAN> 39
 6.052757e+00 2.598774e+00 -8.170456e+00 -2.394485e+01 6.320551e+00 -5.802401e+00 1.065574e+01 3.783575e+00 -2.467423e+00 -4.097694e+00 1.235336e+01 -4.026488e+00 2.125171e+01 9.311970e-01 -8.358716e-01 -2.024683e+00 -4.396610e+00 8.202637e-01 5.914531e-01 2.543996e+00 4.217747e-01 2.968372e-02 1.118933e+00 1.450903e+00 -2.500122e+00 7.287617e-01 -6.790100e-01 6.324163e-01 1.400551e+00 2.851467e+00 1.306213e-01 8.887073e-01 -1.036694e+00 -1.342710e+00 -3.670347e-01 8.176397e-02 -1.706802e+00 -1.632101e-01 -4.013029e-01
<VARIANCE> 39
 5.249626e+00 9.751568e+00 3.060765e+01 3.427473e+01 3.631559e+01 4.643106e+01 3.490841e+01 4.151036e+01 5.762434e+01 4.820124e+01 2.794755e+01 4.049361e+01 1.968097e-01 2.112630e+00 1.744298e+00 2.995693e+00 1.198173e+01 2.903695e+00 3.855170e+00 2.644033e+00 5.300376e+00 2.635826e+00 4.945158e+00 4.452961e+00 2.632106e+00 1.632666e-01 6.283675e-01 4.921596e-01 4.316334e-01 7.304097e-01 3.474624e-01 7.304865e-01 5.226781e-01 1.120602e+00 1.737707e+00 5.203984e-01 5.003515e-01 1.363405e+00 6.378408e-02
<GCONST> 1.163003e+02
<MIXTURE> 4 1.251094e-01
<MEAN> 39
 -7.148297e+00 -1.382182e+00 2.381276e+00 -8.825439e-01 2.192756e+00 -5.591094e+00 1.527176e-01 -4.517198e+00 2.101955e+00 -5.987157e-01 2.814656e+00 -3.033182e+00 1.784746e+01 4.682350e+00 -5.960785e-01 -2.315398e+00 -3.383854e+00 -2.098357e-02 -4.981677e+00 -2.493274e-01 -8.103922e-01 1.645909e+00 5.090960e-01 2.456463e+00 -7.179170e-01 2.655638e+00 5.976535e-01 6.164517e-01 -1.917488e-01 8.171964e-02 3.870903e-01 1.130249e-02 1.714713e-01 1.394880e-01 2.501903e-01 -1.480304e-02 -2.918228e-01 9.021294e-02 -1.166117e-01
<VARIANCE> 39
 1.507624e+01 1.162343e+01 9.552862e+00 2.797283e+01 2.552531e+01 2.060443e+01 2.069666e+01 2.038275e+01 1.330273e+01 2.759349e+01 1.654633e+01 1.821902e+01 1.965040e+00 3.371060e+00 1.026034e+00 5.356607e+00 6.406218e+00 1.641640e+00 8.487019e+00 3.592405e+00 3.181011e+00 4.687623e+00 3.571808e+00 8.049582e+00 2.225295e+00 5.859068e-01 2.423289e-01 3.996859e-01 2.505588e-01 5.161960e-01 2.908852e-01 5.444677e-01 5.688611e-01 1.018877e+00 4.896862e-01 6.614949e-01 3.583907e-01 2.125568e-01 5.421504e-02
<GCONST> 1.086619e+02
<MIXTURE> 5 1.521902e-01
<MEAN> 39
 4.657768e+00 1.443298e-01 -9.048573e+00 -1.581834e+01 9.366693e+00 -6.787121e+00 6.492710e+00 -1.472111e+00 -1.665686e+00 3.869744e+00 9.284989e+00 -8.770480e+00 2.132170e+01 -6.794909e-03 -9.106888e-01 -1.638887e-01 1.482470e-01 7.349719e-01 4.807073e-01 3.754121e-02 -7.189195e-01 6.093659e-01 1.609586e+00 -1.735364e+00 -2.239870e+00 1.936727e-01 -8.938539e-01 -1.032328e-02 1.163544e+00 1.782705e+00 -7.517912e-01 2.567949e-01 -5.335743e-01 1.370609e-03 2.466079e-01 -7.728373e-01 -1.280036e+00 3.622020e-01 -4.503854e-01
<VARIANCE> 39
 3.757573e+00 7.073492e+00 1.604666e+01 4.409060e+01 2.257078e+01 4.402382e+01 2.797141e+01 2.170712e+01 5.826123e+01 5.928607e+01 3.044954e+01 1.483556e+01 3.874791e-01 2.766942e+00 9.623621e-01 2.069583e+00 5.089308e+00 1.315124e+00 3.369919e+00 2.343309e+00 5.955500e+00 4.780424e+00 3.532569e+00 2.919583e+00 1.763942e+00 1.543055e-01 5.119696e-01 3.177622e-01 2.809206e-01 8.811430e-01 2.738774e-01 5.154378e-01 5.697374e-01 6.399392e-01 9.259168e-01 8.130506e-01 7.265767e-01 5.790184e-01 6.763415e-02
<GCONST> 1.081746e+02
<MIXTURE> 6 1.038808e-01
<MEAN> 39
 7.030490e+00 3.982944e+00 -5.877916e+00 -1.186050e+01 2.409735e+00 -6.710960e+00 1.258701e+00 -4.940109e+00 -1.629258e+00 -4.223517e+00 8.132864e+00 1.443857e+00 2.047433e+01 2.652851e+00 -2.778185e-02 -3.777917e+00 -6.152999e+00 -4.791529e-01 -8.590713e-01 7.206063e-01 -3.152353e-01 2.575734e+00 9.297048e-01 3.322595e+00 -1.572037e+00 1.016756e+00 -6.326109e-01 3.250936e-01 5.057965e-01 9.609083e-01 4.512072e-01 4.643000e-01 1.072319e-01 3.062375e-02 2.496892e-01 2.326688e-03 -7.053065e-01 -6.638132e-01 -2.913084e-01
<VARIANCE> 39
 1.075073e+01 1.658681e+01 1.593664e+01 1.175865e+01 1.229189e+01 1.712181e+01 1.914918e+01 2.796420e+01 2.897314e+01 4.070075e+01 4.758936e+01 5.133865e+01 6.365803e-01 3.777702e+00 9.197121e+00 7.116916e+00 9.074036e+00 3.783272e+00 3.598413e+00 6.512802e+00 8.650537e+00 6.968594e+00 4.262804e+00 3.796162e+00 4.835206e+00 2.625525e-01 7.750927e-01 3.820621e-01 7.119054e-01 4.785198e-01 3.848295e-01 4.319956e-01 4.401679e-01 5.257422e-01 1.545863e+00 1.049532e+00 1.057720e+00 4.486091e-01 9.985467e-02
<GCONST> 1.193536e+02
<MIXTURE> 7 1.516256e-01
<MEAN> 39
 -1.437530e+00 1.287090e+00 5.826126e+00 -1.764811e-01 1.772812e+00 -9.645112e+00 -1.948323e+00 -4.535306e+00 -2.175172e+00 -5.209221e+00 4.077639e+00 -6.202194e-01 1.944172e+01 6.370459e-01 -2.542982e+00 -1.419999e+00 -4.922564e+00 -1.630716e+00 -4.002036e+00 4.942939e-01 1.539644e+00 1.926487e+00 6.128611e-01 3.181970e+00 -2.765599e-02 8.994918e-01 6.920475e-01 1.169001e+00 1.144304e-02 -3.016219e-01 2.177732e-01 6.249834e-01 5.926350e-02 -1.116769e-01 -2.458030e-01 7.970347e-02 -4.029298e-01 -4.542694e-01 4.049147e-02
<VARIANCE> 39
 2.510206e+01 1.794548e+01 4.710619e+01 3.738712e+01 1.651504e+01 6.701563e+01 3.070761e+01 3.207529e+01 3.211969e+01 3.861662e+01 1.757512e+01 1.955164e+01 1.366908e+00 2.284607e+00 1.870312e+00 1.044144e+01 1.163118e+01 3.895029e+00 5.470796e+00 3.804096e+00 6.549911e+00 6.550945e+00 4.660192e+00 4.168842e+00 2.154059e+00 8.553498e-02 4.040521e-01 4.591728e-01 3.514600e-01 8.371897e-01 3.867842e-01 8.669735e-01 5.389111e-01 3.965277e-01 1.157560e+00 4.725941e-01 5.119407e-01 4.504983e-01 1.699332e-02
<GCONST> 1.164306e+02
<MIXTURE> 8 9.583373e-02
<MEAN> 39
 -4.539647e+00 2.956670e-01 2.652860e+00 -4.751562e-01 2.690859e+00 -5.991759e+00 7.833457e-01 -2.750595e+00 2.558826e+00 -2.645796e+00 -1.758706e+00 -3.925410e+00 1.808930e+01 1.521857e+00 -8.634929e-01 -8.977888e-01 -4.347937e+00 -2.343650e+00 -2.214011e+00 1.441062e+00 -2.011737e-01 1.159253e+00 -3.392051e-01 1.470996e+00 1.815766e-01 1.492499e+00 2.920221e-01 3.649213e-01 -4.240912e-01 -7.895279e-01 2.537787e-01 1.043068e-01 1.241146e-01 -1.146939e-01 9.895507e-02 -5.146118e-02 4.666017e-01 2.991907e-02 3.852669e-02
<VARIANCE> 39
 4.179556e+01 3.669704e+01 2.784794e+01 1.802336e+01 4.467069e+01 6.386339e+01 5.954028e+01 2.974093e+01 3.936361e+01 3.943005e+01 1.560514e+01 8.618366e+00 2.621469e+00 2.091098e+01 7.567500e+00 5.160941e+00 8.279211e+00 1.576257e+00 1.334188e+01 7.310758e+00 6.996886e+00 1.002075e+01 2.502426e+00 1.872838e+00 5.564703e+00 1.988811e+00 6.545885e-01 7.504990e-01 5.689101e-01 7.276267e-01 1.007108e+00 8.763013e-01 1.467394e+00 7.149665e-01 1.175602e+00 6.952381e-01 4.359206e-01 6.604157e-01 9.160202e-02
<GCONST> 1.304251e+02
<TRANSP> 5
 0.000000e+00 1.000000e+00 0.000000e+00 0.000000e+00 0.000000e+00
 0.000000e+00 7.374479e-01 2.625521e-01 0.000000e+00 0.000000e+00
 0.000000e+00 0.000000e+00 5.437742e-01 4.562258e-01 0.000000e+00
 0.000000e+00 0.000000e+00 0.000000e+00 5.225704e-01 4.774297e-01
 0.000000e+00 0.000000e+00 0.000000e+00 0.000000e+00 0.000000e+00
<ENDHMM>
~h "c"
<BEGINHMM>
<NUMSTATES> 5
<STATE> 2
<NUMMIXES> 8
<MIXTURE> 1 1.767848e-01
<MEAN> 39
 -1.447586e+01 -1.415354e-01 1.957460e-01 1.824756e+00 9.001171e+00 -3.693122e+00 2.183512e+00 -1.467512e+00 -2.069195e+00 -3.207595e+00 2.241768e-01 -3.378134e+00 1.546301e+01 -6.334112e-01 4.865823e-01 6.642129e-01 6.500585e-01 1.723447e-01 -3.989739e-01 4.887306e-01 1.329714e-01 -7.245799e-01 2.234505e-01 -7.642376e-01 3.223770e-01 -8.581683e-01 5.866595e-01 -2.288380e-02 -8.506912e-03 -2.486534e-01 -6.105862e-01 -1.346160e-01 -3.899264e-02 -1.927971e-01 4.939464e-01 -1.786444e-01 1.371709e-01 1.950035e-01 1.896044e-01
<VARIANCE> 39
 4.947896e+01 2.051192e+01 1.986449e+01 1.988468e+01 4.721339e+01 5.923658e+01 2.948669e+01 3.682849e+01 2.066763e+01 1.090284e+01 3.188653e+01 3.118092e+01 5.645142e+00 2.004611e+00 2.085994e+00 2.155887e+00 2.612478e+00 5.361079e+00 2.729248e+00 1.675485e+00 4.444633e+00 2.287593e+00 1.969607e+00 2.486266e+00 1.953491e+00 6.349296e-01 5.319579e-01 4.739879e-01 5.740825e-01 3.746953e-01 7.183610e-01 1.297712e+00 4.991336e-01 5.958386e-01 8.007364e-01 6.556174e-01 4.638973e-01 5.484285e-01 7.316785e-02
<GCONST> 1.152117e+02
<MIXTURE> 2 1.440983e-01
<MEAN> 39
 -6.664360e-01 5.660265e+00 9.944492e+00 1.018104e+01 3.921344e+00 -9.662499e+00 -4.527240e+00 -1.828001e+00 -2.774200e-01 -9.676066e+00 -1.155327e+00 -1.950997e+00 1.768390e+01 -1.817560e+00 8.585985e-01 4.060954e-01 1.397771e+00 4.399134e-01 2.491645e+00 3.029382e-01 -3.120911e-01 -1.543963e+00 3.155846e-01 -1.372167e+00 1.893953e-01 -1.279856e+00 -4.918506e-01 -8.513563e-01 -7.327543e-01 -1.366169e+00 -3.450907e-01 -1.774786e-01 7.329513e-02 2.193001e-01 6.678775e-01 4.821269e-01 5.833439e-01 -5.673922e-03 -5.346506e-02
<VARIANCE> 39
 1.161172e+01 2.491725e+01 1.963162e+01 1.701288e+01 1.480986e+01 3.134053e+01 3.156723e+01 4.575585e+01 4.851448e+01 4.014447e+01 2.169944e+01 1.659277e+01 1.127010e+00 1.144380e+00 3.036041e+00 1.596216e+00 1.555227e+00 3.017138e+00 3.619496e+00 3.635221e+00 2.755082e+00 3.428865e+00 3.136117e+00 4.724100e+00 1.974639e+00 2.069180e-01 5.188219e-01 5.969253e-01 3.825050e-01 4.489073e-01 5.506427e-01 7.822328e-01 7.498229e-01 6.237385e-01 6.478657e-01 5.925298e-01 7.876391e-01 6.002889e-01 4.923608e-02
<GCONST> 1.107800e+02
<MIXTURE> 3 1.387433e-01
<MEAN> 39
 -5.231297e+00 4.941206e+00 5.451692e+00 6.136160e+00 7.568430e+00 -4.693268e+00 -5.303999e+00 -7.201271e+00 -3.990606e+00 -6.418580e+00 -2.716781e+00 -3.725732e+00 1.560569e+01 -2.836898e+00 -2.334229e+00 -1.672696e+00 -4.839781e-01 -6.826006e-01 1.388478e+00 3.482398e-02 3.491160e-01 1.010936e+00 1.555468e+00 3.207319e-01 6.559767e-01 -1.039167e+00 -2.239379e-01 -6.979528e-01 -2.007926e-01 -8.191960e-01 -8.915664e-01 -5.387257e-01 8.789502e-01 7.092271e-01 1.002034e+00 2.446720e-01 9.444577e-01 2.092886e-02 3.306375e-01
<VARIANCE> 39
 2.065810e+01 5.231534e+01 4.218451e+01 1.731523e+01 4.241283e+01 6.019492e+01 7.422416e+01 3.783831e+01 4.997509e+01 3.575236e+01 3.613091e+01 2.614715e+01 2.724145e+00 3.914394e+00 2.094798e+00 3.086800e+00 2.727512e+00 3.523517e+00 2.551609e+00 4.948674e+00 3.290984e+00 4.112143e+00 2.504431e+00 3.022562e+00 4.562479e+00 8.235746e-01 7.398720e-01 9.260903e-01 8.559853e-01 6.338668e-01 7.630178e-01 8.398708e-01 1.232358e+00 4.591923e-01 1.225887e+00 3.907212e-01 5.888001e-01 4.451083e-01 9.237938e-02
<GCONST> 1.239050e+02
<MIXTURE> 4 1.110116e-01
<MEAN> 39
 -1.323630e+01 4.132957e+00 5.930103e+00 1.338036e-01 9.351964e+00 -7.006678e+00 2.804598e+00 4.017720e+00 5.967882e+00 -2.970165e+00 -1.765940e-01 -1.490666e+00 1.687503e+01 -3.005616e+00 -5.334698e-01 -9.615001e-01 -1.280275e+00 1.818121e+00 1.603755e+00 -8.755177e-02 9.629027e-01 -3.863326e-01 -6.028917e-01 -4.514808e-01 4.549066e-01 -4.401980e-01 1.626436e-01 -4.213018e-01 -1.714247e-01 -2.126710e-01 -9.379836e-01 -5.095696e-01 -2.495437e-01 -7.949672e-01 -4.983332e-01 -1.782597e-01 3.112084e-01 3.443005e-02 2.097342e-01
<VARIANCE> 39
 4.301210e+01 2.094493e+01 3.858665e+01 3.124380e+01 3.465040e+01 4.733126e+01 3.592036e+01 4.085295e+01 3.169465e+01 6.701232e+01 2.074613e+01 1.842541e+01 1.037253e+01 1.002696e+01 2.104988e+00 2.691263e+00 2.038690e+00 8.606790e+00 4.157452e+00 2.121019e+00 3.540264e+00 3.707948e+00 2.814586e+00 3.450588e+00 1.649805e+00 4.454173e-01 5.350264e-01 5.045994e-01 4.598802e-01 3.115011e-01 8.461056e-01 5.457814e-01 2.606820e-01 3.129175e-01 3.575287e-01 8.510508e-01 5.147249e-01 5.738726e-01 1.130058e-01
<GCONST> 1.187155e+02
<MIXTURE> 5 1.447607e-01
<MEAN> 39
 -3.828033e+00 2.547209e+00 6.666459e+00 4.108877e+00 5.173983e+00 -8.853620e+00 -3.390825e+00 3.491981e+00 4.083238e-01 -5.068582e+00 -4.209702e-01 -4.056115e+00 1.609584e+01 -1.584985e+00 4.208679e-01 -1.234808e+00 -1.463714e-02 -3.397186e-01 2.161370e+00 -3.880643e-01 -3.188997e-01 -5.544672e-01 2.971299e+00 -4.930011e-01 2.741373e-01 -1.878778e+00 8.271439e-02 -4.514135e-01 -8.823256e-01 -6.641220e-01 -1.104978e-01 -3.055316e-01 3.083393e-01 -2.309414e-01 5.277353e-01 2.394996e-01 4.783387e-01 -1.386208e-01 8.953682e-02
<VARIANCE> 39
 3.573845e+00 1.202658e+01 2.110072e+01 2.842479e+01 5.332208e+01 4.874012e+01 3.671831e+01 3.615091e+01 4.475690e+01 2.872202e+01 1.803200e+01 1.730537e+01 2.057874e+00 6.508746e-01 6.924757e-01 1.330048e+00 2.462631e+00 1.225896e+00 4.383576e+00 1.892633e+00 1.915768e+00 2.383233e+00 1.506779e+00 3.469018e+00 3.187209e+00 4.748684e-02 8.962614e-02 3.023677e-01 3.651861e-01 4.577520e-01 4.687166e-01 6.959503e-01 4.427204e-01 6.124404e-01 5.112347e-01 6.133967e-01 3.495628e-01 3.839284e-01 5.995731e-02
<GCONST> 1.007009e+02
<MIXTURE> 6 7.814937e-02
<MEAN> 39
 -3.910467e+00 6.309353e-01 4.774574e+00 1.442850e+00 4.033704e+00 -1.433630e+00 -3.052761e+00 -6.349039e+00 -3.905455e+00 -4.498505e+00 1.774698e+00 -5.737934e+00 1.587494e+01 -2.859922e+00 -2.246790e+00 -3.041649e+00 -1.116084e+00 -1.490854e+00 2.238034e+00 -4.660838e-01 -1.125621e+00 1.114971e+00 1.486214e-01 -4.254273e-01 1.270814e+00 -1.426446e+00 -2.046118e-01 -1.982866e-01 -3.672257e-01 -6.768026e-01 -5.293853e-01 -1.291151e+00 4.419298e-01 4.395402e-01 5.702436e-01 2.121371e-01 3.138907e-01 1.559149e-01 2.861185e-01
<VARIANCE> 39
 2.141476e+01 3.135652e+01 9.281007e+01 2.655880e+01 4.410766e+01 6.661243e+01 4.479159e+01 3.958754e+01 3.688993e+01 6.899780e+01 5.154289e+01 2.905107e+01 3.992132e+00 3.831531e+00 3.029671e+00 3.806242e+00 5.132668e+00 4.082580e+00 6.830086e+00 5.223810e+00 5.828439e+00 7.673512e+00 2.857981e+00 7.744267e+00 3.337098e+00 2.762972e-01 4.146373e-01 5.636119e-01 4.141947e-01 3.041228e-01 8.600762e-01 1.035204e+00 7.232931e-01 6.679116e-01 2.737228e-01 1.271138e+00 8.202581e-01 4.731391e-01 8.438767e-02
<GCONST> 1.263784e+02
<MIXTURE> 7 1.106000e-01
<MEAN> 39
 -1.468918e+01 -3.374477e-01 6.389625e+00 -3.068216e-01 6.023478e+00 -1.343138e+00 7.988106e-01 2.604226e+00 -1.650847e-01 -6.234277e+00 3.991817e-01 -4.191941e+00 1.619233e+01 -3.144537e+00 -1.263507e+00 -1.651436e+00 -4.388011e-01 -3.619659e-02 8.865809e-01 -1.132185e-01 1.394056e-02 -1.462846e+00 -2.933810e-01 -5.292643e-01 2.283938e-01 -1.089061e+00 7.976819e-01 3.049323e-01 -4.065150e-01 -3.240086e-01 -6.991810e-01 -1.304253e+00 -4.118567e-01 -7.314045e-01 4.486574e-01 6.377037e-01 -3.672885e-02 2.783898e-01 1.619309e-01
<VARIANCE> 39
 4.561165e+01 5.549768e+01 3.970850e+01 4.307405e+01 3.698505e+01 4.656554e+01 4.613518e+01 4.220926e+01 2.366858e+01 1.944754e+01 2.142980e+01 1.980753e+01 4.526597e+00 6.143690e+00 2.456400e+00 2.156858e+00 2.132531e+00 3.215971e+00 3.443464e+00 3.515297e+00 5.020288e+00 5.505886e+00 3.966101e+00 2.535490e+00 1.419851e+00 1.169812e+00 4.593429e-01 8.938844e-01 7.868513e-01 7.024217e-01 9.678233e-01 7.081320e-01 7.613339e-01 3.576442e-01 1.469523e+00 7.427272e-01 9.391494e-01 6.553600e-01 1.095808e-01
<GCONST> 1.239424e+02
<MIXTURE> 8 9.585197e-02
<MEAN> 39
 -4.541853e+00 6.976743e+00 9.957880e+00 4.394389e+00 3.650639e+00 -1.209137e+01 3.658180e+00 -3.437984e+00 -8.474848e+00 -1.124917e+01 -8.766409e-01 -3.258253e+00 1.676473e+01 -1.576187e+00 -2.246358e-01 -1.362220e+00 5.042610e-01 -1.481092e-01 1.757071e+00 -1.976233e+00 -5.619442e-01 -3.667024e-01 1.126934e+00 -1.268587e+00 -1.440964e-01 -1.852484e+00 -8.281370e-02 -8.461115e-01 -1.231099e+00 -1.158658e+00 -6.386993e-01 1.350197e-01 7.646427e-02 -1.432611e-02 1.022903e+00 8.660152e-01 2.662524e-01 2.555318e-02 3.113901e-02
<VARIANCE> 39
 1.206967e+01 1.582308e+01 4.264996e+01 3.913313e+01 3.532834e+01 1.841892e+01 5.662096e+01 3.117199e+01 3.573000e+01 2.397702e+01 5.313141e+01 3.013161e+01 1.768754e+00 7.049762e-01 1.591049e+00 2.590443e+00 1.543491e+00 2.579923e+00 3.360986e+00 4.006030e+00 1.921633e+00 4.003941e+00 3.255771e+00 2.336416e+00 2.113377e+00 3.306880e-02 1.722642e-01 5.969399e-01 5.961358e-01 6.506613e-01 5.919564e-01 3.499241e-01 4.397018e-01 8.178623e-01 4.878844e-01 5.912853e-01 4.336982e-01 6.296047e-01 7.815092e-02
<GCONST> 1.085530e+02
<STATE> 3
<NUMMIXES> 8
<MIXTURE> 1 1.220674e-01
<MEAN> 39
 -9.028668e+00 -6.494182e-01 -4.472610e+00 -2.622898e+00 2.977704e+00 -1.285750e+00 -3.227382e+00 -2.115239e+00 1.615824e+00 1.643023e+00 4.928022e+00 -1.631982e+00 1.123783e+01 -7.435685e-01 -1.249968e+00 1.009999e-01 4.735954e-01 -1.180245e+00 -8.336594e-01 5.421893e-01 8.353884e-01 7.554932e-01 -9.055094e-01 9.578619e-01 1.113486e+00 2.873327e-01 4.870122e-01 -1.668325e-01 8.012611e-01 7.234251e-01 3.409927e-01 -4.909565e-01 7.014314e-02 3.273241e-02 3.557713e-01 -7.493871e-01 -2.640761e-01 -2.667706e-01 8.263373e-01
<VARIANCE> 39
 1.121946e+01 8.415614e+00 2.546499e+01 3.470162e+01 3.385920e+01 5.271490e+01 4.258713e+01 4.595292e+01 4.527570e+01 6.444563e+01 2.194218e+01 1.879418e+01 9.340696e-01 2.240753e+00 3.102853e+00 3.516331e+00 2.497245e+00 2.961681e+00 5.641554e+00 3.349130e+00 4.060935e+00 5.503425e+00 7.734193e+00 2.443213e+00 3.246542e+00 1.827747e+00 3.278769e-01 4.740605e-01 3.133511e-01 6.148351e-01 5.439397e-01 9.037515e-01 5.417417e-01 6.913067e-01 1.178332e+00 1.297195e+00 4.941022e-01 6.364728e-01 5.950442e-02
<GCONST> 1.192156e+02
<MIXTURE> 2 7.533880e-02
<MEAN> 39
 -1.648917e+01 -2.323458e+00 2.624807e+00 6.908062e-01 7.411037e+00 -5.060600e+00 4.619205e-01 -4.814791e+00 -9.324422e-01 -5.462375e+00 -1.812482e+00 1.036373e-01 1.685850e+01 -1.831541e-01 -5.467159e-01 2.161293e-01 -5.774641e-01 -2.872109e-01 -1.560322e-01 1.285601e+00 2.503618e-01 1.326886e+00 1.136737e-01 4.557926e-01 4.645801e-02 4.576321e-01 1.178474e+00 4.494026e-01 3.588599e-03 -2.511567e-01 -5.688688e-01 -3.760742e-01 4.386695e-01 3.582969e-01 4.699014e-01 -6.308401e-02 4.310918e-01 -3.525652e-01 2.385745e-01
<VARIANCE> 39
 5.885912e+01 3.432393e+01 1.649277e+01 5.173485e+01 5.150428e+01 3.127424e+01 4.425999e+01 3.263715e+01 3.801560e+01 1.235976e+01 2.303113e+01 2.581910e+01 4.916376e+00 1.300509e+01 3.508356e+00 3.333754e+00 1.728962e+00 4.080608e+00 3.793282e+00 4.496146e+00 3.193916e+00 8.159474e+00 2.959940e+00 5.176478e+00 2.291343e+00 2.485555e-01 1.019366e+00 2.647934e-01 6.378217e-01 1.135602e+00 6.691055e-01 8.407579e-01 8.244066e-01 6.965972e-01 5.977286e-01 3.642755e-01 5.134971e-01 3.159765e-01 4.952759e-02
<GCONST> 1.209614e+02
<MIXTURE> 3 8.481079e-02
<MEAN> 39
 -8.922778e+00 4.319016e+00 4.640143e+00 6.122965e+00 4.650010e+00 -4.437733e+00 -3.342936e+00 -1.846606e+00 1.914848e+00 6.440176e-01 -2.632299e+00 -4.313964e+00 1.156460e+01 -1.276334e-01 -7.460076e-01 -1.177226e+00 -1.781987e-02 7.676959e-01 2.343135e+00 1.849582e-01 -5.187011e-01 2.183972e-02 6.255987e-02 4.022186e-01 8.290995e-01 -2.518497e-01 4.323238e-01 -6.303079e-01 -2.968301e-01 -3.418891e-01 4.450384e-02 2.217486e-03 1.981213e-01 -9.943851e-02 1.061235e-01 -5.158592e-01 6.446313e-01 4.170227e-01 6.121705e-01
<VARIANCE> 39
 2.942671e+00 2.481016e+00 1.418122e+01 1.121947e+01 1.818353e+01 3.605292e+01 3.196095e+01 5.591813e+01 4.268700e+01 2.847645e+01 2.252112e+01 2.315121e+01 5.716716e-01 1.322559e+00 1.996708e+00 1.978564e+00 2.012171e+00 2.242802e+00 2.345510e+00 1.952516e+00 8.359595e+00 1.369580e+00 3.179063e+00 1.454408e+00 2.848505e+00 1.055651e+00 1.524072e-01 4.229195e-01 4.247225e-01 3.132300e-01 3.446335e-01 6.274139e-01 7.223984e-01 1.546078e+00 2.027788e-01 4.425615e-01 4.181392e-01 4.903037e-01 7.329071e-02
<GCONST> 1.024724e+02
<MIXTURE> 4 1.594786e-01
<MEAN> 39
 -1.934864e+01 1.629316e+00 1.402997e+00 -1.415478e+00 9.026997e+00 -4.287293e-01 1.941867e+00 6.694860e-01 2.552619e+00 -4.035459e+00 -6.585870e-01 -2.554246e+00 1.332116e+01 1.313673e+00 -1.772149e+00 -4.461218e-01 1.702791e-01 -2.649021e+00 -1.981980e+00 -9.671614e-02 -1.248441e+00 2.382157e-01 -9.136482e-01 6.785180e-01 -2.742286e-01 6.407628e-01 1.084512e+00 -2.448053e-01 -6.402136e-02 1.629744e-01 -4.811547e-01 -7.500485e-01 -1.488782e-01 -5.689801e-01 4.421380e-02 9.610497e-02 1.844961e-01 1.401903e-01 5.909905e-01
<VARIANCE> 39
 2.901034e+01 3.444263e+01 3.938369e+01 3.577004e+01 5.570642e+01 4.690552e+01 5.988251e+01 3.949916e+01 3.698344e+01 7.196105e+01 2.911706e+01 1.622327e+01 9.138068e+00 9.793489e+00 3.752397e+00 5.038036e+00 3.795653e+00 5.018082e+00 3.616156e+00 3.165431e+00 4.264868e+00 5.075731e+00 5.168880e+00 2.508757e+00 2.291383e+00 1.252731e+00 3.498407e-01 7.338548e-01 4.549226e-01 3.028482e-01 9.799355e-01 1.065381e+00 6.442826e-01 1.056185e+00 9.884133e-01 9.819891e-01 4.573405e-01 4.791155e-01 1.285638e-01
<GCONST> 1.277428e+02
<MIXTURE> 5 1.608375e-01
<MEAN> 39
 -1.267442e+01 2.360344e-01 1.113580e+00 2.306682e+00 3.002729e+00 -1.284732e+00 1.172878e+00 1.758011e+00 -1.114612e+00 -2.298963e+00 4.692284e-01 -8.767320e-01 1.043911e+01 -1.939470e-01 -1.294585e+00 2.486123e-01 4.187342e-01 -6.550642e-01 -1.273059e-01 2.312816e-01 -7.970620e-01 4.469276e-01 4.619486e-01 -1.350631e-01 -2.131061e-01 8.812885e-01 8.320425e-02 -4.542476e-02 3.745447e-01 -1.299740e-01 1.027714e-01 -3.094894e-01 -2.938117e-01 -4.462529e-01 -7.047390e-02 -1.315659e-01 8.009391e-02 -2.551579e-01 4.270871e-01
<VARIANCE> 39
 6.792150e+00 9.064075e+00 9.051812e+00 1.261408e+01 1.661270e+01 4.070812e+01 2.718154e+01 3.339741e+01 3.411958e+01 3.357994e+01 3.263587e+01 1.347465e+01 1.418896e+00 1.851664e+00 2.663810e+00 3.963670e+00 4.854435e+00 3.046992e+00 4.583682e+00 5.718691e+00 7.408802e+00 5.077547e+00 5.148749e+00 4.641151e+00 2.706917e+00 1.404140e+00 1.615480e-01 1.979752e-01 4.341191e-01 4.012084e-01 3.261335e-01 8.853639e-01 8.073131e-01 7.500087e-01 6.553182e-01 5.359831e-01 5.095348e-01 2.821197e-01 1.440971e-01
<GCONST> 1.125549e+02
<MIXTURE> 6 1.385975e-01
<MEAN> 39
 -8.015213e+00 -3.717308e-01 -1.673569e+00 6.722559e-01 1.278444e+00 -7.596836e+00 -3.928192e+00 -2.063539e-01 3.388968e-01 1.427221e-01 1.022140e+00 -3.191402e+00 1.186175e+01 -1.423542e+00 -1.068031e+00 -1.277066e+00 -7.569562e-01 -1.666238e+00 5.191519e-01 7.590622e-01 8.413255e-01 9.774749e-01 7.302881e-01 2.473783e-01 2.682785e-01 -7.530602e-01 2.927285e-01 -2.071598e-01 7.674441e-01 1.848369e-01 1.824345e-01 -8.749023e-02 4.819524e-01 1.156565e-01 1.054951e-01 -9.682397e-01 2.743249e-01 -6.416489e-02 7.723768e-01
<VARIANCE> 39
 8.414111e+00 1.442389e+01 2.007200e+01 1.118183e+01 3.017157e+01 3.261331e+01 3.305609e+01 3.856266e+01 2.784317e+01 4.088549e+01 4.239623e+01 2.622289e+01 1.658070e+00 1.002913e+00 3.562152e+00 2.242647e+00 2.498485e+00 2.667412e+00 3.191864e+00 3.112318e+00 3.936430e+00 3.443245e+00 4.083853e+00 2.748185e+00 1.751182e+00 1.066031e+00 1.860807e-01 3.419085e-01 3.309384e-01 3.689131e-01 5.836896e-01 7.556610e-01 3.066230e-01 6.262956e-01 5.010962e-01 6.461300e-01 7.934071e-01 6.094031e-01 7.658532e-02
<GCONST> 1.106609e+02
<MIXTURE> 7 1.395425e-01
<MEAN> 39
 -9.429511e+00 3.289352e+00 5.222447e+00 6.360655e+00 3.658755e+00 -4.843844e+00 -1.409724e+00 -4.949619e-02 -1.814188e+00 -3.599480e+00 1.200438e+00 8.276633e-01 1.146878e+01 -2.101266e-01 -1.954704e+00 -2.290382e+00 -1.462230e+00 -1.033641e+00 8.595586e-01 2.847131e-01 -5.711806e-01 8.533226e-01 5.063807e-01 9.080836e-01 1.698458e-02 2.445680e-01 3.317155e-01 -8.014110e-01 -4.636585e-01 -6.846437e-01 -4.053343e-02 -1.488585e-01 -3.263646e-02 -1.386597e-01 4.110106e-01 -1.261345e-01 2.907299e-01 -3.804651e-01 7.745606e-01
<VARIANCE> 39
 6.852908e+00 4.506144e+00 1.241918e+01 1.111560e+01 4.209193e+01 7.216734e+01 3.744363e+01 2.839923e+01 3.415119e+01 2.608449e+01 3.029372e+01 1.956818e+01 1.223824e+00 2.579086e+00 3.908951e+00 4.642077e+00 2.890997e+00 5.804834e+00 4.110661e+00 5.141392e+00 5.222261e+00 4.139341e+00 5.164510e+00 2.119206e+00 3.019993e+00 1.655380e+00 2.546478e-01 2.794065e-01 4.988849e-01 2.950255e-01 8.061646e-01 8.515528e-01 8.829124e-01 7.844563e-01 5.830975e-01 7.472439e-01 3.136508e-01 5.230914e-01 8.441763e-02
<GCONST> 1.147819e+02
<MIXTURE> 8 1.193267e-01
<MEAN> 39
 -1.435748e+01 -1.764210e+00 3.661679e+00 -1.472260e+00 6.641307e-01 -5.247663e+00 6.938256e-01 -3.684836e+00 7.342774e-01 -5.062289e+00 -1.225074e+00 -1.441237e-01 1.614884e+01 -3.607927e+00 -2.728436e+00 -1.867826e+00 -2.949507e+00 -1.319720e+00 7.399786e-01 3.567638e-01 5.416045e-01 2.036644e+00 9.286119e-01 8.237588e-01 3.001882e-01 -2.339845e-02 4.965410e-01 6.047266e-01 6.574427e-01 3.149581e-01 -2.736595e-03 -5.826206e-01 2.130304e-01 -1.490519e-01 -2.568466e-01 1.210411e-02 2.162673e-01 -3.239533e-01 3.045129e-01
<VARIANCE> 39
 5.565485e+01 5.989141e+01 3.722998e+01 3.711128e+01 4.994907e+01 3.509486e+01 2.914962e+01 3.102030e+01 3.564241e+01 1.902308e+01 1.215553e+01 1.693017e+01 3.875175e+00 7.101783e+00 1.651046e+00 3.565517e+00 2.381859e+00 2.035558e+00 3.614886e+00 4.381625e+00 2.802206e+00 3.214974e+00 2.782476e+00 2.394619e+00 1.895486e+00 8.934177e-01 8.583974e-01 4.213439e-01 7.173732e-01 8.363098e-01 4.786820e-01 4.761865e-01 7.428498e-01 4.737251e-01 1.025071e+00 4.307527e-01 1.455897e-01 3.245486e-01 8.094035e-02
<GCONST> 1.167577e+02
<STATE> 4
<NUMMIXES> 8
<MIXTURE> 1 1.003970e-01
<MEAN> 39
 -9.921558e+00 -5.755533e+00 4.335018e+00 3.030365e+00 1.156294e+00 -5.504686e+00 5.596433e-01 2.770135e-01 5.666495e-02 -5.944177e+00 4.996990e+00 -3.253278e+00 1.862783e+01 1.653743e+00 7.155250e-01 1.507347e+00 7.857816e-01 3.137476e-02 -2.006648e+00 1.053638e+00 1.848134e-01 9.862860e-01 -1.746503e+00 -9.640485e-03 5.350319e-01 1.166335e+00 7.211530e-01 7.982678e-01 -4.290324e-01 -3.352080e-01 4.323190e-01 -5.160984e-01 2.751952e-01 -5.573987e-01 1.138873e-01 3.704427e-01 -7.000450e-01 1.398037e-01 -2.534614e-01
<VARIANCE> 39
 8.719600e+00 2.533548e+01 3.734532e+01 2.801880e+01 3.536977e+01 2.682287e+01 3.043177e+01 3.687817e+01 5.988093e+01 4.019814e+01 2.232881e+01 2.748429e+01 7.802383e-01 4.558403e+00 2.706186e+00 3.437080e+00 3.384965e+00 5.088268e+00 5.022171e+00 4.894646e+00 2.303748e+00 4.885623e+00 6.259192e+00 3.769768e+00 1.527342e+00 6.074802e-01 3.382117e-01 5.399219e-01 8.320374e-01 8.656701e-01 7.079445e-01 6.311505e-01 1.018992e+00 9.620809e-01 1.098344e+00 1.504764e+00 6.147470e-01 6.483861e-01 7.071042e-02
<GCONST> 1.212457e+02
<MIXTURE> 2 1.377395e-01
<MEAN> 39
 -1.802738e+01 -2.633093e+00 5.074124e+00 -6.252055e-01 3.808380e+00 -5.912112e+00 4.246130e+00 -5.466033e+00 -2.705420e-01 -1.550179e+00 6.568841e-01 -2.185136e+00 1.756611e+01 4.008688e+00 1.537888e+00 5.733268e-01 2.500341e-01 3.660419e-01 -7.123217e-01 4.320008e-01 -2.490259e-01 -1.637058e-01 -5.486425e-03 2.438965e-01 -9.053238e-01 6.014005e-01 1.415359e+00 4.275624e-01 -4.047164e-01 -5.287805e-01 -1.925028e-01 -3.966667e-01 -4.090748e-01 3.106208e-01 4.723375e-01 -2.372136e-01 2.273443e-01 -2.261838e-01 2.333041e-01
<VARIANCE> 39
 2.762708e+01 3.041386e+01 4.227320e+01 1.791239e+01 4.364967e+01 5.489106e+01 4.667671e+01 2.497090e+01 4.374500e+01 4.144861e+01 2.371748e+01 3.058822e+01 1.125020e+00 5.539104e+00 1.872020e+00 2.134939e+00 4.618600e+00 3.681641e+00 4.484984e+00 4.707751e+00 3.196238e+00 2.022297e+00 2.041954e+00 3.250653e+00 2.874661e+00 1.629864e-01 2.847946e-01 2.795515e-01 3.578355e-01 3.675237e-01 5.370379e-01 9.311119e-01 8.720618e-01 4.804190e-01 7.198634e-01 8.205804e-01 4.688215e-01 5.704846e-01 2.604586e-02
<GCONST> 1.144566e+02
<MIXTURE> 3 1.462367e-01
<MEAN> 39
 -2.594811e+01 1.969555e+00 3.511975e+00 -6.437454e+00 3.021257e+00 -7.819250e+00 2.350136e+00 -2.234869e+00 2.003192e+00 -1.425380e+00 1.289260e-01 -5.265765e-01 1.809484e+01 2.399787e-01 -1.806129e-01 -2.449379e-01 1.055879e-01 -5.448542e-01 -3.785249e-01 -1.387804e-01 -1.591851e-01 1.162513e-01 7.409948e-01 2.407509e-01 -2.327527e-01 4.714880e-04 1.030445e+00 3.232778e-01 3.368539e-01 4.382919e-01 2.291240e-01 5.440951e-02 -8.696760e-02 -7.976926e-02 -3.182420e-02 -1.313336e-01 -8.735845e-03 -2.079045e-01 3.705972e-02
<VARIANCE> 39
 4.519304e+00 1.794332e+01 2.640552e+01 1.273388e+01 4.228227e+01 2.798435e+01 2.384334e+01 3.907659e+01 2.591191e+01 2.551593e+01 3.004248e+01 2.173080e+01 4.829575e-01 1.210850e+00 5.193067e-01 1.781027e+00 2.383876e+00 2.423840e+00 3.047738e+00 1.876096e+00 2.938159e+00 2.487676e+00 2.843629e+00 2.306056e+00 2.072450e+00 2.574399e-02 5.029678e-01 1.811580e-01 2.268684e-01 3.422793e-01 4.050206e-01 4.819876e-01 3.263852e-01 5.118098e-01 4.258518e-01 4.667593e-01 4.183703e-01 3.273986e-01 9.012542e-03
<GCONST> 9.591408e+01
<MIXTURE> 4 1.280580e-01
<MEAN> 39
 -3.447294e+00 -8.097402e+00 -8.812848e+00 4.755432e-01 3.081765e-01 -2.309773e+00 8.374025e-01 -5.231774e+00 1.747392e+00 -1.563500e+00 2.561982e+00 -1.488131e+00 1.746668e+01 1.207197e-01 -8.306738e-01 -5.638945e-01 -2.895724e-01 7.901497e-01 4.473386e-01 4.450146e-01 -8.263178e-01 5.956098e-01 5.660215e-01 6.287503e-01 3.551515e-01 1.010029e+00 -5.555869e-01 9.075060e-01 1.227776e+00 3.013096e-02 6.556759e-01 -2.694597e-01 1.381180e-01 4.586285e-01 -1.084374e-01 -3.543693e-01 -3.017295e-01 -1.605634e-01 -2.492277e-01
<VARIANCE> 39
 3.323999e+01 2.080986e+01 4.724109e+01 5.422232e+01 7.055701e+01 6.130065e+01 6.128104e+01 7.582285e+01 3.656708e+01 2.194756e+01 3.097939e+01 2.154706e+01 4.862145e+00 5.513944e+00 5.758162e+00 6.201041e+00 4.074391e+00 3.561380e+00 5.801973e+00 5.505418e+00 5.928319e+00 5.273256e+00 3.698033e+00 3.634835e+00 2.733410e+00 1.138013e+00 9.267325e-01 3.872500e-01 8.027713e-01 7.631249e-01 1.087558e+00 1.093089e+00 1.105597e+00 1.304065e+00 8.366687e-01 6.869402e-01 4.134540e-01 4.727353e-01 1.976039e-01
<GCONST> 1.314669e+02
<MIXTURE> 5 1.604791e-01
<MEAN> 39
 -2.196447e+01 -3.766705e+00 8.982048e+00 -3.826800e+00 -4.158293e+00 -3.226447e+00 2.422854e+00 -5.644336e+00 4.799590e+00 -3.619616e+00 4.807576e+00 -3.228077e+00 1.746728e+01 -8.354895e-01 1.817382e-01 9.817994e-01 2.823855e-02 -3.672160e-01 -3.465586e-01 6.517204e-01 -3.709367e-01 6.076695e-02 2.747076e-02 2.067956e-01 -2.079743e-01 5.778117e-01 1.072290e+00 3.827901e-01 -7.830397e-02 7.021533e-01 5.093566e-01 -2.481355e-01 -2.478274e-01 2.160305e-01 -3.261008e-01 -1.468807e-01 -4.949031e-01 6.703625e-02 -1.523857e-01
<VARIANCE> 39
 3.215690e+01 1.268310e+01 2.731105e+01 2.675748e+01 2.173383e+01 1.701081e+01 3.073641e+01 2.676599e+01 2.761363e+01 3.461250e+01 2.245364e+01 2.464076e+01 1.796657e+00 4.042172e+00 1.333583e+00 3.598482e+00 4.424435e+00 3.573529e+00 2.443033e+00 3.075761e+00 2.903876e+00 3.032460e+00 2.344562e+00 2.266940e+00 2.418399e+00 4.004993e-01 6.907781e-01 4.161513e-01 7.883911e-01 6.962415e-01 6.877145e-01 4.470618e-01 5.805537e-01 5.710794e-01 6.354880e-01 5.786906e-01 5.647709e-01 4.515010e-01 8.526190e-02
<GCONST> 1.132697e+02
<MIXTURE> 6 1.140485e-01
<MEAN> 39
 -2.165283e+01 -1.539889e+00 3.202746e+00 -5.815367e+00 3.248733e+00 -5.640320e+00 1.661120e+00 -4.192985e+00 -1.136981e+00 -2.761346e+00 1.626704e+00 -2.928384e+00 1.725338e+01 1.699388e-01 -3.789375e-01 -3.735556e-01 -6.237428e-01 -4.735316e-01 -2.995338e-01 1.364658e-01 -3.742614e-01 -2.497694e-01 -2.150598e-01 3.413804e-02 -4.152697e-01 -1.076196e-01 2.867566e-01 -8.185064e-02 -8.128250e-02 1.544821e-01 1.305029e-01 -4.778824e-03 1.157809e-01 2.326967e-01 1.666710e-01 2.427781e-02 -6.340230e-02 8.791606e-02 -6.582741e-02
<VARIANCE> 39
 2.633049e+01 2.980084e+01 5.162792e+01 3.322462e+01 5.160218e+01 2.702577e+01 5.066123e+01 3.237708e+01 2.485567e+01 2.743817e+01 3.051130e+01 2.435331e+01 1.229913e+00 5.384910e-01 1.102012e+00 9.404798e-01 2.620861e+00 2.144351e+00 2.564902e+00 3.045462e+00 1.983032e+00 1.346758e+00 1.760045e+00 2.619740e+00 1.749482e+00 5.163153e-02 1.599254e-01 2.107296e-01 2.153924e-01 6.672449e-01 6.643445e-01 6.545950e-01 4.943067e-01 5.038035e-01 2.711183e-01 3.384902e-01 3.510408e-01 4.091288e-01 1.571295e-02
<GCONST> 1.010454e+02
<MIXTURE> 7 1.210496e-01
<MEAN> 39
 -9.857871e+00 -8.645842e+00 -6.064228e+00 -1.063389e+00 5.284370e+00 -4.945258e+00 -1.291543e+00 -2.423247e+00 3.903572e+00 -3.299854e+00 3.581312e+00 -2.134096e+00 1.700612e+01 -9.508740e-01 7.331588e-02 5.406377e-01 -1.167075e+00 3.721179e-01 -7.392516e-01 5.145304e-01 4.661964e-01 -7.435835e-05 -3.948331e-01 -8.509182e-01 -4.954702e-01 7.245101e-02 8.667293e-01 1.020863e+00 3.471804e-01 4.662974e-03 -2.438291e-01 8.757885e-02 4.151483e-01 -4.015099e-01 -4.522551e-01 7.991027e-03 -3.928601e-01 -9.397741e-02 3.875593e-02
<VARIANCE> 39
 2.354112e+01 2.272518e+01 3.386635e+01 3.232347e+01 5.176524e+01 4.665332e+01 6.049706e+01 5.018067e+01 1.648332e+01 2.802531e+01 2.021031e+01 3.249364e+01 2.869380e+00 4.803532e+00 3.072694e+00 3.993464e+00 3.057811e+00 6.528193e+00 4.796355e+00 4.875553e+00 3.805041e+00 4.004633e+00 3.888489e+00 3.324546e+00 2.652546e+00 6.683205e-01 1.160873e+00 4.820470e-01 1.218665e+00 4.545368e-01 9.763031e-01 6.871710e-01 9.088812e-01 7.633288e-01 6.092080e-01 7.330083e-01 5.007045e-01 7.446589e-01 1.810258e-01
<GCONST> 1.250824e+02
<MIXTURE> 8 9.199127e-02
<MEAN> 39
 -6.640904e+00 -7.819805e+00 -1.091469e+00 1.406502e+00 5.569965e-01 -8.965653e+00 -1.585595e+00 -2.337082e+00 3.809478e+00 -7.977527e+00 4.522425e-01 -3.782186e+00 1.806691e+01 2.461652e+00 -1.013069e-01 3.956074e-01 5.435522e-01 -1.063539e+00 -2.403211e+00 4.218568e-01 -1.080840e+00 2.832009e-01 -6.242793e-01 -2.637663e-01 1.892767e-01 1.369708e+00 7.223603e-02 9.048612e-01 -3.060898e-01 -4.498715e-01 5.199871e-01 2.224011e-01 3.515719e-01 -4.718129e-02 1.180193e-02 8.020074e-01 -1.222711e-01 1.708744e-01 -2.106472e-01
<VARIANCE> 39
 1.824242e+01 2.291448e+01 3.184520e+01 2.244621e+01 3.382625e+01 4.001945e+01 5.934135e+01 2.926782e+01 7.358133e+01 3.696856e+01 3.579703e+01 2.935283e+01 1.277388e+00 6.368053e+00 7.516811e+00 3.245325e+00 3.506184e+00 7.293917e+00 6.384450e+00 8.408916e+00 3.859872e+00 5.290936e+00 4.501455e+00 3.613327e+00 2.717111e+00 7.649407e-01 6.376050e-01 7.422994e-01 7.651629e-01 6.290985e-01 6.398571e-01 8.996786e-01 1.042105e+00 7.369695e-01 1.381938e+00 9.871761e-01 1.076079e+00 5.854313e-01 1.142195e-01
<GCONST> 1.282568e+02
<TRANSP> 5
 0.000000e+00 1.000000e+00 0.000000e+00 0.000000e+00 0.000000e+00
 0.000000e+00 4.701018e-01 5.298982e-01 0.000000e+00 0.000000e+00
 0.000000e+00 0.000000e+00 5.968285e-01 4.031714e-01 0.000000e+00
 0.000000e+00 0.000000e+00 0.000000e+00 7.536758e-01 2.463242e-01
 0.000000e+00 0.000000e+00 0.000000e+00 0.000000e+00 0.000000e+00
<ENDHMM>
~h "d"
<BEGINHMM>
<NUMSTATES> 5
<STATE> 2
<NUMMIXES> 8
<MIXTURE> 1 9.456678e-02
<MEAN> 39
 4.361641e+00 1.471303e+01 1.215765e+01 1.167235e+01 5.024970e+00 -9.361593e+00 -7.098184e+00 -8.738815e+00 -1.120556e+00 -3.447848e+00 -7.453179e+00 -7.522659e+00 1.878001e+01 2.738935e-01 1.038310e+00 8.439900e-01 1.219828e+00 1.211828e-01 1.260717e+00 -1.479727e+00 9.208550e-01 -8.548753e-02 4.926042e-01 5.294904e-01 4.603374e-01 -2.879915e-01 -4.247713e-01 -6.220111e-01 -2.606845e-01 -6.876856e-01 -8.277211e-02 -4.350014e-01 8.030248e-01 1.542394e-01 1.975815e-01 2.742143e-01 7.562789e-01 7.322418e-01 4.819254e-02
<VARIANCE> 39
 6.287713e+00 1.556048e+01 1.161401e+01 1.296410e+01 1.031767e+01 1.396327e+01 3.039962e+01 1.028374e+01 2.670523e+01 2.246311e+01 2.269359e+01 6.919964e+00 5.466010e-01 2.833095e-01 2.389985e+00 7.835227e-01 2.640335e+00 8.270544e-01 1.575416e+00 5.225181e+00 1.527028e+00 3.048514e+00 2.546117e+00 3.314052e+00 2.557776e+00 4.354979e-02 1.646123e-01 4.588318e-01 2.154191e-01 3.444969e-01 3.374792e-01 2.973960e-01 6.946418e-01 2.729360e-01 4.285056e-01 3.291144e-01 6.393603e-01 2.836650e-01 7.487372e-03
<GCONST> 8.886409e+01
<MIXTURE> 2 9.256638e-02
<MEAN> 39
 1.327207e+00 8.451855e+00 2.734005e+00 3.656062e+00 6.349098e+00 -1.192924e+01 5.004730e+00 -1.099161e+01 -6.320270e+00 -1.453951e+00 -2.733801e+00 -3.880645e+00 1.926077e+01 2.645840e-01 5.131955e-02 3.752822e-01 4.192804e-01 -2.067680e-01 1.086462e+00 -1.263709e+00 -4.285601e-01 6.889303e-01 -3.785574e-01 -4.026044e-01 9.666015e-02 -6.300820e-02 -8.643547e-02 -1.126095e-01 1.231650e-01 -2.756697e-01 -2.681330e-01 -1.673305e-01 -2.797473e-02 6.531783e-01 5.183144e-01 -3.261320e-02 3.730710e-01 3.282587e-02 1.436314e-02
<VARIANCE> 39
 2.691710e+01 6.562148e+01 3.043345e+01 5.300871e+01 3.813864e+01 4.763390e+01 5.562637e+01 4.926940e+01 6.499707e+01 2.563852e+01 2.997688e+01 3.218789e+01 2.978764e+00 1.770738e+00 3.334980e+00 3.499290e+00 4.735856e+00 3.504024e+00 3.963002e+00 4.318969e+00 3.685335e+00 7.239590e+00 4.383324e+00 4.420238e+00 2.155692e+00 2.097873e-01 1.949374e-01 4.045305e-01 2.868919e-01 7.963623e-01 5.370792e-01 8.278455e-01 8.378988e-01 7.523537e-01 1.566909e+00 6.342539e-01 7.998642e-01 6.397268e-01 1.448023e-02
<GCONST> 1.212749e+02
<MIXTURE> 3 1.959656e-01
<MEAN> 39
 2.606878e+00 6.488008e+00 1.055727e+01 9.064223e+00 4.902886e+00 -1.224268e+01 -3.152297e+00 -3.374234e+00 -4.730653e-01 -3.796517e+00 1.943215e+00 -3.757880e+00 1.885093e+01 -8.571458e-02 1.875488e+00 4.579086e-01 2.637281e+00 1.374435e+00 2.653879e+00 -5.409725e-01 -5.804468e-01 -1.884753e+00 2.259549e-01 -1.869505e+00 -5.434401e-01 -5.445030e-01 -3.446730e-01 -1.767426e-01 -8.313273e-02 -9.181201e-01 -5.348288e-01 -2.449153e-01 6.234363e-02 -7.945238e-02 3.184733e-01 -9.867607e-02 1.314536e-02 7.233947e-02 8.780769e-02
<VARIANCE> 39
 9.068302e+00 3.209873e+01 2.404280e+01 3.182574e+01 2.055071e+01 2.682726e+01 2.743314e+01 2.157213e+01 2.477840e+01 2.756746e+01 1.768827e+01 2.086964e+01 5.989915e-01 1.264703e+00 2.921516e+00 2.327092e+00 3.349639e+00 3.405128e+00 4.745256e+00 4.227910e+00 2.573499e+00 3.046684e+00 2.328301e+00 2.548056e+00 4.240587e+00 4.383015e-02 1.751508e-01 5.092242e-01 4.108387e-01 7.910645e-01 4.707884e-01 8.180137e-01 7.756178e-01 5.357846e-01 7.330786e-01 5.371336e-01 5.762334e-01 4.837851e-01 1.328505e-02
<GCONST> 1.064496e+02
<MIXTURE> 4 1.293779e-01
<MEAN> 39
 2.988067e-01 1.225818e+01 1.057974e+01 5.869562e+00 4.975882e+00 -6.252680e+00 1.594113e+00 -1.024632e+01 -8.029005e+00 -7.527170e+00 -3.674995e+00 -3.142456e+00 1.923285e+01 -1.420278e+00 -3.254698e+00 4.149026e-01 -5.741971e-01 -1.044885e+00 1.675584e+00 -2.860097e+00 2.266058e+00 3.721250e+00 -4.281418e-01 7.540489e-01 -5.787038e-02 -4.922919e-01 -3.015007e-01 -6.763054e-01 -4.699956e-01 -7.898691e-01 -9.569839e-03 -1.133442e+00 3.963405e-01 6.705272e-01 5.437652e-01 9.288883e-01 6.058332e-01 6.564027e-02 6.151887e-02
<VARIANCE> 39
 2.061752e+01 3.218674e+01 2.015460e+01 2.007851e+01 2.047091e+01 4.352932e+01 3.276802e+01 2.092446e+01 4.028049e+01 3.493677e+01 3.405989e+01 3.346949e+01 1.810719e+00 2.841497e+00 3.639371e+00 2.661619e+00 3.620609e+00 6.369604e+00 4.895567e+00 4.812562e+00 3.371565e+00 6.346112e+00 4.418546e+00 3.410027e+00 3.739141e+00 2.119472e-01 4.204302e-01 5.309122e-01 3.260209e-01 5.067896e-01 6.107719e-01 5.650632e-01 6.809359e-01 4.976278e-01 7.311816e-01 7.144102e-01 4.870974e-01 6.784467e-01 3.153657e-02
<GCONST> 1.168793e+02
<MIXTURE> 5 1.927691e-01
<MEAN> 39
 3.778194e+00 1.047434e+01 1.186904e+01 1.308384e+01 4.119231e+00 -1.117543e+01 -6.222569e+00 -6.530798e+00 -3.134290e+00 -2.849016e+00 -2.426636e+00 -4.260496e+00 1.857211e+01 -1.425024e+00 4.041643e-01 7.834316e-01 6.933135e-01 7.518946e-01 2.078824e+00 -3.286571e-01 -3.910333e-01 -1.183435e+00 -1.801885e-01 -6.501409e-01 8.988051e-02 -5.237329e-01 -6.848074e-01 -1.381609e+00 -8.230619e-01 -1.734645e+00 -5.333722e-01 -1.976899e-01 5.297291e-01 4.731707e-01 1.000475e+00 5.932399e-02 6.063532e-01 1.288844e-01 7.039049e-02
<VARIANCE> 39
 8.282822e+00 1.745847e+01 1.634147e+01 2.905033e+01 1.645168e+01 2.344342e+01 1.903741e+01 3.865692e+01 3.373266e+01 3.321182e+01 2.177549e+01 1.515845e+01 7.571440e-01 1.347729e+00 4.108540e+00 3.576674e+00 4.572153e+00 2.546048e+00 4.046746e+00 3.151518e+00 3.837003e+00 4.652586e+00 3.461219e+00 2.354019e+00 2.024673e+00 6.940623e-02 2.965277e-01 4.933296e-01 3.787052e-01 7.726848e-01 5.137714e-01 6.879863e-01 6.871343e-01 7.364924e-01 1.154982e+00 6.396962e-01 5.300373e-01 5.048247e-01 4.130745e-02
<GCONST> 1.092365e+02
<MIXTURE> 6 1.053622e-01
<MEAN> 39
 6.701967e-01 4.183084e+00 4.144506e+00 4.366399e+00 1.443874e+00 -1.322330e+01 5.810653e+00 -7.171276e+00 -1.732096e+00 -1.333190e+00 1.347961e+00 -6.930517e+00 1.979426e+01 -4.737006e-01 4.669170e-01 4.854310e-01 5.711038e-01 1.868972e-01 1.039837e+00 -2.502880e-01 -5.845149e-01 -6.472539e-01 -2.791340e-01 -3.434016e-01 -2.399603e-01 -2.767341e-01 -4.875332e-02 -4.501275e-02 -1.179004e-01 -7.610327e-01 -3.233929e-02 -4.467821e-02 -2.933925e-01 4.320502e-01 3.154140e-01 -6.181732e-02 -2.057551e-01 3.017012e-01 8.179817e-03
<VARIANCE> 39
 4.155851e+01 5.431675e+01 6.252350e+01 6.559514e+01 3.335801e+01 5.582786e+01 4.768952e+01 5.481329e+01 5.646012e+01 4.202629e+01 3.763475e+01 2.810478e+01 2.652033e+00 9.317986e-01 2.579984e+00 2.335038e+00 6.573644e+00 3.130569e+00 3.414510e+00 4.525358e+00 4.964023e+00 7.144013e+00 5.807062e+00 4.624696e+00 1.643806e+00 1.126768e-01 3.150228e-01 4.911879e-01 8.039211e-01 7.175977e-01 3.689682e-01 1.283023e+00 6.516246e-01 8.489061e-01 1.007555e+00 6.897707e-01 6.294622e-01 3.532859e-01 2.714140e-02
<GCONST> 1.222574e+02
<MIXTURE> 7 9.930208e-02
<MEAN> 39
 -3.465471e+00 9.668708e+00 7.972116e+00 3.276826e+00 7.862929e+00 -7.363854e+00 6.145518e-01 -8.251228e+00 -4.851700e+00 -2.704226e+00 -3.754915e+00 -2.266817e+00 1.813989e+01 -6.575098e-01 -1.666422e+00 -4.241297e-01 6.724597e-01 -4.421606e-01 1.367020e+00 -1.451309e+00 8.622226e-01 2.413175e+00 -3.522764e-01 -5.473719e-01 -8.005151e-01 -5.987471e-01 -1.194698e-01 -7.396351e-01 -5.876830e-01 -6.813114e-01 -5.685408e-01 -3.773282e-01 2.089136e-01 4.575824e-01 2.769079e-01 2.126025e-01 5.452719e-01 -1.088245e-01 2.306490e-02
<VARIANCE> 39
 6.230008e+01 4.275251e+01 3.368597e+01 2.424923e+01 2.648705e+01 6.274260e+01 3.098053e+01 4.895957e+01 5.090094e+01 1.574725e+01 2.071878e+01 4.104812e+01 7.042602e+00 5.966014e+00 7.171633e+00 3.514455e+00 5.555060e+00 2.657902e+00 5.860933e+00 4.280563e+00 3.200545e+00 6.387079e+00 3.388285e+00 4.420490e+00 3.310972e+00 6.038456e-01 5.368525e-01 8.204741e-01 5.490181e-01 9.473323e-01 5.144898e-01 7.437303e-01 4.988383e-01 8.810809e-01 5.356765e-01 7.030637e-01 4.334578e-01 8.371854e-01 8.950710e-02
<GCONST> 1.260791e+02
<MIXTURE> 8 9.009001e-02
<MEAN> 39
 2.752821e+00 1.268431e+01 1.017772e+01 1.129004e+01 7.397632e+00 -6.528863e+00 -5.622602e+00 -7.939603e+00 -3.637375e+00 -3.855843e+00 -2.381063e+00 -6.375179e+00 1.813628e+01 -7.566004e-02 1.921479e+00 6.897512e-01 1.055205e+00 -1.747953e-01 8.772362e-01 -3.584497e-01 4.837612e-02 -1.414293e+00 -1.193813e-01 -7.046812e-01 -1.114597e-02 -2.903681e-01 -2.545199e-01 -6.168797e-01 -8.158076e-02 -6.886908e-01 -3.834075e-01 -4.682693e-01 3.554975e-01 1.301914e-01 5.020843e-01 6.675215e-02 3.645274e-01 1.621213e-01 2.819023e-02
<VARIANCE> 39
 1.701224e+01 1.400004e+01 2.858294e+01 2.420950e+01 1.361688e+01 1.793207e+01 5.609302e+01 2.548188e+01 2.560888e+01 2.505587e+01 1.703964e+01 1.467055e+01 4.370721e-01 6.893979e-01 2.289597e+00 5.435514e-01 4.874188e+00 1.305181e+00 4.433250e+00 3.750878e+00 1.971036e+00 3.841806e+00 2.540820e+00 3.625141e+00 1.733954e+00 6.749761e-02 1.112673e-01 3.341372e-01 1.651871e-01 4.613223e-01 4.253025e-01 3.616773e-01 3.781089e-01 3.407805e-01 4.347782e-01 3.549876e-01 2.957238e-01 4.399816e-01 7.135738e-03
<GCONST> 9.558027e+01
<STATE> 3
<NUMMIXES> 8
<MIXTURE> 1 1.214915e-01
<MEAN> 39
 3.400475e+00 4.432206e+00 6.678136e-01 1.502819e+00 6.000960e+00 -7.329521e+00 -4.551318e+00 -9.392119e+00 -2.275962e-03 -7.360773e-01 1.246091e+00 -3.283762e+00 1.935475e+01 4.102066e-01 -1.669789e-01 1.177658e-01 -3.973528e-01 -1.146789e+00 2.269130e-01 -6.581119e-01 6.202286e-01 1.626325e+00 -2.978586e-01 9.759832e-01 5.439365e-01 2.471543e-02 -2.242901e-01 2.744978e-01 2.505457e-01 -1.847835e-01 1.080487e-01 -1.789896e-01 1.004563e+00 4.318648e-01 -3.086916e-01 -2.103965e-01 -1.475461e-01 3.832940e-01 1.223507e-03
<VARIANCE> 39
 1.640471e+01 3.110406e+01 2.027254e+01 3.032549e+01 3.888059e+01 4.663972e+01 5.006563e+01 4.600695e+01 5.011201e+01 3.612262e+01 2.553842e+01 4.265321e+01 1.106198e+00 4.142007e+00 2.877950e+00 2.315112e+00 3.000006e+00 3.942089e+00 3.898375e+00 6.738761e+00 5.293242e+00 5.845616e+00 3.067926e+00 3.099344e+00 3.563415e+00 1.512662e-01 4.223259e-01 6.619939e-01 3.785396e-01 3.286534e-01 6.428155e-01 6.637243e-01 7.008302e-01 5.969101e-01 9.363043e-01 5.913267e-01 5.492685e-01 7.361674e-01 2.088262e-02
<GCONST> 1.178492e+02
